tree
version=v4
num_class=1
num_tree_per_iteration=1
label_index=0
max_feature_idx=19
objective=regression
feature_names=pm10 lag_1 lag_6 lag_24 lag_48 rolling_mean_6 rolling_std_6 rolling_min_6 rolling_max_6 rolling_mean_24 rolling_std_24 rolling_min_24 rolling_max_24 rolling_mean_48 rolling_std_48 rolling_min_48 rolling_max_48 hour dayofweek month
feature_infos=[-2.5728724676293799:1.764912419275303] [-2.5728724676293799:1.764912419275303] [-2.5728724676293799:1.764912419275303] [-2.5728724676293799:1.764912419275303] [-2.5728724676293799:1.764912419275303] [-2.0968140182590056:1.4026119342875216] [0.047241146070885871:0.73727012344234566] [-2.5728724676293799:1.1574819854025278] [-1.8536218918251841:1.764912419275303] [-1.5299566184412861:0.72389462884503442] [0.36422627695707266:0.71025053167063568] [-2.5728724676293799:-0.071971068028005472] [-0.79008943726683123:1.764912419275303] [-1.5339213854765363:0.66346851617446856] [0.42264869270927269:0.64125804567472289] [-2.5728724676293799:-0.18446510751771483] [-0.70569538332270865:1.764912419275303] [0:23] [0:6] [1:9]
tree_sizes=2803 2853 2854 2851 2867 2840 2855 2853 2862 2860 2866 2864 2860 2878 2863 2861 2882 2871 2879 2885 2881 2889 2881 2876 2889 2882 2879 2880 2896 2902 2894 2895 2887 2905 2899 2894 2922 2900 2910 2917 2918 2916 2925 2908 2920 2913 2914 2924 2915 2902 2908 2929 2937 2921 2918 2923 2930 2926 2939 2916 2928 2916 2924 2923 2920 2944 2954 2936 2932 2945 2943 2925 2923 2919 2931 2906 2925 2937 2920 2948 2940 2933 2933 2942 2948 2938 2933 2920 2939 2928 2942 2949 2911 2951 2928 2914 2927 2936 2911 2930 2919 2917 2936 2946 2958 2915 2926 2927 2935 2927 2922 2942 2926 2936 2903 2894 2914 2932 2919 2939 2936 2904 2901 2899 2900 2909 2927 2889 2903 2938 2940 2891 2913 2922 2734 2900 2925 2921 2921 2887 2903 2901 2939 1666 2893 2905 2906 2189 2893 2913 2912 2926 2887 2936 2909 2916 2926 2897 2905 2899 2918 2905 2908 2004 2892 2902 2920 2910 2924 2921 2909 2927 2923 2918 2913 2923 2929 1672 1750 2925 2928 2905 2901 2913 2892 1748 2939 2908 2939 2915 2913 1920 1859 2920 2921 2892 2885 2923 2917 2934

Tree=0
num_leaves=31
num_cat=0
split_feature=3 0 0 3 0 3 0 3 3 0 16 13 17 17 0 17 0 3 17 13 16 17 13 13 1 17 17 17 13 17
split_gain=2054.49 404.562 277.66 70.5387 54.4812 45.0348 40.3283 17.2924 17.1991 15.3481 15.0275 12.6203 12.2743 9.32125 8.78452 7.55167 7.2156 6.6861 6.65268 6.6053 6.52404 6.48588 8.25183 6.1943 5.38275 4.88082 7.11535 4.83077 4.58764 4.38144
threshold=-0.53362038134660594 0.18254731803819582 -1.1896528219964244 0.56321238171436006 -0.28371399966871697 -1.3903009111134752 -0.6712331396460729 0.18422749048771678 -1.0406571722822326 0.72088472647365498 1.2832903779180429 -1.0364680403346436 8.5000000000000018 5.5000000000000009 -0.54316658933767958 21.500000000000004 -0.4394542436701428 -1.4687547524865372 7.5000000000000009 -0.59175955254714341 0.83718575415863261 9.5000000000000018 -0.59646612747656425 0.1544031200367498 0.35593695234531247 8.5000000000000018 17.500000000000004 12.500000000000002 -1.2487358490295948 7.5000000000000009
decision_type=2 2 2 2 2 2 2 2 2 2 2 2 2 2 2 2 2 2 2 2 2 2 2 2 2 2 2 2 2 2
left_child=2 4 5 9 14 11 8 18 17 13 -5 15 -12 20 -2 27 -8 -4 19 -6 -3 -7 -23 -20 -15 -10 -27 -1 -29 -19
right_child=1 3 6 10 7 21 16 -9 25 -11 12 -13 -14 24 -16 -17 -18 29 23 -21 -22 22 -24 -25 -26 26 -28 28 -30 -31
leaf_value=-0.48992122035971702 -0.44727347387494276 -0.41287915426312383 -0.49017803278271993 -0.39543226828268052 -0.430226763165799 -0.46830422759404955 -0.45834821650035451 -0.41442301794708519 -0.45653742826397847 -0.39163828460762606 -0.37414984287189246 -0.49279161289446843 -0.39409663183218269 -0.42017649553361086 -0.43714369836598527 -0.49016948325799709 -0.44758555708181041 -0.46214318822227402 -0.43643002894448918 -0.41440902710161637 -0.39635549374649476 -0.48945387467678014 -0.47181151586169667 -0.42531662448130142 -0.40858083311436982 -0.47172137383701529 -0.45798913423883886 -0.51705039995335678 -0.50594385609033865 -0.47627671946679062
leaf_weight=26 401 98 74 217 132 60 308 285 180 131 307 178 103 227 459 50 315 67 318 132 153 329 83 207 179 246 153 213 165 302
leaf_count=26 401 98 74 217 132 60 308 285 180 131 307 178 103 227 459 50 315 67 318 132 153 329 83 207 179 246 153 213 165 302
internal_value=-0.443918 -0.417624 -0.475951 -0.397307 -0.432489 -0.495348 -0.462933 -0.424979 -0.469046 -0.407265 -0.384792 -0.504076 -0.379161 -0.410381 -0.441867 -0.5085 -0.452906 -0.476461 -0.428792 -0.422318 -0.402807 -0.483663 -0.4859 -0.432048 -0.415064 -0.463372 -0.466456 -0.510768 -0.512202 -0.47371
internal_weight=6098 3349 2749 1415 1934 1104 1645 1074 1022 788 627 632 410 657 860 454 623 443 789 264 251 472 412 525 406 579 399 404 378 369
internal_count=6098 3349 2749 1415 1934 1104 1645 1074 1022 788 627 632 410 657 860 454 623 443 789 264 251 472 412 525 406 579 399 404 378 369
is_linear=0
shrinkage=1


Tree=1
num_leaves=31
num_cat=0
split_feature=4 0 3 4 3 4 3 0 16 17 0 4 3 0 4 3 15 0 17 13 13 12 17 17 13 17 13 2 3 17
split_gain=1854.26 311.885 302.874 62.5157 60.717 44.4983 39.1814 22.5572 17.8552 18.0118 15.4714 14.4605 10.6265 9.24099 8.41758 7.61948 7.06281 6.28176 5.7411 5.64601 5.14265 5.1332 5.03607 4.98912 6.41331 4.1923 3.72645 5.2313 3.55556 3.52585
threshold=-0.44826020226563035 0.18254731803819582 -1.1882775979687357 0.45581162141206827 -0.5640940321039426 -1.5639308952978628 -0.30183321579596617 -0.96286819201579854 1.02983922216233 8.5000000000000018 -1.2930657272381341 0.17389059581062219 0.25061991651351406 -0.45575582909022022 -1.0213481919824321 -0.5229662870869366 -2.1724711599491964 -0.29095505775419639 7.5000000000000009 0.30309081511055236 -0.16226543574731853 0.57611021128631468 10.500000000000002 8.5000000000000018 -0.60245284989805847 7.5000000000000009 -1.0742229920464872 -1.523144655259004 0.14328918924425238 20.500000000000004
decision_type=2 2 2 2 2 2 2 2 2 2 2 2 2 2 2 2 2 2 2 2 2 2 2 2 2 2 2 2 2 2
left_child=2 6 5 12 7 16 15 14 -5 19 26 17 -3 -6 -4 -2 -1 -8 20 -10 -14 22 -12 -9 -25 -19 27 -7 -13 -26
right_child=1 3 4 8 13 10 11 23 9 -11 21 28 18 -15 -16 -17 -18 25 -20 -21 -22 -23 -24 24 29 -27 -28 -29 -30 -31
leaf_value=-0.064859901515103999 -0.0028277960306202221 0.026590011376773023 -0.035350368813699073 0.038762275324751662 -0.0084763971264917581 -0.041119129260858672 0.0084721062301225444 -0.01035530569273433 0.057295053237822004 0.043794526398744225 -0.021937624172719775 0.022420616757453368 0.033284007740439846 0.0039042574418091803 -0.022352156512195541 0.0081907400625727319 -0.052135195578798393 0.02471109934385432 0.031820915683397448 0.068583207679487376 0.050533686113312729 -0.015940190071151369 -0.038150412509125986 -0.025992354425041272 -0.017178797560890077 0.014948559394706294 -0.043093966987058897 -0.061080370056495241 0.033235611491343194 -0.003707434766693041
leaf_weight=295 306 310 298 146 315 52 254 239 205 159 61 153 64 289 214 322 173 163 145 241 133 42 223 204 255 338 199 89 151 60
leaf_count=295 306 310 298 146 315 52 254 239 205 159 61 153 64 289 214 322 173 163 145 241 133 42 223 204 255 338 199 89 151 60
internal_value=-4.33375e-11 0.0272033 -0.0279449 0.0446221 -0.0156029 -0.0483407 0.0127169 -0.0218096 0.0544563 0.0582436 -0.0400379 0.0185849 0.0332946 -0.00255254 -0.0299175 0.00282184 -0.0601561 0.0148774 0.0393719 0.0633947 0.0449297 -0.0322553 -0.0346681 -0.016333 -0.0190857 0.0181248 -0.0475001 -0.0537188 0.0277925 -0.0146128
internal_weight=6098 3090 3008 1403 1874 1134 1687 1270 751 605 666 1059 652 604 512 628 468 755 342 446 197 326 284 758 519 501 340 141 304 315
internal_count=6098 3090 3008 1403 1874 1134 1687 1270 751 605 666 1059 652 604 512 628 468 755 342 446 197 326 284 758 519 501 340 141 304 315
is_linear=0
shrinkage=0.05


Tree=2
num_leaves=31
num_cat=0
split_feature=3 3 0 4 0 4 4 0 16 17 0 0 3 17 3 16 15 4 17 17 11 17 17 4 15 17 17 13 19 17
split_gain=1674.05 329.977 227.435 61.7178 51.5752 39.0919 37.9673 18.1013 15.3874 19.7407 15.1152 13.5369 10.8022 10.3183 8.35361 7.27969 6.83138 6.55684 4.76755 4.4031 5.07405 4.21046 4.06365 3.99303 3.99231 3.76753 3.74367 3.69553 3.63874 3.62783
threshold=-0.53362038134660594 0.25061991651351406 -1.1896528219964244 -0.26906081481409311 0.40421897795102263 -0.92014875526426398 -1.5139246555254497 -0.10491332809366409 1.1082433842814583 8.5000000000000018 -0.55258092837289252 -0.4394542436701428 -1.1976159644834523 7.5000000000000009 -1.2446638246954378 0.6957969988512599 -2.0206092072025315 0.19098385945827323 5.5000000000000009 4.5000000000000009 -0.95503309426414529 4.5000000000000009 20.500000000000004 -0.44093451203047823 -1.0395807550159264 9.5000000000000018 18.500000000000004 -0.2638468751963558 5.5000000000000009 8.5000000000000018
decision_type=2 2 2 2 2 2 2 2 2 2 2 2 2 2 2 2 2 2 2 2 2 2 2 2 2 2 2 2 2 2
left_child=2 3 6 11 17 14 16 21 -6 -10 18 19 -8 15 -4 -9 22 -3 -7 -2 -21 -5 -1 -12 -20 -14 -23 -15 -19 -30
right_child=1 4 5 7 8 10 12 13 9 -11 23 -13 25 27 -16 -17 -18 28 24 20 -22 26 -24 -25 -26 -27 -28 -29 29 -31
leaf_value=-0.061896803636858067 0.0043984533034058084 0.023611136306889165 -0.036067582534054635 0.020018705853527715 0.040100568807553333 -0.0077177020981384825 -0.043453462188274172 0.022499620256546352 0.061577205672895707 0.041333544410809261 -0.0080355920991860338 0.0070953425252928918 -0.015715812415874098 0.0092776243407392822 -0.023274308008795149 0.037896006182931805 -0.045065202764593637 0.023087348398613802 -0.019265711742142838 -0.011703631098399933 0.003541508372741896 0.0065657299650682946 -0.049257200729997855 0.0020681539685923427 0.0030346913152329981 -0.032518494888834321 0.01839456672856021 0.021234201777718779 0.043772030685299133 0.030605024157557639
leaf_weight=326 90 195 176 117 214 138 354 140 419 169 210 490 40 82 464 170 104 47 453 236 71 301 79 183 21 201 86 305 129 88
leaf_count=326 90 195 176 117 214 138 354 140 419 169 210 490 40 82 464 170 104 47 453 236 71 301 79 183 21 201 86 305 129 88
internal_value=-8.33664e-11 0.0237351 -0.0289155 0.0115382 0.0439309 -0.0171337 -0.0464709 0.0189258 0.0515807 0.0557589 -0.0109828 0.00153548 -0.0378947 0.0241456 -0.0267925 0.0309428 -0.056496 0.0305645 -0.0158965 -0.00532682 -0.00817788 0.0117072 -0.0594313 -0.00333079 -0.0182777 -0.0297297 0.00919436 0.0187008 0.0357005 0.0384324
internal_weight=6098 3349 2749 2088 1261 1645 1104 1201 802 588 1005 887 595 697 640 310 509 459 612 397 307 504 405 393 474 241 387 387 264 217
internal_count=6098 3349 2749 2088 1261 1645 1104 1201 802 588 1005 887 595 697 640 310 509 459 612 397 307 504 405 393 474 241 387 387 264 217
is_linear=0
shrinkage=0.05


Tree=3
num_leaves=31
num_cat=0
split_feature=3 0 0 3 0 3 3 3 0 0 13 17 0 16 17 16 17 3 9 17 15 13 0 5 3 13 17 1 17 17
split_gain=1510.83 299.283 205.26 53.109 40.9013 34.1864 30.5646 12.9953 12.9487 11.6765 11.6215 10.1081 9.61235 7.63864 8.77029 7.84744 7.33772 7.20846 6.83585 5.28174 5.80328 5.33332 5.06683 4.99293 4.86716 4.84494 5.65781 4.23391 4.23218 3.70745
threshold=-0.53362038134660594 0.18254731803819582 -1.1896528219964244 0.56321238171436006 -0.28371399966871697 -1.5543178011518333 -1.001309632390371 0.18422749048771678 -0.48858992066648227 0.72088472647365498 0.23278470500890333 9.5000000000000018 -1.4449136182556426 0.13164569409931906 8.5000000000000018 1.0239260023129007 5.5000000000000009 -1.438549060810465 -1.2062023257220893 7.5000000000000009 -1.6500911835433769 0.1544031200367498 -0.96286819201579854 0.12405574566282532 -1.1664969333576602 -0.31974282671224369 7.5000000000000009 0.35593695234531247 21.500000000000004 21.500000000000004
decision_type=2 2 2 2 2 2 2 2 2 2 2 2 2 2 2 2 2 2 2 2 2 2 2 2 2 2 2 2 2 2
left_child=2 4 5 9 13 18 17 19 22 16 -5 -12 -7 -2 -15 29 23 -4 28 20 -6 -21 -8 -3 -14 26 -19 -18 -1 -16
right_child=1 3 6 10 7 12 8 -9 -10 -11 11 -13 24 14 15 -17 27 25 -20 21 -22 -23 -24 -25 -26 -27 -28 -29 -30 -31
leaf_value=-0.061735584946970151 -0.0081812289547788346 0.03125915398104067 -0.038401575127373577 0.041458944306643902 0.011320088855405409 -0.043583491911598743 -0.022211199830501127 0.025421054995549322 -0.0030800905692109177 0.045012527030274162 0.059250859168992531 0.038027901936378054 -0.036963507561659857 0.012903034834173294 -0.0074603667714121212 0.0077974671710814751 0.019975483555799055 -0.014713652114531413 -0.047450787607084946 0.0059974080276728242 0.026146459299630033 0.016309573561173036 -0.012599653468651864 0.047438978566788137 -0.0253033825221342 -0.0099595140108502799 -0.028282319461836875 0.030259535754328416 -0.040856081744035086 0.0072550393179811254
leaf_weight=240 161 187 92 215 132 276 182 285 332 131 345 67 180 195 242 210 227 101 203 318 132 207 556 64 178 61 321 179 27 52
leaf_count=240 161 187 92 215 132 276 182 285 332 131 345 67 180 195 242 210 227 101 203 318 132 207 556 64 178 61 321 179 27 52
internal_value=-5.04098e-11 0.0225483 -0.0274697 0.0400227 0.00976323 -0.0441473 -0.016277 0.0162699 -0.0112808 0.0313821 0.0508821 0.0557996 -0.0365717 0.00163748 0.00389902 0.00041532 0.0286643 -0.0255742 -0.0543663 0.0129643 0.0187333 0.0100633 -0.01497 0.0353847 -0.031166 -0.0231309 -0.0250348 0.0245096 -0.0596242 -0.00485764
internal_weight=6098 3349 2749 1415 1934 1104 1645 1074 1070 788 627 412 634 860 699 504 657 575 470 789 264 525 738 251 358 483 422 406 267 294
internal_count=6098 3349 2749 1415 1934 1104 1645 1074 1070 788 627 412 634 860 699 504 657 575 470 789 264 525 738 251 358 483 422 406 267 294
is_linear=0
shrinkage=0.05


Tree=4
num_leaves=31
num_cat=0
split_feature=4 3 3 3 0 0 4 4 13 3 4 0 17 16 17 13 0 0 17 17 16 2 17 13 17 15 17 13 13 17
split_gain=1376.18 228.659 221.448 43.9631 40.4879 38.8408 34.5384 13.1841 13.0904 10.5792 10.5774 10.405 9.17538 8.96373 7.65844 7.15465 6.85591 5.91509 5.61699 5.39782 5.13113 6.00028 5.0575 4.58058 4.15224 5.12251 3.63447 3.62588 3.39391 3.32932
threshold=-0.44826020226563035 0.25061991651351406 -1.1882775979687357 -0.67221458462819728 0.57513993644031647 -0.10491332809366409 -1.3507611970323523 -0.98528700716171869 -0.95711104985368722 -0.5229662870869366 0.56941402984540401 -0.4394542436701428 6.5000000000000009 1.3107612376547293 8.5000000000000018 -0.43366475247334407 -1.2616318578946488 -1.0140632083782812 20.500000000000004 10.500000000000002 0.18441771849365093 -0.17707219855419251 7.5000000000000009 -0.26761981753799402 4.5000000000000009 -1.0395807550159264 21.500000000000004 -0.2109399884465841 -1.2346540675348046 5.5000000000000009
decision_type=2 2 2 2 2 2 2 2 2 2 2 2 2 2 2 2 2 2 2 2 2 2 2 2 2 2 2 2 2 2
left_child=2 5 6 7 10 9 8 17 18 -2 22 24 15 -6 -15 -7 -8 -4 19 -1 -11 -22 27 -14 -5 26 -26 -3 -21 -9
right_child=1 4 3 11 13 12 16 29 -10 20 -12 -13 23 14 -16 -17 -18 -19 -20 28 21 -23 -24 -25 25 -27 -28 -29 -30 -31
leaf_value=-0.029375394079834222 -0.0027325312356803228 0.025490817636030144 -0.030717629781973205 0.00035771688727317784 0.041490008793931152 0.017526485630860705 -0.037514628527666599 -0.0078851264203862789 -0.035940248211040908 -0.0017573770840244836 0.042001993607305839 0.0025799059237798273 0.0086748549847730574 0.058110139092092422 0.041623247359344306 0.033026770806349623 -0.024873275470770437 -0.019747286170928014 -0.042023006498540211 -0.060092633128166199 0.015809701802934062 0.0060250480134768046 0.022290440643770445 0.019096086061267489 -0.015496097431049342 0.0043701198376301263 0.00055843174544861535 0.038077382706670153 -0.05092339730653607 -0.016953658752593758
leaf_weight=20 275 101 285 92 233 122 192 130 162 100 167 312 147 281 94 191 243 216 109 225 285 348 241 373 297 45 40 132 183 457
leaf_count=20 275 101 285 92 233 122 192 130 162 100 167 312 147 281 94 191 243 216 109 225 285 348 241 373 297 45 40 132 183 457
internal_value=-4.02041e-11 0.0234354 -0.0240743 -0.013521 0.0399486 0.0122323 -0.0415143 -0.0200302 -0.0483979 0.00563026 0.0311811 -0.00451082 0.0202214 0.049192 0.0539774 0.0269851 -0.0304529 -0.0259879 -0.0521561 -0.0547368 0.00876773 0.0104305 0.0273687 0.0161501 -0.00917814 -0.0114747 -0.0135905 0.0326214 -0.05598 -0.0149453
internal_weight=6098 3090 3008 1874 1249 1841 1134 1088 699 1008 641 786 833 608 375 313 435 501 537 428 733 633 474 520 474 382 337 233 408 587
internal_count=6098 3090 3008 1874 1249 1841 1134 1088 699 1008 641 786 833 608 375 313 435 501 537 428 733 633 474 520 474 382 337 233 408 587
is_linear=0
shrinkage=0.05


Tree=5
num_leaves=31
num_cat=0
split_feature=4 0 3 3 4 4 3 0 0 0 0 4 3 13 3 3 4 15 17 15 17 17 17 13 17 3 13 0 9 17
split_gain=1242 208.02 199.924 42.9457 41.6628 28.5038 26.6197 16.0639 12.1051 10.9905 9.47258 9.2146 7.13042 6.68736 5.26547 5.20233 5.14394 4.8182 4.68149 5.93 4.31339 4.07529 3.83903 5.65422 3.50575 3.43633 3.23377 2.95353 2.84285 4.9326
threshold=-0.44826020226563035 0.34759749858671291 -1.214950391355049 -0.77319715576518944 0.11575213455376641 -1.5639308952978628 0.68297079391688398 -0.28371399966871697 -0.42557944109172335 -0.91148529747840046 -1.2930657272381341 0.56941402984540401 0.10650755805643203 0.24173430119713199 -0.067584128123134662 -0.35475419135297431 -1.0391493922521713 -2.1724711599491964 4.5000000000000009 -1.0395807550159264 9.5000000000000018 20.500000000000004 8.5000000000000018 0.09083988024075941 5.5000000000000009 0.0088949332574368035 -1.1064241256561138 -1.5593800331246148 -0.63217202628555458 10.500000000000002
decision_type=2 2 2 2 2 2 2 2 2 2 2 2 2 2 2 2 2 2 2 2 2 2 2 2 2 2 2 2 2 2
left_child=2 4 5 9 7 17 11 15 18 16 26 25 -6 -8 -9 -2 -4 -1 -5 21 -15 -20 23 -13 -14 -3 27 -7 29 -12
right_child=1 6 3 8 12 10 13 14 -10 -11 28 22 24 20 -16 -17 -18 -19 19 -21 -22 -23 -24 -25 -26 -27 -28 -29 -30 -31
leaf_value=-0.053273436942828351 -0.0026335349887358465 0.019417501982825342 -0.030097752631643084 -0.0014336942076406012 0.017539481063103001 -0.05169948917137434 0.039567813956971044 0.0088861331130398371 0.0019135900137526489 -0.015114702529397034 -0.017170187204490126 0.033734089847593039 0.034280737005564929 0.054995645282583105 0.01708600492838128 0.0067531423504297782 -0.019623869714996547 -0.042678800809401035 -0.015726970198954034 0.004290056568296517 0.037843622098721212 -0.0034884612445106235 0.030546917293295024 0.053241147257779779 0.024038992415353733 0.030989028355121087 -0.035084945833883607 -0.035731446122129758 -0.018682073130754821 -0.03427827072317724
leaf_weight=294 320 80 301 133 279 73 134 435 328 435 58 61 143 288 356 274 192 169 399 51 42 82 58 95 201 324 208 48 83 154
leaf_count=294 320 80 301 133 279 73 134 435 328 435 58 61 143 288 356 274 192 169 399 51 42 82 58 95 201 324 208 48 83 154
internal_value=5.83322e-11 0.0222637 -0.0228706 -0.0131741 0.0127406 -0.0400067 0.0399367 0.00791026 -0.00594697 -0.0209074 -0.0330323 0.0331412 0.0234791 0.0489876 0.0125766 0.00169635 -0.0260187 -0.0494063 -0.00982407 -0.0119217 0.0528127 -0.0136406 0.04153 0.0456134 0.0282965 0.0286976 -0.0388658 -0.0453651 -0.0265266 -0.0295978
internal_weight=6098 3090 3008 1921 2008 1087 1082 1385 993 928 624 618 623 464 791 594 493 463 665 532 330 481 214 156 344 404 329 121 295 212
internal_count=6098 3090 3008 1921 2008 1087 1082 1385 993 928 624 618 623 464 791 594 493 463 665 532 330 481 214 156 344 404 329 121 295 212
is_linear=0
shrinkage=0.05


Tree=6
num_leaves=31
num_cat=0
split_feature=4 0 0 3 4 4 3 13 17 4 0 3 4 17 13 15 9 17 12 4 17 3 0 0 11 2 0 2 13 19
split_gain=1120.9 188.68 180.977 39.1952 39.0337 28.2361 24.2052 11.4575 12.382 9.26155 9.21768 8.16785 7.72555 6.89342 8.09711 4.86482 4.40228 4.67277 4.85751 4.21935 4.0738 4.01675 3.81256 3.75063 3.62958 5.01836 3.34534 3.22339 3.1936 3.10387
threshold=-0.44826020226563035 0.18254731803819582 -1.1822468844507574 -0.77319715576518944 0.45581162141206827 -1.5139246555254497 -0.30183321579596617 0.09083988024075941 8.5000000000000018 0.17389059581062219 -0.41848933227332641 -1.3903009111134752 -1.0391493922521713 7.5000000000000009 -0.34831525213583686 -2.0206092072025315 -0.79822097588211771 9.5000000000000018 1.102952823965379 -0.92014875526426398 4.5000000000000009 -1.4812850906869022 -0.29095505775419639 -0.58508065746530469 -0.87195252764964859 -0.652935075889025 -1.5593800331246148 -1.0252886656162594 -0.14080254466221653 4.5000000000000009
decision_type=2 2 2 2 2 2 2 2 2 2 2 2 2 2 2 2 2 2 2 2 2 2 2 2 2 2 2 2 2 2
left_child=2 6 5 12 13 15 16 -6 -9 20 24 26 21 14 -3 -1 -2 -18 -19 -13 29 -4 -22 27 25 -5 -7 -14 -15 -8
right_child=1 4 3 10 7 11 9 8 -10 -11 -12 19 23 28 -16 -17 17 18 -20 -21 22 -23 -24 -25 -26 -27 -28 -29 -30 -31
leaf_value=-0.04865366139637279 -0.0049650454634452027 0.017116983836595285 -0.037634677783801009 -0.0049399155946074254 0.031589121591869766 -0.045893013278065727 0.0094654328021188758 0.050477450561444252 0.033870892339331618 0.021864009397809001 0.0019614667776204444 -0.028841214525681905 -0.011746649836034824 0.0096941716939398792 0.035088130930034822 -0.03657952647124018 0.012673379365506388 -0.00246274042612021 0.010648741306031658 -0.016447560095205507 0.0040301931218217494 -0.022730460345581568 0.012485320401034609 -0.0083455966105752625 0.004006116737774683 -0.014389557720175184 -0.033142047857836587 -0.021188701802814906 0.022780723506366486 0.024004494175314903
leaf_weight=406 163 83 52 280 183 86 58 414 154 304 320 326 138 57 256 105 129 235 101 87 201 346 396 137 53 282 128 262 256 100
leaf_count=406 163 83 52 280 183 86 58 414 154 304 320 326 138 57 256 105 129 235 101 87 201 346 396 137 53 282 128 262 256 100
internal_value=3.64505e-11 0.0211505 -0.0217271 -0.0121597 0.0346987 -0.0374485 0.00988305 0.0424695 0.045975 0.0144951 -0.0049209 -0.0303384 -0.0193985 0.025748 0.0306881 -0.0461727 0.00210564 0.00458418 0.00147851 -0.0262304 0.0115281 -0.0246777 0.00963862 -0.0154857 -0.00850196 -0.00968155 -0.0382663 -0.0179312 0.0203975 0.0186674
internal_weight=6098 3090 3008 1870 1403 1138 1687 751 568 1059 935 627 935 652 339 511 628 465 336 413 755 398 597 537 615 562 214 400 313 158
internal_count=6098 3090 3008 1870 1403 1138 1687 751 568 1059 935 627 935 652 339 511 628 465 336 413 755 398 597 537 615 562 214 400 313 158
is_linear=0
shrinkage=0.05


Tree=7
num_leaves=31
num_cat=0
split_feature=4 3 3 3 0 0 4 0 13 3 4 17 16 17 13 0 17 0 4 17 17 16 2 17 17 17 7 7 12 13
split_gain=1011.62 171.102 164.196 32.8404 30.0959 29.077 25.846 12.6696 10.1613 8.05939 8.00342 7.32376 7.07208 5.62807 5.3856 5.0707 5.01369 4.8384 4.80439 4.27453 4.26165 4.23919 4.64476 3.92279 3.73057 5.46568 3.69891 3.35672 3.06633 2.88356
threshold=-0.44826020226563035 0.25061991651351406 -1.1882775979687357 -0.5640940321039426 0.57513993644031647 -0.10491332809366409 -1.3507611970323523 -0.97425586047408352 -0.95711104985368722 -0.5229662870869366 0.56941402984540401 6.5000000000000009 1.3107612376547293 8.5000000000000018 -0.43366475247334407 -1.2616318578946488 20.500000000000004 -0.45575582909022022 -1.0213481919824321 10.500000000000002 19.500000000000004 0.16291491871193556 -0.17707219855419251 7.5000000000000009 8.5000000000000018 17.500000000000004 -0.960125310213649 -0.15853965723688437 1.4558907213614887 -0.2109399884465841
decision_type=2 2 2 2 2 2 2 2 2 2 2 2 2 2 2 2 2 2 2 2 2 2 2 2 2 2 2 2 2 2
left_child=2 5 6 7 10 9 8 18 16 -2 23 14 -6 -14 -7 -8 19 -5 -4 -1 27 -11 -23 29 -9 26 -26 -13 -24 -3
right_child=1 4 3 17 12 11 15 24 -10 21 -12 20 13 -15 -16 -17 -18 -19 -20 -21 -22 22 28 -25 25 -27 -28 -29 -30 -31
leaf_value=-0.024793243586900646 -0.0026096483083463025 0.021769279196148392 -0.026404977546585884 -0.0062420438069828036 0.035505570049993211 0.015150724883147393 -0.032162340110032044 -0.006922206828197758 -0.030636974936351181 -0.0032128362029970412 0.036231012150790255 0.0059241124420940511 0.05014015268865854 0.036006697590779908 0.028598872205993428 -0.02129070231094075 -0.035350382063161892 0.0027164540937884688 -0.016489212067895814 -0.048468289525229857 0.021940993850585074 0.013323910339790957 0.0030176436599732969 0.019029679601235291 -0.027786382311907939 -0.0077937563869039514 -0.01538679668377708 0.015175908028807803 0.01687521178720762 0.032993720129668488
leaf_weight=20 275 101 294 315 233 122 192 241 162 83 167 172 281 94 191 243 109 289 209 408 120 302 302 241 79 195 252 228 46 132
leaf_count=20 275 101 294 315 233 122 192 241 162 83 167 172 281 94 191 243 109 289 209 408 120 302 302 241 79 195 252 228 46 132
internal_value=4.09478e-11 0.020093 -0.0206407 -0.0115534 0.0343774 0.0104019 -0.035658 -0.0161181 -0.0416127 0.00468957 0.0268184 0.0173142 0.0423467 0.0465974 0.0233571 -0.0260892 -0.0449239 -0.00195561 -0.0222849 -0.047362 0.0136769 0.00742803 0.00878678 0.0235022 -0.0120738 -0.0144342 -0.0183462 0.0111976 0.00484939 0.0281282
internal_weight=6098 3090 3008 1874 1249 1841 1134 1270 699 1008 641 833 608 375 313 435 537 604 503 428 520 733 650 474 767 526 331 400 348 233
internal_count=6098 3090 3008 1874 1249 1841 1134 1270 699 1008 641 833 608 375 313 435 537 604 503 428 520 733 650 474 767 526 331 400 348 233
is_linear=0
shrinkage=0.05


Tree=8
num_leaves=31
num_cat=0
split_feature=4 0 3 4 3 0 4 16 17 3 4 4 3 13 2 0 17 13 13 17 0 13 17 17 17 15 16 3 19 15
split_gain=913.314 180.736 126.199 33.4357 28.2432 27.9464 17.3076 9.95925 9.66531 8.75276 8.48048 7.15673 5.64814 5.58067 6.39891 5.20931 4.44096 4.31376 3.68817 3.59067 3.54763 3.23427 3.2125 3.31661 3.17876 3.53097 3.0397 2.89215 2.65181 2.62936
threshold=-0.53557850920546435 0.18254731803819582 -1.2446638246954378 0.45581162141206827 -0.30183321579596617 -0.90147749720061421 -1.5639308952978628 1.02983922216233 8.5000000000000018 -0.66406394754163267 0.17389059581062219 -1.0391493922521713 0.094559407919366942 -0.81540967362840311 -1.523144655259004 -0.52073894713195379 7.5000000000000009 -0.37918916447054613 -1.0364680403346436 4.5000000000000009 -0.29095505775419639 0.30309081511055236 8.5000000000000018 20.500000000000004 5.5000000000000009 -0.84870680713034463 0.86225043633841436 -0.66406394754163267 4.5000000000000009 -2.2720029985472676
decision_type=2 2 2 2 2 2 2 2 2 2 2 2 2 2 2 2 2 2 2 2 2 2 2 2 2 2 2 2 2 2
left_child=2 4 6 12 15 11 18 -5 21 -7 19 17 -3 14 -8 -2 26 22 -1 28 -21 -9 -4 -24 -11 -26 -14 -17 -6 -16
right_child=1 3 5 7 10 9 13 8 -10 24 -12 -13 16 -15 29 27 -18 -19 -20 20 -22 -23 23 -25 25 -27 -28 -29 -30 -31
leaf_value=-0.044944767596589476 -0.0050444239663570648 0.016554308837606054 -0.015179637534860173 0.026693755212839537 0.0085494712488586779 -0.012303513418191532 -0.023137844245912149 0.040400080841670682 0.030658819503224102 0.0041430838032754077 0.019791792450154104 -0.015072591476801973 0.023517462294446408 -0.021975435975781138 -0.04532757430848941 -0.0033520062160560813 0.020668392800337946 -0.0068737783282995226 -0.03402771989278721 0.0033632039569362138 0.011050673919121597 0.048943659916705615 -0.031531276672365181 -0.020006061740329161 -0.0073852438621126379 0.0057312184595502916 0.035029880357605798 0.005612032133945107 0.021189467933609946 -0.034081837508501009
leaf_weight=354 289 224 53 146 67 537 119 205 159 116 304 317 91 174 71 119 195 30 99 232 425 241 235 85 323 61 155 369 109 194
leaf_count=354 289 224 53 146 67 537 119 205 159 116 304 317 91 174 71 119 195 30 99 232 425 241 235 85 323 61 155 369 109 194
internal_value=6.19139e-11 0.017642 -0.0212239 0.0311848 0.00762282 -0.0131254 -0.0352982 0.0384148 0.0412433 -0.00787099 0.0126438 -0.0206932 0.0230199 -0.0294037 -0.0327696 0.000275563 0.026304 -0.0251144 -0.0425589 0.0100351 0.00833607 0.0450167 -0.0265815 -0.0284699 -0.00311046 -0.00530164 0.0307712 0.00342613 0.0163777 -0.0370948
internal_weight=6098 3330 2768 1416 1914 1757 1011 751 605 1037 1137 720 665 558 384 777 441 403 453 833 657 446 373 320 500 384 246 488 176 265
internal_count=6098 3330 2768 1416 1914 1757 1011 751 605 1037 1137 720 665 558 384 777 441 403 453 833 657 446 373 320 500 384 246 488 176 265
is_linear=0
shrinkage=0.05


Tree=9
num_leaves=31
num_cat=0
split_feature=3 3 0 4 0 4 3 0 0 17 16 4 17 15 17 7 4 16 9 13 17 4 17 17 17 1 17 17 2 17
split_gain=825.271 164.479 113.618 32.0535 25.7911 25.3833 15.0005 8.7897 8.61627 8.54979 9.21431 7.8468 5.57452 7.99644 5.55964 4.92905 4.58455 4.17901 3.87218 3.77776 3.72284 3.54151 3.30414 3.82291 3.17703 3.00847 2.86845 3.25293 2.8142 2.79876
threshold=-0.53362038134660594 0.25061991651351406 -1.2616318578946488 -0.25468252394142787 0.40421897795102263 -0.92014875526426398 -1.5543178011518333 -0.10491332809366409 -0.55258092837289252 7.5000000000000009 1.1082433842814583 -0.65501811638742835 8.5000000000000018 -1.639552064167076 7.5000000000000009 0.40332933660414089 -1.1249337535416728 0.6957969988512599 -1.2062023257220893 -0.82564820136142669 20.500000000000004 0.19098385945827323 5.5000000000000009 17.500000000000004 21.500000000000004 -1.1067468505144746 19.500000000000004 4.5000000000000009 -1.2358218618394636 20.500000000000004
decision_type=2 2 2 2 2 2 2 2 2 2 2 2 2 2 2 2 2 2 2 2 2 2 2 2 2 2 2 2 2 2
left_child=2 3 6 11 21 12 18 -5 22 10 -6 -2 -4 20 17 -11 19 -9 24 28 25 -3 -7 -24 -1 -14 27 -13 -8 -16
right_child=1 4 5 7 9 8 16 14 -10 15 -12 26 13 -15 29 -17 -18 -19 -20 -21 -22 -23 23 -25 -26 -27 -28 -29 -30 -31
leaf_value=-0.046579148237534028 -0.0056799010956328673 0.016361160821591815 -0.010865128630481608 0.0083890526489355643 0.030182051443908776 -0.0046734485763992219 -0.027764829568346191 0.015780142695543224 -0.0019055477261038806 0.018952271470618322 0.044528860988826052 0.0090860712107153751 -0.034848056922877034 -0.013918716370638184 0.010817340917283626 0.033551807713526192 -0.02049778673116226 0.027445525492897589 -0.035293982491733877 -0.023226371276864988 -0.018033708923139446 0.025246038379290521 -0.01632050976126424 -0.0069558887971338055 -0.028469261803008895 -0.024606145492289219 0.01187109337052674 0.00034592822387590893 -0.038249865183937394 0.021275468453446904
leaf_weight=235 291 195 141 478 162 145 103 140 393 82 362 147 124 207 291 196 138 170 187 108 107 264 333 162 27 170 103 386 169 82
leaf_count=235 291 195 141 478 162 145 103 140 393 82 362 147 124 207 291 196 138 170 187 108 107 264 333 162 27 170 103 386 169 82
internal_value=4.39281e-11 0.016665 -0.0203023 0.00805384 0.0309235 -0.0128143 -0.0341012 0.0135895 -0.00773293 0.0363331 0.0400934 0.00112088 -0.0198224 -0.0218996 0.017229 0.0292455 -0.0283034 0.0221773 -0.0407901 -0.031138 -0.0260195 0.0214714 -0.0113113 -0.0132557 -0.0447129 -0.0289259 0.00423255 0.00275644 -0.0342794 0.0131164
internal_weight=6098 3349 2749 2088 1261 1782 967 1161 1033 802 524 927 749 608 683 278 518 310 449 380 401 459 640 495 262 294 636 533 272 373
internal_count=6098 3349 2749 2088 1261 1782 967 1161 1033 802 524 927 749 608 683 278 518 310 449 380 401 459 640 495 262 294 636 533 272 373
is_linear=0
shrinkage=0.05


Tree=10
num_leaves=31
num_cat=0
split_feature=4 0 3 4 4 3 3 13 13 17 17 16 13 13 17 3 9 2 17 5 17 16 0 19 0 13 17 0 17 13
split_gain=747.048 127.028 121.649 26.9179 22.7624 21.1304 15.9616 10.6836 8.76909 8.42734 7.60605 10.6431 7.07058 6.44482 8.0088 4.85413 4.59973 4.97418 4.59282 5.20109 4.47674 4.15692 3.86262 3.74309 3.56672 3.41548 3.28758 3.27194 2.94121 3.25626
threshold=-0.44826020226563035 0.36633346501337749 -1.1269993939281637 0.11575213455376641 -1.3507611970323523 -0.5640940321039426 0.77469081357872094 -0.84940020103704272 -0.95711104985368722 8.5000000000000018 8.5000000000000018 0.47717169135469778 -0.35780139020503238 -0.23109304420434779 8.5000000000000018 0.10650755805643203 -0.38284586908455914 -1.0433872708020071 19.500000000000004 0.19951086064326831 20.500000000000004 1.5964608561348987 -0.56269578817274335 4.5000000000000009 -1.4157056634502896 0.13383602202582331 10.500000000000002 -1.4449136182556426 21.500000000000004 -0.10698180155384648
decision_type=2 2 2 2 2 2 2 2 2 2 2 2 2 2 2 2 2 2 2 2 2 2 2 2 2 2 2 2 2 2
left_child=2 3 4 7 8 10 13 -2 20 23 -4 27 -11 -3 25 -5 17 24 19 -14 26 -8 -7 -9 -6 -15 -1 -12 29 -13
right_child=1 6 5 15 16 22 21 9 -10 12 11 28 18 14 -16 -17 -18 -19 -20 -21 -22 -23 -24 -25 -26 -27 -28 -29 -30 -31
leaf_value=-0.021150366608053445 -0.0048602161250279391 0.015605252669020384 -0.0065508547584882601 0.013610213793193302 -0.02722768409914322 -0.0064468292713784937 0.036816746985074138 0.0093499724229889076 -0.025883368334422507 -0.0051796286968255898 -0.03391899912739578 -0.014017620017821234 8.6674720759540404e-06 0.02865106782938805 0.021338967500681372 0.022297864955476393 -0.0068251775592835517 -0.027548503737042693 0.013270176174839783 0.010725455906081224 -0.029761646394576648 0.049285983536825624 0.0016666107510431558 0.019143284045323946 -0.012692789891972648 0.038795496949915 -0.041910740285561701 -0.019789742385429174 0.002112866783731575 -0.0029691594430238015
leaf_weight=20 190 108 311 288 61 251 300 209 180 141 46 297 278 163 210 364 47 277 210 191 113 86 353 183 137 169 410 375 44 86
leaf_count=20 190 108 311 288 61 251 300 209 180 141 46 297 278 163 210 364 47 277 210 191 113 86 353 183 137 169 410 375 44 86
internal_value=4.35945e-11 0.0172667 -0.0177374 0.0100669 -0.0297028 -0.00928769 0.0315412 0.00616356 -0.0354474 0.0078917 -0.0132393 -0.0156923 0.005009 0.0267586 0.0289811 0.0184604 -0.0217462 -0.0232226 0.00712475 0.00437307 -0.0386178 0.0395949 -0.00170503 0.0139219 -0.0171707 0.0338149 -0.0409451 -0.0213336 -0.0101302 -0.0115368
internal_weight=6098 3090 3008 2054 1245 1763 1036 1402 723 1212 1159 848 820 650 542 652 522 475 679 469 543 386 604 392 198 332 430 421 427 383
internal_count=6098 3090 3008 2054 1245 1763 1036 1402 723 1212 1159 848 820 650 542 652 522 475 679 469 543 386 604 392 198 332 430 421 427 383
is_linear=0
shrinkage=0.05


Tree=11
num_leaves=31
num_cat=0
split_feature=4 0 0 3 4 3 3 0 4 3 13 17 3 17 13 17 17 13 13 17 13 13 13 2 17 17 0 17 13 15
split_gain=674.211 114.867 110.503 24.4764 24.0403 17.4753 15.4158 7.66198 6.30457 6.2555 5.55041 6.69128 5.49014 4.46625 4.84473 4.38665 4.3729 5.38401 4.06478 4.93573 3.69151 3.4714 3.3592 3.30702 3.14098 2.97333 2.93768 2.91454 2.59124 2.50846
threshold=-0.44826020226563035 0.18254731803819582 -1.1822468844507574 -0.79588120108594418 0.45581162141206827 -1.5543178011518333 -0.067584128123134662 0.89734713743404326 -1.1249337535416728 -0.26841029816742507 -0.41224163402797298 8.5000000000000018 -0.51117101167566015 7.5000000000000009 -0.56787412410744531 20.500000000000004 7.5000000000000009 -0.34831525213583686 -0.073108609999762861 7.5000000000000009 -1.1427201182890805 -0.27157326634903872 -0.78235076389373204 -1.2358218618394636 21.500000000000004 4.5000000000000009 -0.41848933227332641 21.500000000000004 0.31922681148171911 -1.0395807550159264
decision_type=2 2 2 2 2 2 2 2 2 2 2 2 2 2 2 2 2 2 2 2 2 2 2 2 2 2 2 2 2 2
left_child=2 6 5 10 16 20 12 18 22 26 11 -4 -2 14 -8 -13 17 -3 -6 -20 27 -15 23 -7 25 -14 29 -1 -9 -5
right_child=1 4 3 9 7 8 13 28 -10 -11 -12 15 24 21 -16 -17 -18 -19 19 -21 -22 -23 -24 -25 -26 -27 -28 -29 -30 -31
leaf_value=-0.041540133817756224 -0.0016533059692658257 0.012818328703141594 -0.0095264126564202634 -0.008873797455679738 0.020246314633792888 -0.0234431758342083 0.008247092066946007 0.033853083683833558 -0.016649753002911011 0.0034713376852732627 -0.0073047094397693212 -0.022947284384836793 0.011212773069116264 0.00098032927422403784 0.022732158037057769 -0.012059761327041951 0.01568858054914354 0.027472582642121782 0.036213878772321566 0.024937459429220103 -0.030760902324585584 0.012614504297912423 -0.019220043324133004 -0.0333124844519712 0.017396062452261784 0.0033612181832329163 -0.00097343206794637193 -0.024850533607191055 0.044266701386206683 0.0041138412733562292
leaf_weight=267 318 83 196 527 96 139 82 98 206 219 169 393 159 82 195 121 313 256 242 162 176 294 103 218 58 499 205 29 153 40
leaf_count=267 318 83 196 527 96 139 82 98 206 219 169 393 159 82 195 121 313 256 242 162 176 294 103 218 58 499 205 29 153 40
internal_value=2.80132e-11 0.0164034 -0.0168506 -0.00937457 0.0269744 -0.0291354 0.00761196 0.0330728 -0.0239193 -0.00398715 -0.0154484 -0.0173869 0.00381364 0.0136265 0.0184442 -0.0203843 0.01995 0.0238847 0.0294945 0.0316921 -0.0364953 0.0100773 -0.0271748 -0.0294698 0.00624169 0.00525848 -0.00610297 -0.039905 0.0402008 -0.00795756
internal_weight=6098 3090 3008 1870 1403 1138 1687 751 666 991 879 710 1034 653 277 514 652 339 500 404 472 376 460 357 716 658 772 296 251 567
internal_count=6098 3090 3008 1870 1403 1138 1687 751 666 991 879 710 1034 653 277 514 652 339 500 404 472 376 460 357 716 658 772 296 251 567
is_linear=0
shrinkage=0.05


Tree=12
num_leaves=31
num_cat=0
split_feature=0 0 0 1 1 1 17 13 13 17 17 13 17 17 17 17 17 16 17 17 11 11 17 17 1 17 17 17 13 16
split_gain=602.996 106.931 97.9008 20.9101 18.1209 14.7534 12.7671 16.4362 10.5114 7.22829 6.51165 6.37401 7.32608 7.42614 5.74684 5.63694 5.53549 5.12225 4.80893 4.53948 4.46298 4.32839 4.32522 5.10993 4.13501 4.12131 4.06289 3.73012 3.65973 3.53973
threshold=-0.446605105481167 0.34759749858671291 -1.2930657272381341 -0.45575582909022022 0.030928536846169741 0.49071465032412692 8.5000000000000018 -0.50698466573082623 -1.0615318769789075 6.5000000000000009 7.5000000000000009 -0.79106071642123377 8.5000000000000018 20.500000000000004 18.500000000000004 20.500000000000004 11.500000000000002 0.21112836541221455 6.5000000000000009 21.500000000000004 -0.97353193081544542 -0.63600029434700289 18.500000000000004 6.5000000000000009 -1.1067468505144746 21.500000000000004 20.500000000000004 8.5000000000000018 -0.59175955254714341 1.3433081058994338
decision_type=2 2 2 2 2 2 2 2 2 2 2 2 2 2 2 2 2 2 2 2 2 2 2 2 2 2 2 2 2 2
left_child=2 4 8 6 11 18 17 15 16 28 20 27 -13 21 -9 24 -1 -4 29 -11 -7 -14 23 -5 -8 -18 -10 -2 -6 -3
right_child=1 5 3 22 9 10 7 14 26 19 -12 12 13 -15 -16 -17 25 -19 -20 -21 -22 -23 -24 -25 -26 -27 -28 -29 -30 -31
leaf_value=-0.018920272859171607 0.00075037186142809932 0.022021764521606459 -0.0079611376037549541 0.0076103471709454132 0.0050120237699177658 0.023910429672305958 -0.029281224185201737 -0.013717279904701103 -0.026044272640884849 0.010227454256606462 0.0265119359926375 0.01261482871530294 -0.0021323311049306379 0.012031730867945227 -0.0025632877606161248 -0.012583023205610687 -0.038044567604436343 0.0062472442206405049 0.014602964093203745 0.029964086124973911 0.038919844453918107 0.0088728387830142152 0.012176858400925994 -0.0056324601270156668 -0.019812539960867341 -0.024460381283782997 -0.013321285674124715 -0.014859853613566846 0.024266869418296175 0.035999241979571724
leaf_weight=52 206 195 360 96 28 58 175 234 339 484 257 348 378 193 228 172 396 77 181 31 339 117 58 302 338 65 77 47 208 59
leaf_count=52 206 195 360 96 28 58 175 234 339 484 257 348 378 193 228 172 396 77 181 31 339 117 58 302 338 65 77 47 208 59
internal_value=-4.81731e-12 0.0153157 -0.016141 -0.010014 0.00856234 0.0279665 -0.01273 -0.0155008 -0.0295955 0.0147361 0.0327128 0.00496536 0.00670288 0.00371254 -0.00821271 -0.0204163 -0.0343848 -0.0054576 0.0208307 0.0114155 0.036727 0.000468891 -0.00057928 -0.00243822 -0.0230426 -0.0361292 -0.0236893 -0.00214955 0.0219824 0.0252685
internal_weight=6098 3129 2969 2040 2040 1089 1584 1147 929 751 654 1289 1036 688 462 685 513 437 435 515 397 495 456 398 513 461 416 253 236 254
internal_count=6098 3129 2969 2040 2040 1089 1584 1147 929 751 654 1289 1036 688 462 685 513 437 435 515 397 495 456 398 513 461 416 253 236 254
is_linear=0
shrinkage=0.05


Tree=13
num_leaves=31
num_cat=0
split_feature=4 4 4 0 0 0 13 17 1 17 16 17 13 17 1 17 4 17 13 13 17 17 13 5 17 5 12 15 2 17
split_gain=552.806 109.105 75.886 26.6779 17.7515 12.929 11.651 7.24213 5.80352 5.64331 5.61973 6.33151 5.91014 4.90693 4.51135 4.4819 4.40116 4.23418 5.22269 3.24926 3.22166 4.80777 3.19705 3.04114 2.97523 4.9442 2.7421 2.55472 3.90515 2.52191
threshold=-0.53557850920546435 0.35105585771392694 -1.274653988042197 -0.10491332809366409 -0.91148529747840046 0.72088472647365498 -0.94867350827157915 10.500000000000002 0.36633346501337749 6.5000000000000009 0.18441771849365093 8.5000000000000018 0.20337212884511555 20.500000000000004 -0.45575582909022022 16.500000000000004 -0.82564193011745812 7.5000000000000009 -0.073108609999762861 -0.47459433003116763 5.5000000000000009 17.500000000000004 0.28798699650522414 -0.27033459506629959 20.500000000000004 -0.11807974066127727 0.78780300995818886 -1.4721859813363809 -1.1180047708525394 8.5000000000000018
decision_type=2 2 2 2 2 2 2 2 2 2 2 2 2 2 2 2 2 2 2 2 2 2 2 2 2 2 2 2 2 2
left_child=2 3 6 10 16 17 7 -1 9 23 29 26 24 -9 20 -11 27 18 -3 -8 -6 -22 -7 -5 25 -13 -12 28 -4 -2
right_child=1 5 4 8 14 22 19 13 -10 15 11 12 -14 -15 -16 -17 -18 -19 -20 -21 21 -23 -24 -25 -26 -27 -28 -29 -30 -31
leaf_value=-0.014617258479712153 -0.0017545759618735396 0.018983316447702236 -0.014411644473674216 0.010949360280021749 -0.0028590972186620222 0.028485378643231737 -0.021554974038349273 -0.035404161690099606 0.020331295508751061 0.0046758045566902082 0.0086485582620064397 -0.0092971549791098836 0.0086861161573324359 -0.024742599324589332 -0.0011842482861310082 0.014925320777872215 -0.0097719708573544943 0.017485163643152692 0.031098303301732286 -0.0056161718643529136 -0.014182527050931263 -0.0044581838737940416 0.037247326735276663 0.020853472448076931 0.0058932024344765773 0.0019300136705381781 0.022939138670857902 -0.011034390617556789 -0.023967595815236026 -0.014724708526851017
leaf_weight=59 185 156 177 135 197 175 286 471 239 324 241 181 218 140 318 159 190 255 207 36 322 210 257 182 116 214 39 92 270 47
leaf_count=59 185 156 177 135 197 175 286 471 239 324 241 181 218 140 318 159 190 255 207 36 322 210 257 182 116 214 39 92 270 47
internal_value=-4.93513e-12 0.0137254 -0.0165121 0.00758353 -0.0103248 0.0270619 -0.0275894 -0.0313459 0.0134945 0.011452 0.00263473 0.00424812 0.00179345 -0.0329613 -0.00615361 0.00804987 -0.0163154 0.0224231 0.0258919 -0.019773 -0.00832131 -0.010344 0.0336979 0.0166356 -0.00114707 -0.00321459 0.010639 -0.018622 -0.0201837 -0.00438215
internal_weight=6098 3330 2768 2280 1776 1050 992 670 1039 800 1241 1009 729 611 1047 483 729 618 363 322 729 532 432 317 511 395 280 539 447 232
internal_count=6098 3330 2768 2280 1776 1050 992 670 1039 800 1241 1009 729 611 1047 483 729 618 363 322 729 532 432 317 511 395 280 539 447 232
is_linear=0
shrinkage=0.05


Tree=14
num_leaves=31
num_cat=0
split_feature=3 3 4 4 0 3 0 17 16 4 17 0 4 16 4 5 19 17 15 17 17 15 17 17 17 11 17 16 11 15
split_gain=501.637 97.9802 71.9046 18.451 15.7518 13.6824 13.0411 5.93147 6.22669 4.91322 4.83457 4.81614 4.59205 4.25069 4.18441 3.61555 3.42354 3.1577 4.84914 3.2256 3.11206 2.51601 2.76299 3.46289 2.26323 2.83368 2.01948 1.97941 1.86956 1.85893
threshold=-0.51117101167566015 0.25061991651351406 -1.1794066192798247 -0.28503137524684302 0.57513993644031647 -1.5543178011518333 -0.90147749720061421 7.5000000000000009 0.6957969988512599 -0.42087769611730802 18.500000000000004 -1.3425683735189133 0.56941402984540401 1.3107612376547293 -0.65501811638742835 0.29236842070432417 1.5000000000000002 9.5000000000000018 -1.4721859813363809 21.500000000000004 9.5000000000000018 -1.0997864245936118 7.5000000000000009 20.500000000000004 9.5000000000000018 -1.6373627219207834 7.5000000000000009 0.67379535867687579 -0.3237990213048117 -0.60925195101710405
decision_type=2 2 2 2 2 2 2 2 2 2 2 2 2 2 2 2 2 2 2 2 2 2 2 2 2 2 2 2 2 2
left_child=2 3 5 14 12 16 17 8 -5 21 15 -7 26 -6 -2 -9 -1 -4 19 -19 28 22 -8 -24 -13 -26 27 -3 -15 -16
right_child=1 4 6 7 13 11 9 10 -10 -11 -12 24 -14 20 29 -17 -18 18 -20 -21 -22 -23 23 -25 25 -27 -28 -29 -30 -31
leaf_value=-0.035380016480476915 -0.004345834200964376 0.01205929467578244 -0.0078272011886434852 0.0096250806275588168 0.024644771915542707 -0.025412354005484618 -0.003668969855471005 0.0015253838436761634 0.020947542108140541 0.00044940984963680796 0.014207284260882046 -0.0082313314161544283 0.025917706481030513 0.033817919695027364 0.0024952702363293614 0.0098953580745199526 -0.026906292734308803 -0.021946319704543919 -0.0084952905656941035 -0.0089951842433194911 0.022595345433640841 0.0015287340958282996 -0.012489582103227294 -0.0013493573646102212 -0.022138225074333325 -0.012531436636440886 0.013136576927734326 0.022335379621812278 0.04592012878921297 0.015507945389454736
leaf_weight=263 279 64 133 279 233 290 216 312 215 267 194 63 167 281 512 220 218 281 134 58 58 71 389 85 207 122 247 175 36 29
leaf_count=263 279 64 133 279 233 290 216 312 215 267 194 63 167 281 512 220 218 281 134 58 58 71 389 85 207 122 247 175 36 29
internal_value=-2.62478e-12 0.0132006 -0.0155793 0.00642797 0.0241572 -0.0250818 -0.00881587 0.0103264 0.0145529 -0.00538629 0.00745057 -0.0205273 0.0187649 0.0299486 0.000627831 0.00498665 -0.0315395 -0.0146337 -0.0165476 -0.0197305 0.033244 -0.00743377 -0.008356 -0.0104919 -0.0169133 -0.0185758 0.016307 0.0195836 0.0351923 0.00319281
internal_weight=6098 3301 2797 2040 1261 1163 1634 1220 494 1028 726 682 653 608 820 532 481 606 473 339 375 761 690 474 392 329 486 239 317 541
internal_count=6098 3301 2797 2040 1261 1163 1634 1220 494 1028 726 682 653 608 820 532 481 606 473 339 375 761 690 474 392 329 486 239 317 541
is_linear=0
shrinkage=0.05


Tree=15
num_leaves=31
num_cat=0
split_feature=3 3 4 4 3 3 0 0 0 4 15 17 0 13 17 13 17 17 17 15 17 1 13 2 2 13 13 16 17 17
split_gain=452.838 90.9823 62.25 17.4357 14.5746 12.3386 11.1482 5.46735 4.9159 4.50985 4.41162 4.7203 4.40388 3.89487 3.4016 3.3574 3.20692 3.195 2.91805 4.11823 2.93136 2.73395 2.7197 3.14185 2.63505 2.61023 2.44969 2.36633 2.08596 2.07006
threshold=-0.53362038134660594 0.25061991651351406 -1.1794066192798247 -0.25468252394142787 0.72984540076861559 -1.5543178011518333 -0.90147749720061421 0.36633346501337749 -0.084149484200441577 -0.65501811638742835 -1.0395807550159264 6.5000000000000009 -1.5044320363595209 0.24483561050445732 18.500000000000004 -1.0364680403346436 7.5000000000000009 7.5000000000000009 9.5000000000000018 -1.4721859813363809 21.500000000000004 -0.26766688263136645 -0.48044729034349365 -1.054026062660969 -1.0634949775772706 -0.44020568167722968 0.13383602202582331 1.5964608561348987 19.500000000000004 20.500000000000004
decision_type=2 2 2 2 2 2 2 2 2 2 2 2 2 2 2 2 2 2 2 2 2 2 2 2 2 2 2 2 2 2
left_child=2 3 5 9 7 15 18 -3 -5 -2 11 24 -7 -6 21 -1 25 26 -4 20 -20 -13 23 -14 -8 -10 -9 -15 -18 -11
right_child=1 4 6 8 13 12 10 17 16 29 -12 14 22 27 -16 -17 28 -19 19 -21 -22 -23 -24 -25 -26 -27 -28 -29 -30 -31
leaf_value=-0.032250578228661141 -0.0043289115017558421 0.014387433067751816 -0.0074186962513053782 0.0062622129558236568 0.023449355487621601 -0.026260949860672268 -0.0027895701318027873 0.021522870006552643 0.010315367233722958 0.0021271639167985503 0.0046185538915451615 -0.013071022184513923 -0.013563272499640316 0.030427465899703215 -0.0026637262697388397 -0.022335823773834352 0.0074793306071489277 0.01712125485818599 -0.020903124513488563 -0.0083184580715697076 -0.0085454250646229222 -0.0036513861387549918 -0.0060434627651702617 -0.021967871201640007 0.012115078480051392 0.020007852133894999 0.031206218247027739 0.040091909569772807 0.016373915663898935 0.010871748684137431
leaf_weight=370 291 371 132 497 155 178 232 138 107 559 100 360 196 226 164 111 272 159 278 131 58 98 50 257 34 198 124 88 87 77
leaf_count=370 291 371 132 497 155 178 232 138 107 559 100 360 196 226 164 111 272 159 278 131 58 98 50 257 34 198 124 88 87 77
internal_value=-1.85541e-12 0.0123446 -0.015039 0.00594015 0.0229493 -0.023832 -0.00860073 0.0188128 0.0100228 0.000826857 -0.00533772 -0.00645892 -0.0195019 0.0299346 -0.00884285 -0.0299626 0.0128377 0.0227126 -0.0139828 -0.0158382 -0.01877 -0.0110555 -0.01711 -0.0183314 -0.000884465 0.0166075 0.0261058 0.033136 0.00963484 0.00318586
internal_weight=6098 3349 2749 2088 1261 1162 1587 792 1161 927 988 888 681 469 622 481 664 421 599 467 336 458 503 453 266 305 262 314 359 636
internal_count=6098 3349 2749 2088 1261 1162 1587 792 1161 927 988 888 681 469 622 481 664 421 599 467 336 458 503 453 266 305 262 314 359 636
is_linear=0
shrinkage=0.05


Tree=16
num_leaves=31
num_cat=0
split_feature=3 4 4 4 3 3 3 17 13 4 17 1 17 4 13 5 17 17 13 16 17 1 7 17 17 5 1 16 13 2
split_gain=408.786 79.6014 59.8897 17.646 11.1221 10.0548 9.69708 6.6048 6.80021 4.92444 4.22422 3.93229 4.41571 3.77062 3.71432 3.59692 3.44719 3.6732 3.05105 2.90964 3.00366 2.64506 2.54051 2.342 3.18201 3.48667 2.26676 2.26644 2.24851 2.72853
threshold=-0.50233633772605457 0.35105585771392694 -1.1794066192798247 -0.28503137524684302 -1.5543178011518333 0.46747277794358671 -1.001309632390371 7.5000000000000009 -0.33776371565480273 -0.49053403641292814 7.5000000000000009 0.36633346501337749 17.500000000000004 -1.5482661501256378 0.23830961447141155 0.57645616856836834 6.5000000000000009 21.500000000000004 -1.1427201182890805 0.64076946679400049 7.5000000000000009 -0.37614134973974817 0.35485414451921454 8.5000000000000018 17.500000000000004 -0.38054639844905552 -0.41848933227332641 0.063563262229086537 -0.48044729034349365 -0.9322902057257606
decision_type=2 2 2 2 2 2 2 2 2 2 2 2 2 2 2 2 2 2 2 2 2 2 2 2 2 2 2 2 2 2
left_child=2 3 4 14 18 -3 19 8 -5 23 15 12 21 -6 16 -7 27 26 -1 20 -4 -9 -12 -8 25 -25 -18 -2 29 -15
right_child=1 5 6 7 13 10 9 11 -10 -11 22 -13 -14 28 -16 -17 17 -19 -20 -21 -22 -23 -24 24 -26 -27 -28 -29 -30 -31
leaf_value=-0.031571293454212342 -0.004524826924949721 0.016817041137089924 -0.0076612472884506249 0.008971114029186102 -0.024378682256482431 0.026007686258526522 -0.0033510700350951432 -0.0081719210688024763 0.019917209590177821 -0.00029332617520317543 0.011907459481867506 0.014121964451170969 0.011413180797222663 -0.013494859941850235 0.0094576134304848649 0.035088105642873992 -0.0089067320101867669 0.0085736089901326858 -0.023360297030636246 -0.0058835931287970974 -0.017518849963473374 0.0040449565733242923 0.024419378581210554 -0.016275745140757539 -0.0043393698776377117 -0.0056193976689771314 -0.0013847272886284942 0.0067525871694670064 -0.0061366507019847633 -0.021400110500388043
leaf_weight=299 57 373 101 292 197 256 241 50 276 351 53 167 214 225 112 190 174 61 182 104 329 389 173 207 201 122 236 204 50 212
leaf_count=299 57 373 101 292 197 256 241 50 276 351 53 167 214 225 112 190 174 61 182 104 329 389 173 207 201 122 236 204 50 212
internal_value=-6.32381e-12 0.0120112 -0.0139528 0.00667907 -0.0226386 0.0234001 -0.00784227 0.0101458 0.01429 -0.0052027 0.0270541 0.00727522 0.00552422 -0.0185418 0.00097783 0.029876 -0.000319623 -0.00287384 -0.0284644 -0.0133884 -0.0152035 0.00265351 0.0214852 -0.0074377 -0.00929596 -0.0123242 -0.00457699 0.0042897 -0.0161807 -0.0173299
internal_weight=6098 3277 2821 2232 1165 1045 1656 1388 568 1122 672 820 653 684 844 446 732 471 481 534 430 439 226 771 530 329 410 261 487 437
internal_count=6098 3277 2821 2232 1165 1045 1656 1388 568 1122 672 820 653 684 844 446 732 471 481 534 430 439 226 771 530 329 410 261 487 437
is_linear=0
shrinkage=0.05


Tree=17
num_leaves=31
num_cat=0
split_feature=3 4 0 3 0 3 13 4 4 4 9 17 17 17 13 16 17 17 17 17 5 17 13 13 16 17 5 17 9 17
split_gain=369.033 74.9647 51.5087 14.5628 13.3366 12.8355 6.62118 4.88177 4.69994 4.26217 4.11147 3.70682 3.40909 3.30415 3.67672 3.22909 3.18613 2.85326 2.63204 3.13909 3.33499 2.52905 3.51877 2.54289 2.47889 2.38468 2.85494 2.36065 2.69632 2.29055
threshold=-0.53362038134660594 0.18494105522400436 -1.2930657272381341 0.68297079391688398 -0.092084356675479609 -1.001309632390371 -1.1427201182890805 0.56941402984540401 -0.77352388792491888 -0.48190180456639203 -0.77893669304677693 10.500000000000002 11.500000000000002 7.5000000000000009 -0.59175955254714341 1.5016066814922844 21.500000000000004 20.500000000000004 8.5000000000000018 17.500000000000004 -0.47186313677943031 5.5000000000000009 0.24483561050445732 -0.6758426148655462 0.66790979693957209 20.500000000000004 0.18122318635036325 8.5000000000000018 0.11716297925448135 13.500000000000002
decision_type=2 2 2 2 2 2 2 2 2 2 2 2 2 2 2 2 2 2 2 2 2 2 2 2 2 2 2 2 2 2
left_child=2 4 6 7 8 10 12 24 -2 18 11 -4 -1 14 -6 -5 -14 29 -7 20 -20 23 25 -10 -3 26 -23 28 -9 -8
right_child=1 3 5 15 13 9 17 27 21 -11 -12 -13 16 -15 -16 -17 -18 -19 19 -21 -22 22 -24 -25 -26 -27 -28 -29 -30 -31
leaf_value=-0.015499377971980722 -0.0059512911941251058 0.0063642369150849329 -0.011015184942354811 0.024395349732517429 0.0052884811801380827 -0.0030408515109684232 -0.0064111653715372089 0.018791231150747441 0.0020175159398558122 -0.00027346354028365266 -0.0097378765220925718 -0.02110089670219872 -0.031333981457428307 0.0073087277767744157 0.017342719619395212 0.033316317026119133 -0.018503002807694048 -0.011273259178838939 -0.017180948494794127 -0.0043783895838612188 -0.0073835748053924129 -0.0033828164748669672 0.0077102574946436887 0.011517305065524475 0.015073924004730947 0.0066348438495576079 0.0090385714015260767 0.014388533845548019 0.030045453716929144 -0.022035646993164463
leaf_weight=50 177 98 144 349 88 256 25 109 137 300 317 248 320 465 225 143 57 91 167 213 181 419 167 145 491 96 52 84 104 380
leaf_count=50 177 98 144 349 88 256 25 109 137 300 317 248 320 465 225 143 57 91 167 213 181 419 167 145 491 96 52 84 104 380
internal_value=2.473e-11 0.0111439 -0.0135762 0.0200906 0.00488902 -0.00871022 -0.0232028 0.0162603 0.00156764 -0.0053704 -0.013972 -0.0173959 -0.027767 0.00998208 0.0139537 0.0269882 -0.029394 -0.0192736 -0.00724198 -0.00915908 -0.0120852 0.00287753 0.00133129 0.00690216 0.0136248 -0.00054753 -0.00201145 0.0214869 0.0242863 -0.0210712
internal_weight=6098 3349 2749 1378 1971 1826 923 886 1193 1117 709 392 427 778 313 492 377 496 817 561 348 1016 734 282 589 567 471 297 213 405
internal_count=6098 3349 2749 1378 1971 1826 923 886 1193 1117 709 392 427 778 313 492 377 496 817 561 348 1016 734 282 589 567 471 297 213 405
is_linear=0
shrinkage=0.05


Tree=18
num_leaves=31
num_cat=0
split_feature=3 3 4 0 0 0 13 17 16 17 4 7 13 17 17 17 13 17 17 13 17 17 1 1 17 0 17 17 7 1
split_gain=333.144 66.2068 48.422 13.5209 12.7085 10.8669 6.27847 4.54628 4.23167 4.13683 3.92636 3.87568 3.64231 4.48774 3.90679 3.5528 3.36361 2.99468 3.45397 2.82556 2.84228 4.30225 3.09388 2.50388 2.16773 2.05815 1.98745 2.56085 3.0847 1.94086
threshold=-0.51117101167566015 0.25061991651351406 -1.3507611970323523 -0.90147749720061421 -0.28371399966871697 0.65544111984761477 -0.95711104985368722 7.5000000000000009 0.6957969988512599 7.5000000000000009 -0.42087769611730802 -0.37366754591651147 -0.31974282671224369 10.500000000000002 20.500000000000004 20.500000000000004 0.29487762412959279 10.500000000000002 20.500000000000004 -1.0742229920464872 8.5000000000000018 17.500000000000004 -0.41848933227332641 0.25923248612885891 9.5000000000000018 -0.17676224849832181 18.500000000000004 8.5000000000000018 -0.91843139992115386 0.37709501998054068
decision_type=2 2 2 2 2 2 2 2 2 2 2 2 2 2 2 2 2 2 2 2 2 2 2 2 2 2 2 2 2 2
left_child=2 4 6 12 19 9 17 8 -6 11 25 -3 13 -4 -15 23 -7 -1 -19 -2 -21 22 -22 -9 -18 26 27 -5 -29 -11
right_child=1 5 3 10 7 16 -8 15 -10 29 -12 -13 -14 14 -16 -17 24 18 -20 20 21 -23 -24 -25 -26 -27 -28 28 -30 -31
leaf_value=-0.011353043323116645 -0.0093188697127957968 0.013950810582384527 -0.0074319968668229812 -0.0042603046046251541 0.008039980398195222 0.020766526406039609 -0.016086701556653132 0.002161077143401747 0.017371843611630047 0.0074370055008131045 0.00058257886385614899 0.023745448660048577 -0.0026824944295811576 -0.018655783296200431 -0.0094601316113546979 0.012886191594688706 0.030746843782158528 -0.028543211149129395 -0.019076179726952462 0.0056552206606284017 -0.011990061222641457 0.0048009488312767577 -0.0011553591411255849 0.009344193783861492 0.018917587838824031 0.0036560140511331463 -0.0022686008934532619 -0.018054956963061596 -0.0080241856171955027 0.015112074061971967
leaf_weight=35 70 186 192 234 281 228 250 430 214 146 267 221 77 437 157 146 245 432 124 240 99 194 197 169 46 48 172 108 264 189
leaf_count=35 70 186 192 234 281 228 250 430 214 146 267 221 77 437 157 146 245 432 124 240 99 194 197 169 46 48 172 108 264 189
internal_value=2.84794e-11 0.0107576 -0.0126961 -0.00838226 0.00519035 0.0197641 -0.0227291 0.00836018 0.0120744 0.0158822 -0.00468837 0.0192693 -0.0130606 -0.0140773 -0.0162253 0.00589237 0.025314 -0.0255389 -0.0264319 0.000277118 0.00119728 -0.000986199 -0.00477913 0.0041877 0.0288769 -0.00639218 -0.00701212 -0.00835847 -0.0109363 0.0117671
internal_weight=6098 3301 2797 1956 2040 1261 841 1240 495 742 1093 407 863 786 594 745 519 591 556 800 730 490 296 599 291 826 778 606 372 335
internal_count=6098 3301 2797 1956 2040 1261 841 1240 495 742 1093 407 863 786 594 745 519 591 556 800 730 490 296 599 291 826 778 606 372 335
is_linear=0
shrinkage=0.05


Tree=19
num_leaves=31
num_cat=0
split_feature=4 0 0 1 0 4 13 17 12 17 17 17 13 1 17 4 2 13 5 1 13 13 13 17 17 13 17 17 17 17
split_gain=301.333 53.2165 49.6508 12.3836 9.37708 8.56416 7.35628 7.91307 5.57624 4.58562 3.70476 3.49784 3.4793 3.44103 3.27707 2.9806 2.77086 2.80083 2.55508 2.52689 2.4916 2.43371 1.98455 1.98911 3.15296 1.93385 3.01614 3.06476 1.89527 3.37127
threshold=-0.44826020226563035 0.18254731803819582 -1.1822468844507574 0.49071465032412692 -0.6712331396460729 -1.5639308952978628 -0.71867467778221616 9.5000000000000018 1.102952823965379 7.5000000000000009 5.5000000000000009 20.500000000000004 -0.073108609999762861 -1.3941603637314717 8.5000000000000018 -0.80384054487073253 -1.2472424392899557 -0.78235076389373204 0.16289610512755118 -0.45575582909022022 -1.0216206557573797 -0.26761981753799402 -0.48432696584434781 11.500000000000002 18.500000000000004 -0.31974282671224369 10.500000000000002 19.500000000000004 5.5000000000000009 17.500000000000004
decision_type=2 2 2 2 2 2 2 2 2 2 2 2 2 2 2 2 2 2 2 2 2 2 2 2 2 2 2 2 2 2
left_child=2 6 5 10 15 -1 14 21 22 12 18 -10 -5 -7 20 25 -15 -18 -3 28 -2 -8 -9 -24 -25 26 -4 -28 -6 -30
right_child=1 3 4 9 19 13 7 8 11 -11 -12 -13 -14 16 -16 -17 17 -19 -20 -21 -22 -23 23 24 -26 -27 27 -29 29 -31
leaf_value=-0.024756201287090614 -0.006059892255192002 0.014560858081450216 -0.0071868390045639859 0.014980204775929451 0.00055007210322619645 -0.020379093697181706 0.009189472602586608 -0.0089374254712041613 0.0055490108500683474 0.01792956381096994 0.0098932284524677061 0.016693457628792638 0.027878258708365713 -0.0058249268462677722 -0.01175754145724568 -0.0056843670013145622 -0.020222194661428924 -0.010760262837866323 0.024699975167784622 0.0010696659190614188 0.0040479694320031852 0.016643707969011236 0.0077825132392827876 -0.0049014652742291141 0.0050875792876572731 -0.0036078734953440984 -0.017504188140029565 -0.0083173426186763932 -0.010926304174710862 -0.00075379752801586937
leaf_weight=461 90 231 205 61 129 264 318 54 300 295 365 92 366 100 64 367 153 160 85 343 189 167 91 183 139 74 286 133 191 142
leaf_count=461 90 231 205 61 129 264 318 54 300 295 365 92 366 100 64 367 153 160 85 343 189 167 91 183 139 74 286 133 191 142
internal_value=-2.38712e-11 0.0109663 -0.0112652 0.0181615 -0.00625399 -0.0194998 0.00498236 0.00665033 0.00376751 0.0227236 0.0133246 0.00816454 0.0260357 -0.0159205 -0.00155337 -0.00933226 -0.0130705 -0.0153854 0.0172882 -0.0021815 0.000787369 0.0117562 7.66448e-05 0.00125524 -0.000589424 -0.0112503 -0.0121566 -0.0145881 -0.00459525 -0.00658848
internal_weight=6098 3090 3008 1403 1870 1138 1687 1344 859 722 681 392 427 677 343 1065 413 313 316 805 279 485 467 413 322 698 624 419 462 333
internal_count=6098 3090 3008 1403 1870 1138 1687 1344 859 722 681 392 427 677 343 1065 413 313 316 805 279 485 467 413 322 698 624 419 462 333
is_linear=0
shrinkage=0.05


Tree=20
num_leaves=31
num_cat=0
split_feature=3 4 3 3 4 3 13 4 0 15 17 5 17 17 9 17 17 17 11 16 17 1 13 5 1 15 2 9 5 17
split_gain=272.5 55.9268 38.9611 13.4012 9.89958 6.94298 6.36497 4.42076 3.8802 3.497 4.43478 3.37598 3.01744 3.38514 2.83191 3.8388 3.31192 2.75995 3.39309 2.48047 2.39251 2.35008 2.19685 2.13115 1.95717 1.86731 2.05929 3.06915 1.7234 1.62238
threshold=-0.53362038134660594 0.35105585771392694 -1.3033810756588948 -0.056551411981468257 -0.92014875526426398 0.72984540076861559 -0.94867350827157915 -0.65501811638742835 0.14248076836858881 -1.0997864245936118 6.5000000000000009 -0.88066612131994881 21.500000000000004 10.500000000000002 -0.48936692431178336 10.500000000000002 20.500000000000004 7.5000000000000009 -1.0568202106162052 1.7270602980486676 20.500000000000004 0.36633346501337749 -1.3618690868294934 0.13188245237108862 -0.26766688263136645 -0.60950519314440521 -0.13665332913183745 -0.67495848687266224 -0.81217592081335388 4.5000000000000009
decision_type=2 2 2 2 2 2 2 2 2 2 2 2 2 2 2 2 2 2 2 2 2 2 2 2 2 2 2 2 2 2
left_child=2 3 6 7 14 17 12 -2 -5 10 11 -6 13 -1 15 -4 28 18 -3 -7 24 25 -15 -20 -12 26 27 -9 -17 -10
right_child=1 5 4 8 9 19 -8 21 29 -11 20 -13 -14 22 -16 16 -18 -19 23 -21 -22 -23 -24 -25 -26 -27 -28 -29 -30 -31
leaf_value=-0.011556816843756456 -0.003910363871282174 0.012343735646041805 -0.0068245137162905719 0.0068503505418394499 -0.0039929363324080367 0.023044341754105475 -0.013761998646748534 -0.00029433850960042902 0.017702808194983474 0.003745671038823126 -0.010447150752176282 0.0075629009385011162 -0.013995779368149884 -0.031536820121445097 -0.0056247984500346817 -0.020928891372358732 -0.0086232423595714557 0.011817708826316676 0.014517650822381257 0.037960280043383442 -0.00089908719359135098 0.012793274253847138 -0.02358208697710576 0.025248527155999474 -0.0024427249629591264 0.010396086309747017 -0.00070563100414971515 0.0073576179455548917 -0.013500438442174346 0.011095637132119912
leaf_weight=49 262 137 175 559 185 393 282 227 135 122 427 96 85 111 157 208 126 256 64 30 110 62 398 167 93 74 375 310 125 298
leaf_count=49 262 137 175 559 185 393 282 227 135 122 427 96 85 111 157 208 126 256 64 30 110 62 398 167 93 74 375 310 125 298
internal_value=-1.26055e-11 0.00957612 -0.0116662 0.00521857 -0.00742728 0.0191569 -0.0200249 0.00189879 0.00960255 -0.00420396 -0.00526856 -4.50346e-05 -0.0227717 -0.0241085 -0.0116368 -0.0131255 -0.0155279 0.0158046 0.0185781 0.0241022 -0.00759842 0.00335108 -0.0253168 0.0222755 -0.00901559 0.00275735 0.00213754 0.00412299 -0.0181404 0.0131556
internal_weight=6098 3349 2749 2302 1824 1047 925 1310 992 1033 911 281 643 558 791 634 459 624 368 423 630 1048 509 231 520 986 912 537 333 433
internal_count=6098 3349 2749 2302 1824 1047 925 1310 992 1033 911 281 643 558 791 634 459 624 368 423 630 1048 509 231 520 986 912 537 333 433
is_linear=0
shrinkage=0.05


Tree=21
num_leaves=31
num_cat=0
split_feature=4 1 3 3 3 3 13 4 0 13 0 2 11 15 2 13 13 2 13 2 11 2 9 15 2 19 0 16 16 5
split_gain=246.172 50.6396 36.5055 11.1989 9.03155 8.2483 6.04467 4.34123 3.15627 2.96785 2.65636 2.40262 2.10059 2.06003 2.03493 2.53171 1.9956 2.93271 1.98347 2.65078 1.90996 2.77018 2.26977 1.89984 1.73784 2.08905 1.71664 2.00893 1.68775 1.66705
threshold=-0.53557850920546435 0.25923248612885891 -1.2446638246954378 -0.29252021376860027 0.38037586347707597 -0.77319715576518944 -0.81540967362840311 0.085094546564641688 -1.4449136182556426 -0.080386064236847091 -1.6382836949342361 -1.2623077541107228 -2.1023124667355026 -2.3214507915561797 -0.13665332913183745 0.1544031200367498 -0.86495784721496105 -0.15249217718917066 -0.32660727107866605 -1.054026062660969 -0.85121396364669366 -0.652935075889025 -1.1686058965880759 -0.67117389322458976 0.15416827476424366 5.5000000000000009 1.0146767606765177 1.6698060563615233 0.1050113920682698 -1.5545149176208717
decision_type=2 2 2 2 2 2 2 2 2 2 2 2 2 2 2 2 2 2 2 2 2 2 2 2 2 2 2 2 2 2
left_child=2 3 6 12 -3 8 10 16 -4 -6 13 -12 -2 -1 28 -16 -5 -18 19 29 21 22 -7 -19 25 -9 -11 -28 -14 -10
right_child=1 4 5 7 9 20 -8 24 18 26 11 -13 14 -15 15 -17 17 23 -20 -21 -22 -23 -24 -25 -26 -27 27 -29 -30 -31
leaf_value=-0.028387386044015184 -0.010630049923961254 0.011376603545332497 -0.019147868689531125 -0.0045544303156650409 0.012199414417722439 -0.0069958527555662358 -0.010629108881425847 0.0076900055835084705 -0.016323058754723105 0.020015938974460815 -0.013917603485012968 -0.021128807336946869 -0.003313892679669115 -0.020560519365615478 -0.0060249378048874772 0.0037026382343610751 0.0085302494139711787 -0.00024619134909764157 -0.0030035628917942613 -0.012342077495103219 0.0041752373435190839 -0.006912814525379553 0.0017251550923736596 0.0082869028682923986 0.006028652395117292 0.015440176342419074 0.023577331537970866 0.039187040661151216 0.0040982904827241082 -0.0048427941122701247
leaf_weight=143 46 443 83 52 100 104 193 137 36 537 203 268 98 204 202 100 388 237 121 446 84 359 264 90 137 238 146 24 355 260
leaf_count=143 46 443 83 52 100 104 193 137 36 537 203 268 98 204 202 100 388 237 121 446 84 359 264 90 137 238 146 24 355 260
internal_value=-8.63813e-12 0.00915919 -0.0110188 0.00437931 0.0171129 -0.00666314 -0.0185885 0.00728272 -0.00983512 0.0202618 -0.0204664 -0.0180208 -0.000256709 -0.023786 0.000375309 -0.00280389 0.00490271 0.0055905 -0.00893946 -0.00990744 -0.00296314 -0.00378793 -0.000739478 0.00210237 0.0108481 0.0126088 0.0214022 0.0257811 0.00249477 -0.00623904
internal_weight=6098 3330 2768 2080 1250 1757 1011 1279 946 807 818 471 801 347 755 302 767 715 863 742 811 727 368 327 512 375 707 170 453 296
internal_count=6098 3330 2768 2080 1250 1757 1011 1279 946 807 818 471 801 347 755 302 767 715 863 742 811 727 368 327 512 375 707 170 453 296
is_linear=0
shrinkage=0.05


Tree=22
num_leaves=31
num_cat=0
split_feature=0 4 3 3 13 17 3 17 4 17 5 17 15 9 17 11 17 15 17 17 17 13 0 13 5 12 17 5 13 13
split_gain=223.173 40.0985 38.2646 10.439 9.98634 7.41421 5.79124 5.64661 4.95321 3.54698 3.37072 2.59372 2.45805 2.38426 2.36317 3.03846 2.25749 3.12401 2.19777 2.10763 3.38511 2.01147 1.98045 1.9674 1.85866 1.68639 3.30388 1.60739 1.58065 1.56201
threshold=-0.446605105481167 0.35105585771392694 -1.001309632390371 -0.22571709869116582 -0.81540967362840311 11.500000000000002 0.72984540076861559 20.500000000000004 -0.67312411623229362 4.5000000000000009 -0.28989738138890592 20.500000000000004 -2.2283699224892222 -1.0680115749635839 7.5000000000000009 -1.0568202106162052 8.5000000000000018 -1.3633268202839559 20.500000000000004 19.500000000000004 6.5000000000000009 -0.84073014404432767 0.34759749858671291 0.42814553533232597 0.13188245237108862 1.102952823965379 8.5000000000000018 -0.11807974066127727 -1.0567713205405538 -1.1427201182890805
decision_type=2 2 2 2 2 2 2 2 2 2 2 2 2 2 2 2 2 2 2 2 2 2 2 2 2 2 2 2 2 2
left_child=2 3 4 13 5 -1 14 12 16 10 -5 22 -7 -2 15 -3 29 18 -18 20 21 -10 -11 -8 -17 26 -15 -22 -9 -4
right_child=1 6 8 9 -6 7 23 28 19 11 -12 -13 -14 25 -16 24 17 -19 -20 -21 27 -23 -24 -25 -26 -27 -28 -29 -30 -31
leaf_value=-0.0094159263827582346 -0.0084616301421192482 0.010834076532350381 -0.006189911494015897 0.0068786738605179478 -0.0090276908110406302 -0.025602761263783531 0.019691233285518348 -0.016478959980817869 -0.00095932260212931242 0.0042021526848324778 0.017120446612920007 0.012889854185881892 -0.019454068212842519 0.0047630031740647444 0.010543187602831502 0.013053402162040584 -0.01213683695482231 -0.0018371393870109658 -0.0032669352260471761 0.0054784579088234088 -0.0070054493287016436 0.0092814060396668088 0.010321287974407565 0.027255634192842992 0.023074778944008542 0.0063539296708212114 -0.002654647632813464 0.00090009144856594513 -0.0077413148306266864 0.0023343093184830278
leaf_weight=204 62 134 119 142 437 305 303 130 122 621 185 140 348 264 254 64 354 141 87 110 264 79 168 120 167 157 348 85 86 98
leaf_count=204 62 134 119 142 437 305 303 130 122 621 185 140 348 264 254 64 354 141 87 110 264 79 168 120 167 157 348 85 86 98
internal_value=1.39659e-11 0.0093175 -0.00981963 0.00531802 -0.0153992 -0.0179942 0.017328 -0.0200079 -0.00404499 0.00819438 0.0126729 0.00661797 -0.022326 0.000970591 0.0142466 0.0168238 -0.00669279 -0.00831564 -0.010387 -0.000839556 -0.00210316 0.00306564 0.00550509 0.0218372 0.0202983 0.00173106 0.000545123 -0.00508003 -0.0130001 -0.00234026
internal_weight=6098 3129 2969 2087 1510 1073 1042 869 1459 1256 327 929 653 831 619 365 799 582 441 660 550 201 789 423 231 769 612 349 216 217
internal_count=6098 3129 2969 2087 1510 1073 1042 869 1459 1256 327 929 653 831 619 365 799 582 441 660 550 201 789 423 231 769 612 349 216 217
is_linear=0
shrinkage=0.05


Tree=23
num_leaves=31
num_cat=0
split_feature=0 3 1 9 17 17 1 13 17 17 5 16 17 17 13 15 2 17 16 17 16 17 17 9 17 3 5 5 13 13
split_gain=201.552 46.364 26.9228 9.86638 7.73554 6.46554 6.42659 6.0316 5.82818 5.04827 4.43563 3.7208 3.58567 7.11393 2.69341 2.44691 2.38836 2.33127 2.10479 1.99738 1.89668 2.06661 1.83 1.81231 1.79117 1.75644 1.60734 1.53817 1.49838 1.46533
threshold=-0.28371399966871697 -1.001309632390371 0.25923248612885891 -0.79822097588211771 8.5000000000000018 11.500000000000002 -0.45575582909022022 -0.073108609999762861 5.5000000000000009 20.500000000000004 -0.52503293419650032 1.102952823965379 8.5000000000000018 17.500000000000004 -0.8547133078597039 -2.2283699224892222 -0.37664468497325593 20.500000000000004 0.009028751539094047 18.500000000000004 0.51759671671177065 21.500000000000004 7.5000000000000009 0.16259508089732083 20.500000000000004 0.82671049025833054 0.17095595850068065 0.010220786907520292 0.28798699650522414 -0.31974282671224369
decision_type=2 2 2 2 2 2 2 2 2 2 2 2 2 2 2 2 2 2 2 2 2 2 2 2 2 2 2 2 2 2
left_child=1 3 8 5 7 -1 12 -4 10 15 -2 22 18 -14 -8 -7 -16 -13 -3 -18 -15 23 27 -22 29 -6 -12 -10 -9 -5
right_child=2 6 4 24 25 9 14 28 11 -11 26 17 13 20 16 -17 19 -19 -20 -21 21 -23 -24 -25 -26 -27 -28 -29 -30 -31
leaf_value=-0.009159075661571087 0.0021546133456628444 -0.0047075988888793012 0.011664285024467279 -0.010946565733103479 0.0095443924651285681 -0.024322623139024013 -0.0050724095153346872 0.019110646419175564 0.0019644955558360782 -0.012335144515481315 0.011770516891333387 0.0044187561191778267 -0.01139510366244401 -0.0087812762346584344 0.0078424498319840993 -0.018228038278240554 -0.00085265390108414825 0.013026134022417819 0.0023722510071117592 0.0094990558588674678 -0.0042679275488048873 0.0070693560068806026 -0.00093343541152173578 0.0091331299860030416 -0.0013104526669485495 0.019393047581052446 0.02442043945193291 0.01318294242753283 0.024300942722440405 -0.0020039855944492891
leaf_weight=214 136 213 210 302 403 305 142 289 91 223 359 236 421 80 158 358 340 118 207 54 194 75 415 29 80 51 27 46 268 54
leaf_count=214 136 213 210 302 403 305 142 289 91 223 359 236 421 80 158 358 340 118 207 54 194 75 415 29 80 51 27 46 268 54
internal_value=1.48288e-11 -0.00796645 0.0103723 -0.014436 0.0158236 -0.0169589 -0.00277185 0.0188854 0.00571128 -0.0188429 0.00991953 0.00328667 -0.00495851 -0.0069246 0.00106898 -0.0210317 0.00264883 0.00728788 -0.00121824 0.000566108 -0.00194555 -0.000110455 0.000720668 -0.00252519 -0.0080709 0.0106507 0.0126554 0.00573127 0.021608 -0.00959011
internal_weight=6098 3449 2649 1536 1221 1100 1913 767 1428 886 522 906 1219 799 694 663 552 354 420 394 378 298 552 223 436 454 386 137 557 356
internal_count=6098 3449 2649 1536 1221 1100 1913 767 1428 886 522 906 1219 799 694 663 552 354 420 394 378 298 552 223 436 454 386 137 557 356
is_linear=0
shrinkage=0.05


Tree=24
num_leaves=31
num_cat=0
split_feature=0 1 3 3 3 17 13 13 17 17 16 17 13 17 17 17 1 13 16 9 17 17 7 17 15 15 15 13 7 13
split_gain=182.02 33.2693 32.3082 8.32242 7.39605 6.85821 6.03852 4.20948 6.20324 4.12526 3.82152 3.22865 2.92991 2.91758 2.33745 3.56459 2.31425 2.18344 2.04796 1.91391 1.88583 1.72429 1.6594 1.65731 1.57946 1.52146 1.47266 1.43152 1.38884 1.35229
threshold=-0.43299623128376552 0.25923248612885891 -1.001309632390371 -1.4687547524865372 -0.22033179277929282 8.5000000000000018 -0.073108609999762861 -0.029161133029287262 8.5000000000000018 20.500000000000004 0.13164569409931906 5.5000000000000009 -0.59646612747656425 20.500000000000004 11.500000000000002 20.500000000000004 -0.40095719798551382 -1.0364680403346436 0.67873644895829266 -1.0680115749635839 18.500000000000004 6.5000000000000009 0.40332933660414089 21.500000000000004 -1.4374479225299612 -1.6236066136242291 -2.3100212202611341 0.23278470500890333 -1.0553099607626391 0.28798699650522414
decision_type=2 2 2 2 2 2 2 2 2 2 2 2 2 2 2 2 2 2 2 2 2 2 2 2 2 2 2 2 2 2
left_child=2 4 3 17 19 6 -3 8 10 16 -4 18 14 -13 -5 26 24 -1 -6 -2 -9 28 23 -7 -10 -11 -16 -23 -21 -8
right_child=1 5 7 12 11 22 29 20 9 25 -12 13 -14 -15 15 -17 -18 -19 -20 21 -22 27 -24 -25 -26 -27 -28 -29 -30 -31
leaf_value=-0.020162238603090906 -0.0080383079892055974 0.010711649078739607 -0.0032928023025623303 -0.0075994860007388828 0.0056991332459488311 0.0069726438654546044 0.018155114104323553 -0.00075736373226097174 -0.01261010720384248 -0.0058126663200608972 0.0060330893252136973 0.0030378828748426814 -0.0053256777055466021 0.011174356488259972 -0.027013502999519309 -0.0077788858569084116 -0.0036658209598990099 -0.013771183264115095 0.013080554936738842 0.0016520705802474567 0.0097537270163496337 -0.0017636333793631541 0.014328532542095951 0.021522042226223722 -0.0068710718624518108 0.003642609235843198 -0.015892523758319791 0.004611358000476142 0.0095920483408337281 0.02308589554688921
leaf_weight=445 59 218 304 192 145 288 289 99 322 72 172 504 195 141 33 153 165 191 267 133 75 387 153 21 191 104 304 114 94 268
leaf_count=445 59 218 304 192 145 288 289 99 322 72 172 504 195 141 33 153 165 191 267 133 75 387 153 21 191 104 304 114 94 268
internal_value=1.89749e-11 0.00854826 -0.00872959 -0.0138883 0.00429276 0.0148919 0.0177664 -0.00353999 -0.00449676 -0.0070461 7.70577e-05 0.00702513 -0.0107304 0.00481655 -0.0122757 -0.014108 -0.00881665 -0.0182429 0.0104827 0.000622982 0.00377328 0.00132493 0.01007 0.00796144 -0.0104734 -0.000225458 -0.0169815 -0.000313037 0.00493999 0.0205276
internal_weight=6098 3081 3017 1513 1844 1237 775 1504 1330 854 476 1057 877 645 682 490 678 636 412 787 174 728 462 309 513 176 337 501 227 557
internal_count=6098 3081 3017 1513 1844 1237 775 1504 1330 854 476 1057 877 645 682 490 678 636 412 787 174 728 462 309 513 176 337 501 227 557
is_linear=0
shrinkage=0.05


Tree=25
num_leaves=31
num_cat=0
split_feature=4 4 0 3 1 4 13 17 9 17 13 17 17 17 17 13 13 17 11 7 15 17 16 2 5 17 17 16 13 19
split_gain=164.67 36.9669 21.9867 9.39413 5.29314 4.69754 4.12185 4.39809 3.0089 3.24962 2.89736 2.84968 3.37352 2.68332 2.35374 2.3447 2.29405 2.25116 2.30091 1.96129 1.85565 1.91013 1.77276 2.99793 1.75838 1.75464 1.75384 1.56752 1.55998 1.45875
threshold=-0.30272872573381876 -0.96061339362639764 0.36633346501337749 -1.3681908695038512 -0.45575582909022022 0.11575213455376641 0.09083988024075941 9.5000000000000018 -0.45847843966514407 10.500000000000002 -1.0364680403346436 5.5000000000000009 21.500000000000004 20.500000000000004 20.500000000000004 -0.82564820136142669 -0.12338697898793315 8.5000000000000018 -1.189341975947831 -0.32390350216815883 -0.67117389322458976 7.5000000000000009 0.67873644895829266 0.22024833702844812 -0.8902580229586462 22.500000000000004 19.500000000000004 1.5964608561348987 -0.91750013453498414 8.5000000000000018
decision_type=2 2 2 2 2 2 2 2 2 2 2 2 2 2 2 2 2 2 2 2 2 2 2 2 2 2 2 2 2 2
left_child=1 3 5 10 11 15 -4 19 9 -5 25 24 16 -11 20 -2 -13 -17 -19 -8 21 -6 -7 29 -3 -1 -12 -21 -23 -24
right_child=2 4 6 8 14 22 7 -9 -10 13 26 12 -14 -15 -16 17 -18 18 -20 27 -22 28 23 -25 -26 -27 -28 -29 -30 -31
leaf_value=-0.019665017601865443 -0.0029113914680163394 -0.0025645222393221819 0.010487678613953461 -0.004821225280129033 0.0037650756554275348 0.0041943550666424202 0.011878766204285462 0.010249647291554236 -0.0026088149726154822 -0.014522210947150092 -0.015285798463296016 -0.0087763848490345839 0.0016278940501157195 -0.0066693095443457768 0.010640405559679494 0.0080557870765617153 -0.001683296989338285 -0.0024892980116975622 0.0046217282820063404 0.019318509516338119 0.010693086787650827 -0.011745392904267647 0.012632510691231877 0.0057076279375706781 0.0060684919354425356 -0.0058061373575280109 -0.0064162148284106855 0.026752782935860028 -0.001338585159209895 0.026289094523304985
leaf_weight=472 122 217 328 190 185 146 72 168 146 403 174 547 125 149 60 293 144 157 413 365 40 40 284 201 81 24 82 88 361 21
leaf_count=472 122 217 328 190 185 146 72 168 146 403 174 547 125 149 60 293 144 157 413 365 40 40 284 201 81 24 82 88 361 21
internal_value=9.34805e-12 -0.00722241 0.00934729 -0.0126526 -0.00227495 0.00575591 0.0151055 0.0172911 -0.00917016 -0.0104612 -0.0167648 -0.00440264 -0.00593087 -0.0124025 0.00118024 0.00357676 -0.00729823 0.00449397 0.00266308 0.0195443 0.00027351 -0.000437723 0.00904803 0.0104485 -0.000217965 -0.0189944 -0.0124448 0.0207627 -0.00237667 0.0135728
internal_weight=6098 3440 2658 1640 1800 1637 1021 693 888 742 752 1114 816 552 686 985 691 863 570 525 626 586 652 506 298 496 256 453 401 305
internal_count=6098 3440 2658 1640 1800 1637 1021 693 888 742 752 1114 816 552 686 985 691 863 570 525 626 586 652 506 298 496 256 453 401 305
is_linear=0
shrinkage=0.05


Tree=26
num_leaves=31
num_cat=0
split_feature=0 4 1 3 3 1 17 16 9 17 17 17 13 17 17 11 16 17 13 2 17 5 17 13 7 15 17 17 5 17
split_gain=149.047 34.1846 20.3074 8.11753 5.64737 4.83665 4.79014 3.31136 2.62688 2.64068 2.54086 2.53253 2.5222 2.39348 2.59213 2.12879 2.0137 1.87916 1.55054 2.71446 1.80071 1.55006 1.43585 1.86095 1.40407 1.34396 1.74754 1.33052 1.46361 1.30307
threshold=-0.28371399966871697 -0.96061339362639764 0.40421897795102263 -1.3809517638890509 0.073850367585833798 -0.6354739337768559 7.5000000000000009 0.89924760468984155 -0.45847843966514407 10.500000000000002 20.500000000000004 5.5000000000000009 -1.3618690868294934 4.5000000000000009 18.500000000000004 -1.3791482269710329 1.0166385748217397 19.500000000000004 -0.12338697898793315 -1.0141515028627202 20.500000000000004 -0.11807974066127727 6.5000000000000009 0.40756660563157349 0.60234175242046795 -1.902767955798857 13.500000000000002 21.500000000000004 0.19951086064326831 11.500000000000002
decision_type=2 2 2 2 2 2 2 2 2 2 2 2 2 2 2 2 2 2 2 2 2 2 2 2 2 2 2 2 2 2
left_child=1 3 4 12 22 18 7 -4 9 -5 -11 -6 -1 -7 21 -13 -8 25 19 -3 -21 -15 -2 27 -9 26 -14 28 -24 -18
right_child=2 5 6 8 11 13 16 24 -10 10 -12 15 17 14 -16 -17 29 -19 -20 20 -22 -23 23 -25 -26 -27 -28 -29 -30 -31
leaf_value=-0.022286924185711099 0.0058337190482729883 -0.0025028015985641169 0.008907227912485334 -0.0049231218238253533 0.012238216525381417 0.0057567557551400986 0.0039815346092355493 0.018991606064849613 -0.0026380766400169314 -0.013802971660951825 -0.0062515828678825578 -0.0015559231435296351 -0.0082186869170982387 -0.0039892489723882246 0.0045856718949264267 0.0080336755849034214 0.014347742494531119 -0.010574339475473002 0.0012133512551292451 -0.0098961840668369619 -6.7318929359316834e-05 0.0012346356274430868 -0.0017260387965586628 0.0094957800620302027 0.030379613951362412 -0.010811143732172679 -0.019376502648464869 0.0068043855188506435 0.0044500144666213045 0.0073707786686201069
leaf_weight=132 334 351 84 186 329 163 85 406 140 417 152 71 40 443 172 313 261 192 91 340 54 209 366 70 29 81 286 81 130 90
leaf_count=132 334 351 84 186 329 163 85 406 140 417 152 71 40 443 172 313 261 192 91 340 54 209 366 70 29 81 286 81 130 90
internal_value=6.38191e-12 -0.00685065 0.00891956 -0.0121214 0.00563255 -0.00214949 0.0147501 0.0179958 -0.00892862 -0.0100951 -0.0117857 0.00901885 -0.0160305 0.000220758 -0.000874348 0.0062606 0.0108866 -0.0146518 -0.00494785 -0.00570043 -0.00854908 -0.00231472 0.00317135 0.00179696 0.0197508 -0.0165753 -0.0180074 0.000862958 -0.000107315 0.0125588
internal_weight=6098 3449 2649 1626 1694 1823 955 519 895 755 569 713 731 987 824 384 436 599 836 745 394 652 981 647 435 407 326 577 496 351
internal_count=6098 3449 2649 1626 1694 1823 955 519 895 755 569 713 731 987 824 384 436 599 836 745 394 652 981 647 435 407 326 577 496 351
is_linear=0
shrinkage=0.05


Tree=27
num_leaves=31
num_cat=0
split_feature=1 1 0 17 4 17 17 5 13 16 7 1 13 2 16 17 17 17 15 17 15 16 17 17 17 13 13 11 17 7
split_gain=135.307 24.2887 22.8154 7.75792 6.07248 5.36797 4.43345 3.40136 3.35516 3.14637 3.11278 3.09673 2.18561 3.26493 2.2752 2.07357 2.05418 2.95898 1.85682 1.91922 1.8449 1.62782 1.59222 2.00351 1.41014 1.37985 1.37617 1.32811 1.81201 1.27318
threshold=-0.4394542436701428 0.40421897795102263 -1.2930657272381341 5.5000000000000009 -0.71111269894644324 20.500000000000004 7.5000000000000009 0.18122318635036325 -1.1427201182890805 0.89924760468984155 -0.70179411418180637 -1.1176073683857712 0.095675278298041844 -0.28381344255982793 0.081814836599391941 10.500000000000002 8.5000000000000018 17.500000000000004 -2.1105016739381344 7.5000000000000009 -0.67117389322458976 1.0166385748217397 19.500000000000004 13.500000000000002 11.500000000000002 0.42428306993650372 0.40756660563157349 -1.9242506198705847 7.5000000000000009 0.60234175242046795
decision_type=2 2 2 2 2 2 2 2 2 2 2 2 2 2 2 2 2 2 2 2 2 2 2 2 2 2 2 2 2 2
left_child=2 3 8 10 11 7 9 18 -1 -3 -2 27 13 14 -6 -9 -13 -18 -5 -20 -21 -8 23 -10 26 -7 -23 28 -4 -11
right_child=1 6 4 5 12 25 21 15 22 29 -12 16 -14 -15 -16 -17 17 -19 19 20 -22 24 -24 -25 -26 -27 -28 -29 -30 -31
leaf_value=-0.017370580074644062 0.0059258436902397483 0.0083244334530331535 -0.0081142038325551988 -0.0097378378447431791 -0.005141198037017603 0.0079177586337214924 0.0042105190819064671 0.0097231614931880452 0.00013721766254792993 0.018017332210654279 0.012977207405418313 -0.00069055327854874494 0.0057900961504546633 -0.0079394093074979678 0.0017784983253155435 0.002287273199069989 -0.0091753206855397437 -0.001842392841056206 0.0052063389393032138 -0.0021039953277890637 0.0056508567348249605 0.011367958406125138 -0.0070627633848313349 -0.014298703388747344 0.006488182049237211 0.018468247075859263 0.019456802296439465 -0.0079751658782437774 -0.01818738156948619 0.028860632985316478
leaf_weight=427 365 87 82 52 172 168 90 146 26 407 274 201 94 191 384 262 382 215 146 597 88 188 152 318 94 38 73 252 98 29
leaf_count=427 365 87 82 52 172 168 90 146 26 407 274 201 94 191 384 262 382 215 146 597 88 188 152 318 94 38 73 252 98 29
internal_value=8.94516e-12 0.00731477 -0.00758352 0.00433729 -0.00466966 0.00236859 0.0138849 0.00117258 -0.0141216 0.0170062 0.00894943 -0.00690842 -0.00139536 -0.00229956 -0.000362127 0.00494815 -0.00506252 -0.00653448 -0.000571973 1.58323e-06 -0.00110775 0.0102165 -0.0113245 -0.0132076 0.0117392 0.00986397 0.0136304 -0.0103182 -0.0135985 0.0187386
internal_weight=6098 3104 2994 2136 2071 1497 968 1291 923 523 639 1230 841 747 556 408 798 597 883 831 685 445 496 344 355 206 261 432 180 436
internal_count=6098 3104 2994 2136 2071 1497 968 1291 923 523 639 1230 841 747 556 408 798 597 883 831 685 445 496 344 355 206 261 432 180 436
is_linear=0
shrinkage=0.05


Tree=28
num_leaves=31
num_cat=0
split_feature=1 1 3 13 17 17 17 13 17 17 17 17 4 15 7 13 15 15 13 1 1 17 15 8 15 17 17 15 10 14
split_gain=122.114 22.0235 21.409 6.52046 6.08948 5.19449 4.72701 4.40279 4.14243 3.82496 3.07906 6.66436 2.50257 2.39529 2.33329 2.19103 2.03102 1.6029 1.49764 1.45722 1.31474 1.29018 1.57596 1.23378 1.22373 1.02482 1.01576 0.959906 0.939371 0.919125
threshold=-0.4394542436701428 0.25923248612885891 -1.001309632390371 -0.81540967362840311 5.5000000000000009 8.5000000000000018 19.500000000000004 -0.25514355460269433 11.500000000000002 21.500000000000004 8.5000000000000018 17.500000000000004 -0.19292874872984275 -1.0395807550159264 -0.70179411418180637 -1.2487358490295948 -2.3214507915561797 -0.67117389322458976 0.28798699650522414 -0.83002260101449588 0.79741743288827205 21.500000000000004 -1.6236066136242291 -0.1703479897547174 -0.53801316094801999 21.500000000000004 11.500000000000002 -2.0206092072025315 0.51982186180985923 0.55561031480774792
decision_type=2 2 2 2 2 2 2 2 2 2 2 2 2 2 2 2 2 2 2 2 2 2 2 2 2 2 2 2 2 2
left_child=2 4 3 8 14 7 12 -3 29 16 15 23 17 21 -2 -4 -10 -6 -9 -17 25 -13 -23 -12 -22 26 28 -11 -7 -1
right_child=1 5 10 -5 6 20 -8 18 9 27 11 13 -14 -15 -16 19 -18 -19 -20 -21 24 22 -24 -25 -26 -27 -28 -29 -30 -31
leaf_value=-0.0095507525903086535 0.0054431160168238232 0.0056378239924963726 -0.0055318786766564258 -0.0062307347662068826 -0.002715574715413688 0.014143137269653381 0.0080555450632435049 0.014195223397050413 -0.020749225770470812 -0.010113352650630694 -0.012953866571082141 -0.0052284400629767106 0.0028451661034780001 0.0058495095319560046 0.012263452862379098 -0.0023354173595206314 -0.014837257357325115 0.0076575643164687795 0.019042638583463244 0.0039272649280315238 0.0093856052860481608 -0.0050757839966536272 0.0051876243955403982 -0.0072630074955253674 0.020658624810025547 0.016873148278417915 0.0028216931289960809 -0.0010155028567036114 0.0060433322711596418 -0.0025582873230491779
leaf_weight=139 342 117 134 435 540 50 235 393 201 99 132 191 493 115 198 140 524 40 268 276 89 64 90 342 33 22 158 41 126 71
leaf_count=139 342 117 134 435 540 50 235 393 201 99 132 191 493 115 198 140 524 40 268 276 89 64 90 342 33 22 158 41 126 71
internal_value=8.18324e-12 0.00694903 -0.00720434 -0.0113959 0.00347691 0.0120577 0.00163273 0.0145781 -0.0134859 -0.0150152 -0.0029394 -0.00468711 0.000226057 -0.000399788 0.00794391 2.85363e-05 -0.0164763 -0.00200019 0.0161606 0.00181963 0.00795545 -0.00248289 0.000922312 -0.0088478 0.0124349 0.00642038 0.00573187 -0.00744898 0.00834441 -0.00718663
internal_weight=6098 3104 2994 1510 1848 1256 1308 778 1075 865 1484 934 1073 460 540 550 725 580 661 416 478 345 154 474 122 356 334 140 176 210
internal_count=6098 3104 2994 1510 1848 1256 1308 778 1075 865 1484 934 1073 460 540 550 725 580 661 416 478 345 154 474 122 356 334 140 176 210
is_linear=0
shrinkage=0.05


Tree=29
num_leaves=31
num_cat=0
split_feature=3 4 0 3 13 1 2 0 13 4 15 0 16 16 1 13 16 12 4 2 13 4 13 2 13 2 5 2 14 2
split_gain=110.41 25.6853 14.7047 6.56285 3.70654 3.57162 3.12468 2.86852 2.45458 1.86248 1.85676 1.75726 1.68096 1.61832 1.56167 1.51957 1.45312 1.32648 1.27944 1.36152 1.21152 1.17452 1.03179 0.993799 1.44161 0.931218 0.915258 0.875025 0.85557 0.813164
threshold=-0.29252021376860027 -0.92014875526426398 0.37709501998054068 -1.4812850906869022 -0.60601762732661946 -0.67925897275623059 0.17282242680378096 0.89734713743404326 -0.55199845264920377 -0.028094316376723123 -0.8011147270782395 -1.0140632083782812 1.645374621158455 0.79749048002355283 -0.028094316376723123 -1.3056586360310114 -0.3028540471221518 1.0186134824255551 -1.7861716365906615 -1.054026062660969 0.28798699650522414 -0.25468252394142787 0.40756660563157349 -0.68777267384531815 -0.31974282671224369 -0.57596904792195536 -0.62676114327737553 -0.56297975604280881 0.50567875621956826 -0.28381344255982793
decision_type=2 2 2 2 2 2 2 2 2 2 2 2 2 2 2 2 2 2 2 2 2 2 2 2 2 2 2 2 2 2
left_child=1 3 4 15 -2 16 9 13 11 -6 21 18 20 -4 22 -1 -3 -11 -5 -20 -9 -7 -8 -18 -25 -13 -27 -10 -21 -23
right_child=2 5 7 8 6 10 14 12 27 17 -12 25 -14 -15 -16 -17 23 -19 19 28 -22 29 -24 24 -26 26 -28 -29 -30 -31
leaf_value=-0.017976328301843824 -0.00032563165583555015 -0.011079059879321763 0.0047580736076876448 -0.019000776378776542 0.0051937190975026234 -0.0016083002698710454 -0.002201264594360367 0.010793663339378933 0.00043481076664161374 0.0081435181386453528 0.0061584245774914358 -0.0039085561405796483 0.027765612328244794 0.011729916563769358 0.0050375464783604671 -0.012655308935939745 -0.0017343721171574934 0.013981598391385181 -0.0072357304300410394 -0.0069275785284116861 0.018087071297542875 0.004963471943878436 0.006571158702440915 -0.0088152590013966647 -0.0018667010236939376 -0.015513265629609427 -0.005546060055562789 -0.0057604230952396796 -0.013571113221255402 -0.00078124764343638989
leaf_weight=204 293 71 96 44 359 637 166 90 86 300 120 184 31 626 351 392 350 144 232 60 155 140 42 164 137 42 51 169 252 110
leaf_count=204 293 71 96 44 359 637 166 90 86 300 120 184 31 626 351 392 350 144 232 60 155 140 42 164 137 42 51 169 252 110
internal_value=8.16839e-12 -0.00590411 0.00766666 -0.0102378 0.00477601 -0.00160301 0.0058735 0.0124603 -0.00798214 0.00787167 0.000321224 -0.00925304 0.0167959 0.0108029 0.00300314 -0.0144766 -0.00428682 0.0100369 -0.0107998 -0.0101365 0.0154079 -0.000468476 -0.00042991 -0.00354604 -0.00565263 -0.0059696 -0.0100474 -0.00367105 -0.0122935 0.0024358
internal_weight=6098 3445 2653 1716 1655 1729 1362 998 1120 803 1007 865 276 722 559 596 722 444 588 544 245 887 208 651 301 277 93 255 312 250
internal_count=6098 3445 2653 1716 1655 1729 1362 998 1120 803 1007 865 276 722 559 596 722 444 588 544 245 887 208 651 301 277 93 255 312 250
is_linear=0
shrinkage=0.05


Tree=30
num_leaves=31
num_cat=0
split_feature=1 1 3 17 13 17 13 17 17 13 17 17 17 16 17 15 15 13 13 16 17 16 1 13 17 17 7 1 16 17
split_gain=99.8416 18.2443 17.4811 6.09279 5.54695 4.92112 4.08357 3.52008 3.40994 2.94949 2.88114 2.70016 5.66914 2.48776 2.12611 2.06183 1.8688 1.83712 1.59753 1.32783 1.31741 1.60453 1.26074 1.18305 1.1587 1.37214 1.13991 1.09566 1.09414 1.07295
threshold=-0.4394542436701428 0.40421897795102263 -1.001309632390371 7.5000000000000009 -0.84589935671202232 20.500000000000004 -0.59175955254714341 7.5000000000000009 11.500000000000002 -0.6090630726569638 21.500000000000004 8.5000000000000018 17.500000000000004 0.89924760468984155 11.500000000000002 -1.1263236155179015 -0.71540230903070545 -1.2487358490295948 -1.3697974518615486 1.0166385748217397 21.500000000000004 0.51759671671177065 -0.83002260101449588 0.42428306993650372 20.500000000000004 13.500000000000002 -0.37366754591651147 -1.1067468505144746 0.55098512178335901 11.500000000000002
decision_type=2 2 2 2 2 2 2 2 2 2 2 2 2 2 2 2 2 2 2 2 2 2 2 2 2 2 2 2 2 2
left_child=2 3 4 6 8 9 -2 13 -1 -5 18 17 27 -3 -11 20 -16 -4 -10 -9 -14 -22 -19 -7 25 -6 -8 -13 -27 -21
right_child=1 7 11 5 24 23 26 19 10 14 -12 12 15 -15 16 -17 -18 22 -20 29 21 -23 -24 -25 -26 28 -28 -29 -30 -31
leaf_value=-0.0067019101724816637 0.0020672796822214928 0.0070390924605294725 -0.0049726256462806189 -0.0055269267540233105 0.0031312447638871771 0.0067959295063268477 0.007919825794726847 0.003284512180883515 -0.021214350636950451 0.0052968627053022865 -0.0071527545022624164 -0.014982670501138693 -0.0056639301220462578 0.016299336103815506 -0.0021151463003264552 0.0045663675337978835 0.0035842963734234487 -0.0021057918656151742 -0.014220471571403173 0.011733792043152539 -0.0053759656313469937 0.0052260498464822254 0.0037194149670118563 0.016565111122633282 -0.0010515432061925147 -0.0099127957344943736 0.012763661860089218 -0.007290663476440265 -0.0041015285352044859 0.0055037809228722723
leaf_weight=208 284 87 134 188 30 168 397 90 95 248 133 52 167 436 419 146 219 140 581 261 61 86 276 38 97 245 175 422 121 94
leaf_count=208 284 87 134 188 30 168 397 90 95 248 133 52 167 436 419 146 219 140 581 261 61 86 276 38 97 245 175 422 121 94
internal_value=1.52641e-11 0.00628343 -0.00651429 0.0037029 -0.0103018 0.00151911 0.00696836 0.0119777 -0.0124118 0.000161336 -0.0138798 -0.00266039 -0.00429704 0.0147589 0.00136833 -0.000342783 -0.000158755 0.000118938 -0.0152033 0.00870895 -0.00262538 0.000826574 0.00175901 0.00859801 -0.00594925 -0.00714895 0.00940177 -0.00813451 -0.00799158 0.0100842
internal_weight=6098 3104 2994 2136 1510 1280 856 968 1017 1074 809 1484 934 523 886 460 638 550 676 445 314 147 416 206 493 396 572 474 366 355
internal_count=6098 3104 2994 2136 1510 1280 856 968 1017 1074 809 1484 934 523 886 460 638 550 676 445 314 147 416 206 493 396 572 474 366 355
is_linear=0
shrinkage=0.05


Tree=31
num_leaves=31
num_cat=0
split_feature=0 1 1 4 15 0 1 4 15 2 13 2 16 2 1 15 2 1 13 2 13 13 1 0 6 13 7 13 2 2
split_gain=90.1384 21.2692 12.4756 4.21128 4.09918 2.9225 2.22309 2.21103 1.92444 2.3691 1.80585 2.1356 1.63782 1.63769 1.87061 1.35611 1.19365 1.13336 1.13109 1.64264 1.55606 1.13096 1.13004 1.01819 1.00297 1.10613 0.945014 0.934614 1.28699 0.9285
threshold=-0.28371399966871697 -1.1281741081731405 0.19945869030275773 -0.78006008655886616 -2.0206092072025315 0.89734713743404326 -0.45575582909022022 -0.12039463606567559 -1.304561250837893 -1.2008001035192513 -0.26761981753799402 0.40557932645820932 1.645374621158455 -1.2472424392899557 -1.5592292070177447 -0.60925195101710405 0.0088949332574368035 0.030928536846169741 0.084769975619509344 -0.28381344255982793 -1.2487358490295948 0.28798699650522414 0.52962446711322031 0.15408639224984927 0.3509659007045281 -0.49806984677923455 -0.43270330137584417 -0.84073014404432767 -0.20178644405354854 -1.7362932477493429
decision_type=2 2 2 2 2 2 2 2 2 2 2 2 2 2 2 2 2 2 2 2 2 2 2 2 2 2 2 2 2 2
left_child=1 4 7 8 13 10 18 15 9 29 26 -12 21 14 -1 16 17 -2 19 20 -5 -7 -13 -9 25 -6 -4 -8 -29 -3
right_child=2 3 5 6 24 12 27 23 -10 -11 11 22 -14 -15 -16 -17 -18 -19 -20 -21 -22 -23 -24 -25 -26 -27 -28 28 -30 -31
leaf_value=-0.013991164003334375 0.0013025573112198975 -0.0064280040268051 0.0095800066869705935 -0.0077963237743529992 -0.0067639490835600738 0.0089926388404309391 -0.0022019054111093285 0.0036157831697990854 0.00099610805272724542 -0.0073689944378584997 0.012200628208138513 0.0042299406205112229 0.026314846464786035 -0.015770330586967737 -0.0070054611196429658 0.010437474962777625 -0.0024517316584528976 0.0090102543766525656 0.0045783302760110719 -0.0070238326374879659 -5.4889216267178864e-05 0.016304018152424531 0.0095311162678138692 0.0074930821614987335 -0.010429356281597661 0.0019620316534689291 0.0010876853463828171 0.006071923778791513 0.00069920983054016866 0.0011498159244857568
leaf_weight=218 359 57 50 79 318 82 125 350 118 613 506 170 29 315 171 39 191 55 52 187 364 149 246 328 170 41 95 175 307 139
leaf_count=218 359 57 50 79 318 82 125 350 118 613 506 170 29 315 171 39 191 55 52 187 364 149 246 328 170 41 95 175 307 139
internal_value=1.28851e-12 -0.00532753 0.00693644 -0.00239869 -0.0105914 0.0103613 -0.000550246 0.00349865 -0.00496896 -0.00583902 0.00920299 0.0100187 0.0151147 -0.0130904 -0.0109203 0.00140056 0.000818019 0.00232653 -0.0025092 -0.0030942 -0.00143542 0.0137086 0.00736477 0.00549153 -0.00726556 -0.00576739 0.00401607 0.00165075 0.00264988 -0.00105394
internal_weight=6098 3449 2649 2216 1233 1327 1289 1322 927 809 1067 922 260 704 389 644 605 414 682 630 443 231 416 678 529 359 145 607 482 196
internal_count=6098 3449 2649 2216 1233 1327 1289 1322 927 809 1067 922 260 704 389 644 605 414 682 630 443 231 416 678 529 359 145 607 482 196
is_linear=0
shrinkage=0.05


Tree=32
num_leaves=31
num_cat=0
split_feature=3 1 1 4 15 17 17 16 17 17 16 17 17 17 7 5 17 12 17 15 5 11 16 16 5 7 10 12 17 17
split_gain=81.4906 19.0095 10.9314 3.87593 3.74077 3.39139 3.28459 3.25371 2.9924 2.85923 2.23727 2.16741 2.59196 1.98215 1.77266 1.75402 1.70175 1.32257 1.27828 1.54971 1.24215 1.21679 1.20711 1.156 1.10057 1.04728 1.0229 1.00936 1.4519 0.970292
threshold=-0.29252021376860027 -1.0834811819150263 0.40421897795102263 -0.44826020226563035 -2.0206092072025315 8.5000000000000018 7.5000000000000009 0.47717169135469778 19.500000000000004 7.5000000000000009 0.88998043139181526 5.5000000000000009 20.500000000000004 20.500000000000004 -0.65512571064349368 -0.87037672910085429 20.500000000000004 1.102952823965379 8.5000000000000018 -2.2283699224892222 -0.40936537900574116 -0.34195880420679742 1.4500867891745768 0.95906237049749521 -0.9931148644456359 0.60234175242046795 0.52475750066747118 1.2716442741470106 2.5000000000000004 11.500000000000002
decision_type=2 2 2 2 2 2 2 2 2 2 2 2 2 2 2 2 2 2 2 2 2 2 2 2 2 2 2 2 2 2
left_child=1 4 6 11 5 -1 7 -2 14 10 -4 24 15 -6 -8 -13 -7 18 19 -5 -10 29 -11 -17 -3 -12 -24 28 -9 -16
right_child=2 3 9 17 13 16 8 27 20 22 25 12 -14 -15 21 23 -18 -19 -20 -21 -22 -23 26 -25 -26 -27 -28 -29 -30 -31
leaf_value=-0.0052647330805484678 0.0017372838676327934 -0.002150097908119538 0.0056218752490144368 -0.007741429157977109 -0.0085645763583498246 -0.015421579647120388 -0.0070153297289130348 0.0047812963469501066 0.0018068667624994547 0.0060511014940159737 0.014112197531663907 -0.0099708342709584029 0.0015126635610424686 -0.0020518687421281359 0.0029618944333218251 -0.0052072491347766002 -0.0093219605082976494 0.0056962949309719638 -0.0023366327151372493 0.0040281436860399285 0.0094539116920018002 0.010671174735409406 0.020693209785251663 -0.00017971378190580894 0.0046591399025027328 0.023941060174898856 0.0096363229523946017 0.014007876185978485 0.010368757672449647 -0.0011584241117816418
leaf_weight=144 242 140 79 32 433 436 71 213 79 292 414 171 159 160 272 747 155 124 284 222 162 33 26 135 103 29 107 77 256 301
leaf_count=144 242 140 79 32 433 436 71 213 79 292 414 171 159 160 272 747 155 124 284 222 162 33 26 135 103 29 107 77 256 301
internal_value=1.8768e-11 -0.00507229 0.00658652 -0.00213058 -0.00976174 -0.0121454 0.00419527 0.00656326 0.00216262 0.0108943 0.0133733 -0.00357368 -0.00443777 -0.00680735 0.000459394 -0.00533627 -0.0138218 0.00104118 -3.175e-05 0.00254536 0.0069472 0.00133515 0.00784949 -0.00443773 0.000736122 0.0147556 0.0117978 0.00870224 0.00783117 0.000797469
internal_weight=6098 3445 2653 2117 1328 735 1706 788 918 947 522 1455 1212 593 677 1053 591 662 538 254 241 606 425 882 243 443 133 546 469 573
internal_count=6098 3445 2653 2117 1328 735 1706 788 918 947 522 1455 1212 593 677 1053 591 662 538 254 241 606 425 882 243 443 133 546 469 573
is_linear=0
shrinkage=0.05


Tree=33
num_leaves=31
num_cat=0
split_feature=1 1 3 13 17 17 17 13 17 17 17 17 12 19 7 15 16 17 15 7 15 17 11 3 17 17 5 17 10 14
split_gain=73.7877 13.5214 13.0112 4.37287 4.06973 3.42523 3.21773 2.94122 2.64006 2.70401 2.18569 4.63399 1.86771 1.70095 1.55321 1.49508 1.47651 1.3845 1.20128 1.17199 1.15371 1.36021 1.06668 0.963311 0.956945 0.885687 0.852781 0.951253 0.908627 0.839474
threshold=-0.4394542436701428 0.25923248612885891 -1.001309632390371 -0.81540967362840311 5.5000000000000009 8.5000000000000018 20.500000000000004 -0.25514355460269433 11.500000000000002 21.500000000000004 8.5000000000000018 18.500000000000004 0.92226876767427302 2.5000000000000004 -0.70179411418180637 -2.3214507915561797 0.060035944421714026 7.5000000000000009 -0.51266829119362733 -1.099160670181065 -1.4684345045344258 14.500000000000002 -0.3237990213048117 0.82671049025833054 21.500000000000004 11.500000000000002 -1.3464026969544729 21.500000000000004 0.53363629095585774 0.55561031480774792
decision_type=2 2 2 2 2 2 2 2 2 2 2 2 2 2 2 2 2 2 2 2 2 2 2 2 2 2 2 2 2 2
left_child=2 4 3 8 14 7 13 -3 29 15 16 20 26 -6 -2 -10 -4 -15 -19 -18 21 -12 -9 24 25 -7 -13 28 -28 -1
right_child=1 5 10 -5 6 23 -8 22 9 -11 11 12 -14 17 -16 -17 19 18 -20 -21 -22 -23 -24 -25 -26 -27 27 -29 -30 -31
leaf_value=-0.0078099086537300579 0.0042925971898873884 0.004144088358769559 -0.0025409020018964962 -0.0046379682697601961 -0.0064314191462472086 0.0066881553050788011 0.0072453875011231576 0.012269777139432517 -0.016694837329742401 -0.0054386377342910113 -0.0072182396552227471 -0.011530700583188308 0.0057392221658486521 0.0054564247921937044 0.0098572244788308391 -0.011622507275484958 0.00063000438195348792 -0.00046120893905674231 0.0069205061283941251 0.0075982616760302338 -0.0040950230756910365 -0.015836350158289342 0.021239264695239918 0.012568320181019896 0.015218089152451443 0.0019297838334487864 -0.0091376955673660876 0.0019168574938067424 -0.0006534488544881849 -0.0011272884305225503
leaf_weight=139 342 117 257 435 90 238 187 626 201 140 251 21 114 135 198 524 208 837 59 85 228 56 35 51 23 166 53 133 78 71
leaf_count=139 342 117 257 435 90 238 187 626 201 140 251 21 114 135 198 524 208 837 59 85 228 56 35 51 23 166 53 133 78 71
internal_value=4.32316e-12 0.00540174 -0.0056002 -0.00886781 0.00268114 0.00940465 0.00117351 0.0114513 -0.0105794 -0.0118003 -0.00227533 -0.00374783 0.00033033 0.000160631 0.00633296 -0.0130288 0.000225239 0.000736077 2.48638e-05 0.00265151 -0.00678931 -0.00879027 0.0127447 0.00607348 0.00529775 0.00473298 -0.00183323 -0.00106184 -0.00408601 -0.00555055
internal_weight=6098 3104 2994 1510 1848 1256 1308 778 1075 865 1484 934 399 1121 540 725 550 1031 896 293 535 307 661 478 427 404 285 264 131 210
internal_count=6098 3104 2994 1510 1848 1256 1308 778 1075 865 1484 934 399 1121 540 725 550 1031 896 293 535 307 661 478 427 404 285 264 131 210
is_linear=0
shrinkage=0.05


Tree=34
num_leaves=31
num_cat=0
split_feature=1 1 1 17 17 17 17 11 13 17 13 17 16 17 12 17 12 7 5 17 13 9 13 17 12 17 14 7 14 17
