tree
version=v4
num_class=1
num_tree_per_iteration=1
label_index=0
max_feature_idx=19
objective=regression
feature_names=pm10 lag_1 lag_6 lag_24 lag_48 rolling_mean_6 rolling_std_6 rolling_min_6 rolling_max_6 rolling_mean_24 rolling_std_24 rolling_min_24 rolling_max_24 rolling_mean_48 rolling_std_48 rolling_min_48 rolling_max_48 hour dayofweek month
feature_infos=[-2.5728724676293799:1.6819030801725661] [-2.5728724676293799:1.6819030801725661] [-2.5728724676293799:1.6819030801725661] [-2.5728724676293799:1.6819030801725661] [-2.5728724676293799:1.6819030801725661] [-2.0968140182590056:1.0950224067091645] [0.047241146070885871:0.73727012344234566] [-2.5728724676293799:0.84256483954264583] [-1.8536218918251841:1.6819030801725661] [-1.5299566184412861:0.38137299993312018] [0.39056780049111939:0.71025053167063568] [-2.5728724676293799:-0.3682901833430986] [-0.79008943726683123:1.6819030801725661] [-1.5339213854765363:0.34354967765927852] [0.43812387854649043:0.64125804567472289] [-2.5728724676293799:-0.54576928147609327] [-0.70569538332270865:1.6819030801725661] [0:23] [0:6] [1:8]
tree_sizes=2801 2835 2842 2859 2855 2843 2853 2864 2846 2869 2843 2876 2880 2859 2861 2868 2867 2866 2884 2877 2884 2881 2876 2876 2880 2889 2891 2891 2886 2898 2882 2885 2894 2910 2898 2902 2910 2919 2918 2917 2900 2916 2915 2902 2910 2912 2920 2922 2924 2923 2907 2928 2920 2939 2919 2927 2926 2908 2919 2930 2910 2927 2917 2927 2945 2944 2943 2914 2929 2912 2923 2950 2928 2927 2939 2941 2927 2954 2922 2939 2935 2940 2907 2937 2934 2912 2930 2914 2938 2901 2931 2925 2944 2928 2935 2888 2895 2944 2936 2935 2921 2920 2906 2932 2917 2946 2912 2912 2903 2935 2886 2919 2915 2925 2905 2901 2922 2928 2910 2922 2896 2917 2915 2900 2895 2888 2898 2114 2355 2915 2909 2910 2900 2920 2575 2752 2802 2900 2898 2934 2898 2470 2893 2931 2903 2928 2900 2926 2906 2918 2929 2925 2918 2896 2921 2873 2894 2885 2895 2925 2736 2910 2922 2902 2881 2883 2934 2912 2900 2913 2903 2905 2923 1756 2787 2903 2913 2757 2380 2932 2933 2894 2908 2894 2930 2898 2897 2910 2940 2897 2892 2909 2939 2827 2894 2891 2911 2952 2904 2912

Tree=0
num_leaves=31
num_cat=0
split_feature=3 0 0 0 3 3 3 17 0 13 13 13 17 17 3 1 0 1 17 17 13 17 13 17 17 17 13 5 17 17
split_gain=1444.35 260.409 226.306 50.0603 42.4841 36.1127 25.2665 17.4858 14.1336 11.9948 11.3122 10.6538 11.1002 8.67265 8.61314 7.49143 7.31798 7.24879 6.36583 7.0831 6.20051 5.70026 8.0062 5.68422 5.54239 4.9584 5.55337 4.92213 4.51406 4.44814
threshold=-0.56121282309327059 -1.2033276557399124 0.18147066526088199 -0.27950905185426145 -1.4612066939203607 -1.0433872708020071 0.27612256275606278 7.5000000000000009 -0.58376598100577104 -0.59335551347564508 -1.0595215915363632 -0.16038200006808145 8.5000000000000018 4.5000000000000009 -1.4467979861072264 -0.42523290998535629 -1.4667776561627621 0.26862948648334517 8.5000000000000018 17.500000000000004 -0.81800218799296276 7.5000000000000009 -0.44717130213081108 18.500000000000004 21.500000000000004 9.5000000000000018 -0.59741815483269367 -0.49987032555830951 21.500000000000004 6.5000000000000009
decision_type=2 2 2 2 2 2 2 2 2 2 2 2 2 2 2 2 2 2 2 2 2 2 2 2 2 2 2 2 2 2
left_child=1 4 3 13 10 14 29 9 18 -5 24 -8 -13 20 -3 23 -6 28 -7 27 -2 -16 -23 -15 -1 -18 -27 -20 -9 -4
right_child=2 5 6 7 16 8 11 17 -10 -11 -12 12 -14 15 21 -17 25 -19 19 -21 -22 22 -24 -25 -26 26 -28 -29 -30 -31
leaf_value=-0.64799597728112202 -0.58149113401943497 -0.62455151297712208 -0.54472718149708077 -0.56558105522355739 -0.62914785677116425 -0.591853764199745 -0.54732029078922328 -0.57503910841505368 -0.58698011666039129 -0.54765168195730451 -0.63069587358763168 -0.52507017339454665 -0.54434860261697293 -0.5939282004826768 -0.59617325288062406 -0.5774294540432634 -0.60199497531494872 -0.55759923619970109 -0.61342153149004097 -0.59427912605351163 -0.56385318455340017 -0.61468981786877863 -0.59669592247603354 -0.57971928687417829 -0.62766087547803584 -0.62370091865965116 -0.60732714391277098 -0.60056931604511699 -0.56018870467519744 -0.55632391660359748
leaf_weight=355 82 93 170 153 193 213 102 293 377 239 172 336 96 179 85 337 48 107 148 175 127 272 80 116 37 199 70 150 62 161
leaf_count=355 82 93 170 153 193 213 102 293 377 239 172 336 96 179 85 337 48 107 148 175 127 272 80 116 37 199 70 150 62 161
internal_value=-0.587151 -0.612902 -0.560324 -0.570944 -0.63193 -0.600073 -0.539514 -0.562417 -0.594757 -0.55465 -0.641386 -0.532786 -0.529354 -0.579603 -0.610735 -0.582523 -0.621472 -0.569007 -0.599031 -0.602263 -0.570773 -0.607794 -0.6106 -0.588341 -0.646077 -0.616799 -0.61944 -0.606952 -0.572446 -0.550368
internal_weight=5227 2667 2560 1695 1074 1593 865 854 1063 392 564 534 432 841 530 632 510 462 686 473 209 437 352 295 392 317 269 298 355 331
internal_count=5227 2667 2560 1695 1074 1593 865 854 1063 392 564 534 432 841 530 632 510 462 686 473 209 437 352 295 392 317 269 298 355 331
is_linear=0
shrinkage=1


Tree=1
num_leaves=31
num_cat=0
split_feature=3 0 0 4 4 4 4 0 17 3 13 4 3 16 17 13 17 15 17 4 1 0 15 4 17 17 5 11 2 2
split_gain=1304.24 245.749 193.7 47.8764 43.3352 39.6747 22.8439 14.8011 13.18 12.0576 11.3774 10.6204 9.98476 8.00979 7.39622 6.25394 6.71513 5.98948 4.97048 4.86595 4.56599 4.22708 4.20331 3.96955 3.65086 3.45707 3.28815 3.28733 4.4664 3.2582
threshold=-0.53197153633455529 -1.2033276557399124 0.18147066526088199 -0.28176880936185711 -0.91756754523974904 -1.5564102032577998 0.34393220774983829 -0.5640940321039426 7.5000000000000009 -1.4330751621632207 -0.59335551347564508 -0.65978483104469732 -1.2405849377575815 1.02983922216233 8.5000000000000018 -0.43926524776352771 7.5000000000000009 -2.0206092072025315 5.5000000000000009 -1.007099805846736 0.36595553234386324 -0.91125559175382953 -1.0698312740946665 -0.4401841139278419 20.500000000000004 20.500000000000004 -0.24986432053657739 -2.0327091025745494 -1.5257771419281252 -0.27032620119195822
decision_type=2 2 2 2 2 2 2 2 2 2 2 2 2 2 2 2 2 2 2 2 2 2 2 2 2 2 2 2 2 2
left_child=1 5 3 11 12 17 15 18 10 27 -5 -2 -3 -8 -15 -4 -17 24 -6 -11 -10 -14 25 -9 -1 -20 -12 28 -7 -13
right_child=2 4 6 8 7 9 13 23 20 19 26 29 21 14 -16 16 -18 -19 22 -21 -22 -23 -24 -25 -26 -27 -28 -29 -30 -31
leaf_value=-0.05857650931281453 -0.00080471331864828243 -0.031332451856548066 0.02411344607855067 0.020056764060451138 -0.0015205466197177836 -0.032352431980695116 0.045416656545564239 -0.0019913626399280715 0.016099589053222653 -0.0321911945292487 0.032031853212802497 0.0148619457419013 -0.022870044555030253 0.063252498745918276 0.043106730787430783 0.046053769914433364 0.03145313316956163 -0.041443046359788807 -0.01538054087837256 -0.019481282011089396 0.029826337117184368 -0.01340777885756096 0.0075121439844367619 0.0082433294340529487 -0.046066668464077844 -0.0029022322473331143 0.043564426650603616 -0.037872758193005764 -0.056401155332724266 0.0066541019158016541
leaf_weight=307 280 190 81 155 134 26 204 214 382 296 135 285 219 200 59 180 140 84 380 101 72 256 25 170 72 65 114 116 75 210
leaf_count=307 280 190 81 155 134 26 204 214 382 296 135 285 219 200 59 180 140 84 380 101 72 256 25 170 72 65 114 116 75 210
internal_value=-4.61746e-11 -0.0238864 0.0261153 0.0159857 -0.0117774 -0.0424714 0.0452605 -0.00513561 0.0241224 -0.0341379 0.0306917 0.00697767 -0.0216453 0.0528268 0.0586633 0.0365245 0.039666 -0.0535227 -0.0100152 -0.0289577 0.0182765 -0.0177704 -0.0124371 0.00253962 -0.0562 -0.0135579 0.0373118 -0.0436152 -0.0502104 0.0113798
internal_weight=5227 2730 2497 1633 1653 1077 864 988 858 614 404 775 665 463 259 401 320 463 604 397 454 475 470 384 379 445 249 217 101 495
internal_count=5227 2730 2497 1633 1653 1077 864 988 858 614 404 775 665 463 259 401 320 463 604 397 454 475 470 384 379 445 249 217 101 495
is_linear=0
shrinkage=0.05


Tree=2
num_leaves=31
num_cat=0
split_feature=3 0 0 4 4 4 3 0 17 3 19 0 13 17 3 13 17 5 4 17 17 16 11 3 0 17 4 16 5 15
split_gain=1177.07 221.789 174.814 43.2085 39.1101 35.8064 21.2728 13.358 11.895 11.078 10.3281 9.77875 9.06827 9.14248 9.01124 5.40731 4.48586 4.28972 4.26013 4.20268 4.09429 3.8817 3.8264 3.82332 3.81494 3.63936 3.58252 3.44814 3.24291 3.03864
threshold=-0.53197153633455529 -1.2033276557399124 0.18147066526088199 -0.28176880936185711 -0.91756754523974904 -1.5564102032577998 0.27612256275606278 -0.5640940321039426 7.5000000000000009 -1.2008001035192513 4.5000000000000009 -0.45353267292892702 -0.16038200006808145 8.5000000000000018 -1.2405849377575815 -1.0328560090223233 5.5000000000000009 0.40842737686210157 -0.036397625037463743 4.5000000000000009 9.5000000000000018 0.925674388423534 -0.95503309426414529 -1.5620274780237784 -0.91125559175382953 21.500000000000004 -0.4401841139278419 1.1082433842814583 0.16004069664280018 -1.639552064167076
decision_type=2 2 2 2 2 2 2 2 2 2 2 2 2 2 2 2 2 2 2 2 2 2 2 2 2 2 2 2 2 2
left_child=1 5 3 11 14 15 18 16 10 23 -5 19 -8 27 -3 -1 -6 25 -4 -2 -11 -18 -21 -7 -16 28 -9 -14 -10 -22
right_child=2 4 6 8 7 9 12 26 17 20 -12 -13 13 -15 24 -17 21 -19 -20 22 29 -23 -24 -25 -26 -27 -28 -29 -30 -31
leaf_value=-0.053736815164900489 0.01038281025589797 -0.029765829860085719 0.024583596441876687 0.020458962773161664 -0.0014445192515919569 -0.044278831243943828 0.035755828568967536 -0.0018917945289775454 0.0095784224935196813 -0.0085644274284572327 0.036504853320771566 0.012010955733918796 0.051331729793000491 0.038723107920183492 -0.02172654259952049 -0.040744660049676897 -0.013347751889499214 0.029817267966767154 0.036844064816340213 -0.0050538230410382863 -0.030817429878858521 0.0016578460480862608 0.0095330793610108756 -0.033881751958418777 -0.012737389989024451 0.026377989120373969 0.0078311629626242555 0.061468512169372894 0.0198640051617264 -0.017230180837016679
leaf_weight=360 87 190 103 185 134 139 102 214 209 37 219 404 174 96 219 103 422 60 227 228 136 48 56 243 256 64 170 162 121 59
leaf_count=360 87 190 103 185 134 139 102 214 209 37 219 404 174 96 219 103 422 60 227 228 136 48 56 243 256 64 170 162 121 59
internal_value=1.54339e-11 -0.022692 0.0248095 0.0151864 -0.0111886 -0.0403478 0.0429975 -0.00487883 0.0229162 -0.032431 0.0291571 0.00662879 0.049165 0.0523311 -0.020563 -0.0508466 -0.00951447 0.0173627 0.0330173 0.000767885 -0.0238131 -0.0118153 -0.00217753 -0.037665 -0.0168819 0.0154661 0.00241264 0.0562191 0.0133498 -0.0267064
internal_weight=5227 2730 2497 1633 1653 1077 864 988 858 614 404 775 534 432 665 463 604 454 330 371 232 470 284 382 475 394 384 336 330 195
internal_count=5227 2730 2497 1633 1653 1077 864 988 858 614 404 775 534 432 665 463 604 454 330 371 232 470 284 382 475 394 384 336 330 195
is_linear=0
shrinkage=0.05


Tree=3
num_leaves=31
num_cat=0
split_feature=3 0 0 0 3 3 3 17 0 16 13 13 17 3 0 0 1 17 17 17 5 13 17 3 16 17 17 17 17 17
split_gain=1062.43 191.283 166.283 38.8741 31.9282 28.0604 19.1701 13.3639 10.0628 9.17192 8.85472 8.18411 8.25109 7.43478 7.01247 5.89638 5.70186 5.65249 8.16672 5.12377 5.03551 4.74205 6.31621 4.05803 4.05785 4.76631 3.85223 3.7587 3.64208 3.45905
threshold=-0.56121282309327059 -1.2033276557399124 0.18147066526088199 -0.27950905185426145 -1.4612066939203607 -1.0083927254975749 0.27612256275606278 7.5000000000000009 -0.44330818696719426 0.67379535867687579 -1.1431539405048941 -0.16038200006808145 8.5000000000000018 -1.4467979861072264 -0.67408531060541621 -1.4667776561627621 0.26862948648334517 8.5000000000000018 17.500000000000004 21.500000000000004 -0.48056248358928372 -0.32284152696408674 9.5000000000000018 -1.2008001035192513 0.6957969988512599 7.5000000000000009 4.5000000000000009 21.500000000000004 20.500000000000004 9.5000000000000018
decision_type=2 2 2 2 2 2 2 2 2 2 2 2 2 2 2 2 2 2 2 2 2 2 2 2 2 2 2 2 2 2
left_child=1 4 3 14 10 13 24 9 17 -5 19 -8 -13 -3 -2 -6 27 -7 20 -1 -19 22 -15 -17 -4 -26 -16 -9 -24 -25
right_child=2 5 6 7 15 8 11 16 -10 -11 -12 12 -14 21 26 23 -18 18 -20 -21 -22 -23 28 29 25 -27 -28 -29 -30 -31
leaf_value=-0.054083156195941243 -0.00066611331302716622 -0.032766039738611828 0.023598295718385329 0.02151680339090023 -0.036217591167099467 -0.0024938135297573657 0.033968036820856383 0.010241669381840741 0.0028290133390230956 0.036949518329244764 -0.039258917417972029 0.053408152430451342 0.036786952292701854 -0.0092228506952371139 0.01598137642678087 -0.03200672580860555 0.025775526600528648 -0.023163832334934603 -0.0036769717216624748 -0.033574244423824194 -0.010767018202841948 -0.0043025242569321989 -0.026059805798092497 -0.0054941612579568755 0.042486017988170539 0.027761494789150694 0.0068305336580297728 0.023792725392887671 -0.013807580462321868 -0.023530749312993496
leaf_weight=292 254 93 111 222 193 240 102 293 243 170 238 336 96 116 157 128 107 154 196 34 175 61 233 32 113 107 430 62 82 157
leaf_count=292 254 93 111 222 193 240 102 293 243 170 238 336 96 116 157 128 107 154 196 34 175 61 233 32 113 107 430 62 82 157
internal_value=5.76982e-11 -0.0220852 0.0230083 0.0139051 -0.0383933 -0.0110903 0.0408465 0.0214193 -0.00603493 0.0282096 -0.0465912 0.0467068 0.0497146 -0.0198012 0.00627469 -0.0293274 0.0156579 -0.00885054 -0.0117565 -0.0519442 -0.0165698 -0.0173505 -0.0191972 -0.0251325 0.0313922 0.0353245 0.00927803 0.0126083 -0.0228703 -0.0204769
internal_weight=5227 2667 2560 1695 1074 1593 865 854 1008 392 564 534 432 585 841 510 462 765 525 326 329 492 431 317 331 220 587 355 315 189
internal_count=5227 2667 2560 1695 1074 1593 865 854 1008 392 564 534 432 585 841 510 462 765 525 326 329 492 431 317 331 220 587 355 315 189
is_linear=0
shrinkage=0.05


Tree=4
num_leaves=31
num_cat=0
split_feature=4 3 0 3 0 4 4 3 4 4 0 13 17 3 15 13 17 13 0 17 17 9 17 17 13 2 17 17 5 17
split_gain=964.625 185.91 141.496 36.6093 34.7673 28.4726 16.7893 11.2767 10.353 9.05226 8.07358 6.45313 6.95973 6.23841 5.87608 4.73445 6.06885 4.56005 4.53134 4.06912 3.58772 3.35666 3.29135 3.41757 3.13949 4.30959 3.04823 4.93769 3.05076 2.90319
threshold=-0.53258330054405867 -1.2276730089478158 0.18147066526088199 -0.29518528994400467 -0.90147749720061421 -1.5564102032577998 0.34393220774983829 -0.65978483104469732 0.10260855559999731 -1.0399151363503827 -1.2975136118312942 -0.073831712508275069 8.5000000000000018 -0.53197153633455529 -2.2283699224892222 -0.35037049896113465 7.5000000000000009 -0.37196111821891736 -0.29390403291080597 5.5000000000000009 7.5000000000000009 -0.3150996712213357 9.5000000000000018 19.500000000000004 -1.0960309383203031 -1.51243726216968 8.5000000000000018 18.500000000000004 -0.31220067958004077 6.5000000000000009
decision_type=2 2 2 2 2 2 2 2 2 2 2 2 2 2 2 2 2 2 2 2 2 2 2 2 2 2 2 2 2 2
left_child=1 5 3 13 9 14 15 26 18 17 24 -8 -13 29 -1 -4 -17 22 -5 -9 21 -10 -3 -24 25 -7 -6 28 -28 -2
right_child=2 4 6 8 7 10 11 19 20 -11 -12 12 -14 -15 -16 16 -18 -19 -20 -21 -22 -23 23 -25 -26 -27 27 -29 -30 -31
leaf_value=-0.050547001240347181 0.0081440180307254199 -0.014031693457554168 0.022045279976911844 0.011309730029600258 -0.0037457326389754978 -0.029176994429334354 0.036388216285453433 0.0095539089765977765 0.026149847846300828 -0.012468829742001912 -0.023266695567366224 0.053231495976566325 0.035698897024131808 0.010457956898899284 -0.039087715057303782 0.041135098460627482 0.026886473086821183 -0.0049808211849424354 0.02028959663670039 -0.0012143055385806494 0.021969393234253551 0.040327474842947651 -0.031539189456433983 -0.020122392114364743 -0.031019380279653466 -0.048567182992241886 -0.018725843068750692 -0.0029627617840001516 -0.0054624352762142996 -0.0015579648137381942
leaf_weight=283 107 52 100 225 173 46 138 116 84 310 276 252 73 340 185 163 138 29 374 360 124 83 194 99 194 76 192 109 56 276
leaf_count=283 107 52 100 225 173 46 138 116 84 310 276 252 73 340 185 163 138 29 374 360 124 83 194 99 194 76 192 109 56 276
internal_value=2.7027e-11 -0.0203854 0.0226322 0.013886 -0.0100895 -0.0368006 0.0389604 -0.00417605 0.0206752 -0.0187868 -0.0295146 0.0454469 0.0492934 0.00552852 -0.0460172 0.031471 0.0346025 -0.0240236 0.0169165 0.00140988 0.0284123 0.0331962 -0.0256243 -0.0276816 -0.0349715 -0.0412561 -0.00919285 -0.0118325 -0.0157309 0.00115251
internal_weight=5227 2750 2477 1613 1690 1060 864 1006 890 684 592 463 325 723 468 401 301 374 599 476 291 167 345 293 316 122 530 357 248 383
internal_count=5227 2750 2477 1613 1690 1060 864 1006 890 684 592 463 325 723 468 401 301 374 599 476 291 167 345 293 316 122 530 357 248 383
is_linear=0
shrinkage=0.05


Tree=5
num_leaves=31
num_cat=0
split_feature=4 3 0 4 3 4 3 4 0 0 17 13 17 17 5 15 1 0 1 12 17 11 5 17 16 9 17 3 17 17
split_gain=870.574 167.903 128.038 30.0341 29.5624 27.8544 18.6486 8.76528 8.55645 7.99452 7.76382 7.75112 8.11043 6.51878 5.74564 5.52873 5.10869 4.68192 4.53545 4.41205 3.72667 4.5122 3.0547 3.03403 2.8644 2.79903 4.59475 2.78347 2.73399 2.56646
threshold=-0.53258330054405867 -1.2008001035192513 -0.048070061218652933 0.28312572783836792 -0.77319715576518944 -1.5564102032577998 -0.5229662870869366 -1.0399151363503827 -1.2716703767586368 -0.42523290998535629 6.5000000000000009 -0.14146814364937396 8.5000000000000018 4.5000000000000009 -0.60924567729722012 -2.2283699224892222 0.26862948648334517 -1.0102628139502314 0.23782528451600035 0.39877389204192737 4.5000000000000009 -1.0480885998136245 0.1253353045339822 21.500000000000004 1.1082433842814583 -0.63399275176335868 10.500000000000002 -1.5620274780237784 19.500000000000004 20.500000000000004
decision_type=2 2 2 2 2 2 2 2 2 2 2 2 2 2 2 2 2 2 2 2 2 2 2 2 2 2 2 2 2 2
left_child=1 5 6 10 7 15 -2 17 27 20 19 -5 22 14 -8 -1 28 -3 23 -4 -6 29 -13 -15 -24 26 -10 -7 -12 -22
right_child=2 4 3 11 9 8 13 -9 25 -11 16 12 -14 18 -16 -17 -18 -19 -20 -21 21 -23 24 -25 -26 -27 -28 -29 -30 -31
leaf_value=-0.048026003486434508 0.00072284001311480946 -0.025194892924718101 0.020232811278965271 0.030943657162935408 0.0027742446492131996 -0.038686802860062861 0.012877629498901685 -0.01096105568004762 -0.011871643857327554 0.0060594806990153984 0.012980632828317008 0.037961262976750731 0.0322105128521269 0.0080839438591460474 0.028376631724728846 -0.037005139613356546 0.028370845155805593 -0.014038865498814813 0.021505859827682858 0.034484250674193556 -0.010954697640243052 0.0052646692534307803 0.044915221968706509 0.019878898882457325 0.05504930246044213 -0.013710218081893079 -0.029074944211491222 -0.029360308692580123 0.026876769502731886 -0.00018552259125775009
leaf_weight=286 376 255 71 151 114 130 113 455 53 209 181 64 110 452 127 189 123 149 93 231 342 62 137 62 142 87 145 208 44 66
leaf_count=286 376 255 71 151 114 130 113 455 53 209 181 64 110 452 127 189 123 149 93 231 342 62 137 62 142 87 145 208 44 66
internal_value=5.0148e-12 -0.0193661 0.0215006 0.032727 -0.00929383 -0.0345205 0.00998959 -0.0157203 -0.0275667 -0.00233247 0.0252678 0.0407542 0.0440244 0.0141033 0.0210792 -0.0436409 0.0201773 -0.0210804 0.0113451 0.0311337 -0.00533575 -0.00730285 0.0478131 0.00950668 0.0500731 -0.0211854 -0.02447 -0.0329474 0.0156981 -0.00921263
internal_weight=5227 2750 2477 1254 1652 1098 1223 859 623 793 650 604 453 847 240 475 348 404 607 302 584 470 343 514 279 285 198 338 225 408
internal_count=5227 2750 2477 1254 1652 1098 1223 859 623 793 650 604 453 847 240 475 348 404 607 302 584 470 343 514 279 285 198 338 225 408
is_linear=0
shrinkage=0.05


Tree=6
num_leaves=31
num_cat=0
split_feature=4 3 0 3 4 3 3 13 0 4 17 19 13 17 17 17 0 0 17 15 17 5 17 9 17 13 17 12 0 13
split_gain=786.258 173.493 96.299 33.3901 26.5994 21.6211 12.7941 11.0283 10.0473 9.05476 7.47312 8.45841 6.2188 5.95412 5.404 5.60418 5.30127 4.22544 4.16664 4.40013 3.80475 3.40806 3.90141 3.33333 5.85288 3.28312 3.05938 2.99535 2.76596 2.65254
threshold=-0.44719873564431772 -1.2008001035192513 0.18147066526088199 -0.77319715576518944 -1.3415137160148216 -0.29518528994400467 0.27612256275606278 -0.96347510154596083 -0.42523290998535629 -1.0399151363503827 7.5000000000000009 4.5000000000000009 -0.16038200006808145 9.5000000000000018 20.500000000000004 10.500000000000002 -1.2342780642366946 -1.0102628139502314 4.5000000000000009 -1.0395807550159264 20.500000000000004 0.22527289165506906 20.500000000000004 -0.79464266761718361 9.5000000000000018 -1.2354049832238052 6.5000000000000009 1.102952823965379 -0.58376598100577104 0.087878600121845327
decision_type=2 2 2 2 2 2 2 2 2 2 2 2 2 2 2 2 2 2 2 2 2 2 2 2 2 2 2 2 2 2
left_child=1 4 5 9 7 23 26 14 18 17 11 -7 -8 29 15 -1 -6 -3 -5 20 -20 22 -12 -2 -25 -17 -4 -26 -11 -14
right_child=2 3 6 8 16 10 12 -9 -10 28 21 -13 13 -15 -16 25 -18 -19 19 -21 -22 -23 -24 24 27 -27 -28 -29 -30 -31
leaf_value=-0.019894366186450831 0.00079187418412261031 -0.023935148506881852 0.032417754375916201 0.0034178708721988634 -0.028519827328134507 0.016124398207974209 0.029108385977052228 -0.027086808175374212 0.0066136517289481361 -0.012060794612600984 0.0084286344946549723 0.030969902684199649 0.04057074430478471 0.027466320185498761 -0.032047767449509011 -0.049857595293516563 -0.017065694984204183 -0.013336922229273906 -0.0098809119060533704 0.0086479972174856815 0.0019418730244335786 0.021176433709661071 0.021707987526079289 0.01808773040474488 0.0026244440076499359 -0.040816596472779146 0.022654753431360058 0.015629846778994597 -0.0033915733780003777 0.048980375578497902
leaf_weight=22 167 255 162 133 189 172 102 163 295 384 219 217 175 55 110 224 217 149 400 44 82 144 74 127 227 182 159 55 121 202
leaf_count=22 167 255 162 133 189 172 102 163 295 384 219 217 175 55 110 224 217 149 400 44 82 144 74 127 227 182 159 55 121 202
internal_value=-4.08936e-11 -0.016905 0.0222453 -0.00758959 -0.032582 0.01418 0.0354706 -0.0384805 -0.00105557 -0.0144471 0.0193651 0.0244058 0.0402128 0.0428346 -0.0419324 -0.0444729 -0.0223978 -0.0200264 -0.00448868 -0.00648787 -0.00786957 0.014878 0.0117825 0.0067444 0.0091749 -0.0458047 0.0275819 0.00516096 -0.00998361 0.0450767
internal_weight=5227 2970 2257 1863 1107 1402 855 701 954 909 826 389 534 432 538 428 406 404 659 526 482 437 293 576 409 406 321 282 505 377
internal_count=5227 2970 2257 1863 1107 1402 855 701 954 909 826 389 534 432 538 428 406 404 659 526 482 437 293 576 409 406 321 282 505 377
is_linear=0
shrinkage=0.05


Tree=7
num_leaves=31
num_cat=0
split_feature=4 3 0 0 3 4 4 3 4 4 13 17 17 16 17 13 0 13 17 13 17 13 17 17 17 0 13 17 17 17
split_gain=710.024 145.592 96.1782 31.7294 23.9144 18.5711 11.7472 10.0474 7.7044 7.69673 6.27858 5.90742 4.78906 4.66359 4.46543 4.15599 4.01968 3.926 3.71821 3.65354 4.1718 3.63346 3.89333 2.97771 2.95849 2.80002 2.79874 2.76149 4.74648 2.5709
threshold=-0.49204118878945202 -1.2517921222031985 0.18876691106292601 -0.90147749720061421 -0.29518528994400467 -1.5564102032577998 0.36453702731264587 -0.65978483104469732 -1.0399151363503827 0.10260855559999731 -0.81376918430123502 10.500000000000002 21.500000000000004 1.0686194161847451 5.5000000000000009 -1.2354049832238052 -0.49464899320464234 -0.37196111821891736 8.5000000000000018 -0.95237927465815442 7.5000000000000009 -0.27027947123052021 7.5000000000000009 9.5000000000000018 20.500000000000004 -0.45353267292892702 -1.1032506973934937 8.5000000000000018 17.500000000000004 7.5000000000000009
decision_type=2 2 2 2 2 2 2 2 2 2 2 2 2 2 2 2 2 2 2 2 2 2 2 2 2 2 2 2 2 2
left_child=1 5 4 8 16 15 21 27 17 19 11 -7 26 -8 -9 -1 -2 23 -15 -6 -21 -4 -23 -3 -25 -16 -13 -5 -29 -11
right_child=2 3 6 7 9 10 13 14 -10 29 -12 12 -14 18 25 -17 -18 -19 -20 20 -22 22 -24 24 -26 -27 -28 28 -30 -31
leaf_value=-0.043987854430073407 0.0006459472505380273 -0.011840990712620883 0.020897036529971626 -0.0027436925813778927 -0.0025208951391536612 -0.015000695863864939 0.034398047363788986 0.0097093192772953821 -0.010857369343829665 0.028607198747946219 -0.017826231565775383 -0.042361634891930518 -0.019947279585776703 0.048375783652970288 -0.0043746375719560908 -0.034494926207536351 0.0086599961516803884 -0.0036991036186615625 0.032564604629684864 0.02100604942987138 0.012134668088476406 0.036720482752352332 0.024881399719527478 -0.027222175109750332 -0.016441546624055368 0.0041080738307065047 -0.031340991082797004 -0.014338440834832104 -0.0028664744163955183 0.019217762652052835
leaf_weight=246 257 56 132 186 29 59 217 133 331 173 167 91 63 165 235 217 400 30 48 221 331 143 135 237 87 166 157 247 142 126
leaf_count=246 257 56 132 186 29 59 217 133 331 173 167 91 63 165 235 217 400 30 48 221 331 143 135 237 87 166 157 247 142 126
internal_value=-1.35032e-11 -0.0168295 0.0201785 -0.00852089 0.0127432 -0.0322006 0.0337832 -0.00316837 -0.0165316 0.0181321 -0.0258736 -0.0295058 -0.0322576 0.0395569 0.00177011 -0.0395387 0.00552512 -0.0211125 0.0448127 0.0147776 0.0156864 0.0277279 0.0309713 -0.0224873 -0.0243274 -0.000863091 -0.0353849 -0.00775471 -0.0101507 0.0246504
internal_weight=5227 2850 2377 1850 1537 1000 840 1109 741 880 537 370 311 430 534 463 657 410 213 581 552 410 278 380 324 401 248 575 389 299
internal_count=5227 2850 2377 1850 1537 1000 840 1109 741 880 537 370 311 430 534 463 657 410 213 581 552 410 278 380 324 401 248 575 389 299
is_linear=0
shrinkage=0.05


Tree=8
num_leaves=31
num_cat=0
split_feature=3 0 3 4 4 4 0 0 0 0 0 3 17 17 16 17 17 16 13 11 15 17 13 13 17 17 17 15 17 17
split_gain=642.97 122.224 95.231 26.5274 22.064 19.9843 12.3686 8.33659 7.96446 6.62149 5.76744 4.90026 4.54587 4.12376 4.07425 3.73007 3.6572 3.96205 3.61324 3.53455 3.52837 3.45838 3.29614 3.22731 4.76549 4.33732 2.98104 3.00744 2.96324 2.63592
threshold=-0.53197153633455529 -1.2033276557399124 0.18793818929292533 -0.28969661726347679 -0.91756754523974904 -1.5725556522277071 0.36595553234386324 -0.048070061218652933 -0.5640940321039426 -1.4667776561627621 -0.42523290998535629 -1.472043528128719 7.5000000000000009 7.5000000000000009 1.1219492546527101 9.5000000000000018 9.5000000000000018 0.67873644895829266 -1.0686935657618439 -1.3352554259175633 -1.5897545942689628 20.500000000000004 -1.0328560090223233 -0.34674745177479777 8.5000000000000018 20.500000000000004 5.5000000000000009 -1.0997864245936118 4.5000000000000009 20.500000000000004
decision_type=2 2 2 2 2 2 2 2 2 2 2 2 2 2 2 2 2 2 2 2 2 2 2 2 2 2 2 2 2 2
left_child=1 5 3 10 11 22 16 28 26 18 -2 -3 14 19 -8 -11 17 -4 -7 -9 21 -17 -1 24 -13 -26 -6 29 -5 -28
right_child=2 4 6 7 8 9 12 13 -10 15 -12 23 -14 -15 -16 20 -18 -19 -20 -21 -22 -23 -24 -25 25 -27 27 -29 -30 -31
leaf_value=-0.040224194589137501 0.00019459267529463629 -0.028095609761440932 0.019884972690921675 0.019045619640222191 -0.00049335217675013446 -0.036724475156997553 0.036459330391517143 0.020567855025486401 0.0021377064762286109 -0.0077165342820808298 0.0088887921034901101 -0.006846766650218457 0.029989220968116938 0.016976966094646034 0.048082882128963784 -0.028450001629167485 0.017066560135156447 0.032446091213613436 -0.025039959558990313 0.032964933748710255 -0.011216338081548233 -0.01538693605204268 -0.029808059031355014 -0.0046219820328477048 -0.021065532299357193 -0.008867401401056265 -0.011603097952948884 0.0063698931969702255 0.010134408086360432 -0.00069647830803520406
leaf_weight=350 382 67 94 129 134 116 200 114 384 55 381 126 138 198 121 171 98 189 154 116 62 72 97 82 293 97 375 30 337 65
leaf_count=350 382 67 94 129 134 116 200 114 384 55 381 126 138 198 121 171 98 189 154 116 62 72 97 82 293 97 375 30 337 65
internal_value=9.31297e-12 -0.0167713 0.0183363 0.011384 -0.0082317 -0.0298781 0.0320505 0.0172285 -0.00349248 -0.024141 0.004536 -0.0152728 0.0375782 0.0222666 0.0408408 -0.0197018 0.0253911 0.0282738 -0.03006 0.0268203 -0.021863 -0.0245795 -0.0379639 -0.0138362 -0.0153004 -0.0180316 -0.00707193 -0.00894752 0.0126012 -0.00999189
internal_weight=5227 2730 2497 1657 1653 1077 840 894 988 630 763 665 459 428 321 360 381 283 270 230 305 243 447 598 516 390 604 470 466 440
internal_count=5227 2730 2497 1657 1653 1077 840 894 988 630 763 665 459 428 321 360 381 283 270 230 305 243 447 598 516 390 604 470 466 440
is_linear=0
shrinkage=0.05


Tree=9
num_leaves=31
num_cat=0
split_feature=4 3 0 3 4 3 13 17 13 0 4 16 2 17 17 17 16 0 13 13 17 5 17 17 5 9 13 17 15 15
split_gain=581.776 128.044 70.7046 25.0816 19.8906 15.8542 10.1522 9.92239 8.60755 7.23594 6.54003 5.22958 6.56057 4.67357 4.27604 4.22444 4.04322 4.00948 3.61026 3.55974 3.70168 3.46792 3.32601 4.64429 2.98477 2.79087 2.67506 2.62821 2.53699 2.2991
threshold=-0.44719873564431772 -1.2008001035192513 0.18147066526088199 -0.77319715576518944 -1.3415137160148216 -0.057155655051496751 -0.23531880098504471 9.5000000000000018 -0.96347510154596083 -0.42523290998535629 -1.0399151363503827 0.19778809939456346 -0.13711119494311577 20.500000000000004 7.5000000000000009 10.500000000000002 0.40457088851788908 -1.2342780642366946 0.087878600121845327 -0.41932090947405665 8.5000000000000018 -0.12238544047457316 8.5000000000000018 17.500000000000004 -0.47186313677943031 0.20155192975720473 -0.37196111821891736 7.5000000000000009 -2.2283699224892222 -1.9824102495577367
decision_type=2 2 2 2 2 2 2 2 2 2 2 2 2 2 2 2 2 2 2 2 2 2 2 2 2 2 2 2 2 2
left_child=1 4 5 10 8 11 27 18 13 22 19 -2 -13 15 16 -1 -7 -6 -8 20 -3 25 -5 24 -24 -14 -16 -4 -17 -22
right_child=2 3 6 9 17 14 7 -9 -10 -11 -12 12 21 -15 26 28 -18 -19 -20 -21 29 -23 23 -25 -26 -27 -28 -29 -30 -31
leaf_value=-0.017182896252382885 0.0010299454379306479 -0.0078075915693290657 0.024057993649562945 0.0013687211103525392 -0.024526935073648084 0.01258288443653432 0.033108799951130002 0.021776113030500713 -0.023044390759596522 0.0056326844128858997 -0.0086887787836822817 0.01473405775657086 -0.0062843476995747263 -0.026967461893165651 0.0044140204933344153 -0.042499381872967278 0.02731434092856205 -0.01456562966963465 0.041656161906540132 -0.0034448020423518584 -0.027016516849311573 0.0086453447361597921 -0.016834502984528189 -2.8272262295811539e-05 -0.006063134035457266 0.014451834370847792 0.017289644228764979 0.010800358893417676 -0.03414034238696969 -0.017870285083578588
leaf_weight=22 196 63 169 212 189 61 277 138 163 295 505 379 86 110 51 269 197 217 223 42 107 219 108 180 159 20 193 48 137 192
leaf_count=22 196 63 169 212 189 61 277 138 163 295 505 379 86 110 51 269 197 217 223 42 107 219 108 180 159 20 193 48 137 192
internal_value=1.05995e-11 -0.0145415 0.0191353 -0.00653875 -0.0280096 0.0122243 0.0304676 0.0336451 -0.0331102 -0.000875726 -0.0124821 0.00825332 0.0102644 -0.0361599 0.0193436 -0.0385224 0.0238313 -0.0192028 0.0369209 -0.0172238 -0.0188225 0.00505204 -0.0037892 -0.00623547 -0.0104201 -0.00237186 0.0145984 0.0211254 -0.0396787 -0.0211434
internal_weight=5227 2970 2257 1863 1107 1402 855 638 701 954 909 900 704 538 502 428 258 406 500 404 362 325 659 447 267 106 244 217 406 299
internal_count=5227 2970 2257 1863 1107 1402 855 638 701 954 909 900 704 538 502 428 258 406 500 404 362 325 659 447 267 106 244 217 406 299
is_linear=0
shrinkage=0.05


Tree=10
num_leaves=31
num_cat=0
split_feature=3 0 4 4 0 3 3 0 4 0 3 17 5 4 9 17 17 1 17 9 17 17 16 17 16 17 15 16 11 17
split_gain=525.95 99.8204 77.8961 21.004 17.5845 13.5909 12.6498 6.89462 6.41163 5.43149 5.27314 4.53048 4.47237 4.41388 3.9313 3.39192 3.11097 3.06358 3.0597 5.3289 3.5891 2.94145 2.93273 3.5838 2.84587 2.74481 2.7144 2.6744 2.4806 2.39074
threshold=-0.53197153633455529 -1.2538027877395044 0.10260855559999731 -0.91756754523974904 -0.15451903318983412 -1.5620274780237784 0.2511734254176326 -0.5640940321039426 -0.65978483104469732 0.34513201324082393 -1.4467979861072264 7.5000000000000009 0.16887327005240774 -1.4272820029427913 -1.2054486512123805 4.5000000000000009 20.500000000000004 0.28312572783836792 8.5000000000000018 -0.49057560426170738 20.500000000000004 21.500000000000004 0.6957969988512599 7.5000000000000009 0.30708639190634657 5.5000000000000009 -1.0997864245936118 1.0686194161847451 -2.2283699224892222 6.5000000000000009
decision_type=2 2 2 2 2 2 2 2 2 2 2 2 2 2 2 2 2 2 2 2 2 2 2 2 2 2 2 2 2 2
left_child=1 5 4 10 8 14 22 25 -2 -6 -3 12 -8 -7 21 24 -17 -13 -12 20 -20 -1 -4 -24 -10 -5 -27 -14 -9 -30
right_child=2 3 6 7 9 13 11 28 15 -11 18 17 27 -15 -16 16 -18 -19 19 -21 -22 -23 23 -25 -26 26 -28 -29 29 -31
leaf_value=-0.040258789398945324 -0.0015294182860624596 -0.025263251052190041 0.015105112000962657 -0.00037538425355359054 0.013810798052970403 -0.02815580938163019 0.028425396355832445 -0.013279078511055559 0.0056989767989280692 0.025794143295144407 -0.0060341627495154853 0.012084136484190822 0.034328970876336094 -0.018892572509330421 -0.028905545780183495 0.0038302753169768989 0.014739419285578129 0.028911159238467616 -0.020855621783288592 -0.006692359856104637 -0.009650872312296107 -0.022519970484651056 0.030180343901204162 0.018226596930013727 0.01875670129755707 -0.0093094159859489819 0.0062194837381442389 0.044713859684099029 0.0093561771365680869 0.00038660466061413699
leaf_weight=231 258 97 145 139 493 215 145 25 68 117 134 33 125 320 185 403 78 150 264 153 98 26 122 129 108 454 30 123 105 254
leaf_count=231 258 97 145 139 493 215 145 25 68 117 134 33 125 320 185 403 78 150 264 153 98 26 122 129 108 454 30 123 105 254
internal_value=1.99058e-11 -0.0151685 0.0165839 -0.0080309 0.00953349 -0.0279754 0.0276456 -0.00332021 0.00514966 0.0161092 -0.0143897 0.0323751 0.035401 -0.0226152 -0.0344634 0.0077725 0.00559933 0.0258768 -0.0127645 -0.0145157 -0.0178223 -0.0384642 0.0207663 0.0240368 0.0137117 -0.00656833 -0.00834688 0.0394795 0.00194953 0.00301002
internal_weight=5227 2730 2497 1753 1525 977 972 1007 915 610 746 576 393 535 442 657 481 183 649 515 362 257 396 251 176 623 484 248 384 359
internal_count=5227 2730 2497 1753 1525 977 972 1007 915 610 746 576 393 535 442 657 481 183 649 515 362 257 396 251 176 623 484 248 384 359
is_linear=0
shrinkage=0.05


Tree=11
num_leaves=31
num_cat=0
split_feature=4 3 0 3 4 3 16 17 13 0 0 0 17 17 17 0 0 16 17 17 5 11 7 5 16 2 4 13 15 11
split_gain=476.181 104.775 57.7919 20.5323 16.2755 13.2036 8.74487 8.22475 7.34026 5.81714 5.55344 4.97356 4.01708 3.65399 3.54206 3.26925 2.8779 2.83819 2.83185 4.09084 2.66362 2.8169 2.52749 2.49638 2.34871 4.16406 2.22069 2.15857 2.11573 1.96731
threshold=-0.44719873564431772 -1.2008001035192513 0.18147066526088199 -0.77319715576518944 -1.3415137160148216 -0.29518528994400467 0.77931802856763677 7.5000000000000009 -0.96347510154596083 -0.42523290998535629 -0.91125559175382953 -0.29390403291080597 20.500000000000004 7.5000000000000009 10.500000000000002 -1.2342780642366946 -1.4764884133863074 0.67873644895829266 8.5000000000000018 17.500000000000004 0.16887327005240774 -1.0568202106162052 0.28714014951298034 -0.47186313677943031 0.11372406961023704 -0.1227145924205422 -1.0399151363503827 -1.0757240550416356 -2.2283699224892222 -1.3791482269710329
decision_type=2 2 2 2 2 2 2 2 2 2 2 2 2 2 2 2 2 2 2 2 2 2 2 2 2 2 2 2 2 2
left_child=1 4 5 10 8 24 -4 20 12 18 16 -7 14 17 -1 -6 -3 -13 27 23 -8 -22 -9 -20 -2 -26 -18 -5 -16 -15
right_child=2 3 6 9 15 11 7 22 -10 -11 -12 13 -14 29 28 -17 26 -19 19 -21 21 -23 -24 -25 25 -27 -28 -29 -30 -31
leaf_value=-0.015419095068831335 -0.0012097256172621477 -0.026610280418147642 0.018285094721870003 -0.0035502433895406855 -0.022180049922489734 0.0089628575949315375 0.029534580537233675 0.018902237385959277 -0.020657352557838998 0.0050426791861290267 -0.0071692818108956922 0.016441909901197135 -0.024246554571595469 0.0068955933263238805 -0.038593906853832724 -0.013185154229189561 -0.016713963047322439 0.026393652588735342 -0.015455960877524275 0.00016322312047931418 0.028643934151172758 0.040917847448665848 0.028968168605457652 -0.0056051892530079349 0.010875173329563339 0.0012715733895460385 -0.0094247160681722539 0.0065443494166580983 -0.030960359426307066 0.016105205817014159
leaf_weight=22 113 48 196 109 189 235 153 144 163 295 430 138 110 78 269 217 253 149 108 180 62 190 110 159 268 195 178 103 137 226
leaf_count=22 113 48 196 109 189 235 153 144 163 295 430 138 110 78 269 217 253 149 108 180 62 190 110 159 268 195 178 103 137 226
internal_value=3.18935e-11 -0.0131558 0.0173118 -0.00591665 -0.0253388 0.0110637 0.0275572 0.0303149 -0.0299527 -0.000792879 -0.0112941 0.0151157 -0.0327689 0.0175622 -0.0349592 -0.0173724 -0.0149969 0.0216085 -0.00340516 -0.00566239 0.0347385 0.0378981 0.0232615 -0.00958977 0.00525313 0.00683046 -0.0137036 0.00135421 -0.0360181 0.0137422
internal_weight=5227 2970 2257 1863 1107 1402 855 659 701 954 909 826 538 591 428 406 479 287 659 447 405 252 254 267 576 463 431 212 406 304
internal_count=5227 2970 2257 1863 1107 1402 855 659 701 954 909 826 538 591 428 406 479 287 659 447 405 252 254 267 576 463 431 212 406 304
is_linear=0
shrinkage=0.05


Tree=12
num_leaves=31
num_cat=0
split_feature=0 0 0 0 1 1 13 17 17 9 17 17 16 17 13 17 13 17 17 17 13 13 13 5 16 13 17 17 17 13
split_gain=423.375 83.9296 60.8302 13.3687 13.1531 12.7748 9.25156 8.12123 7.32431 10.5246 7.18492 5.34749 5.30966 4.64729 6.06478 5.01449 4.28753 4.26735 5.47954 4.00244 4.02228 3.9467 3.74439 3.68349 2.98783 2.96851 2.77778 2.77306 3.77474 2.72312
threshold=-0.5014917946318096 -1.2033276557399124 0.18147066526088199 -1.6201417510092615 -0.65952601359097784 -0.3413940051912297 -0.22795151431387553 9.5000000000000018 8.5000000000000018 -0.68815063861331172 7.5000000000000009 20.500000000000004 0.39877389204192737 9.5000000000000018 -0.77631599418522323 20.500000000000004 -1.1909780763215805 5.5000000000000009 17.500000000000004 4.5000000000000009 -0.10736514768225079 -0.60852497626871604 -0.3163638586005641 -0.94343055124683295 0.21112836541221455 -0.6753733623958903 7.5000000000000009 11.500000000000002 19.500000000000004 0.087878600121845327
decision_type=2 2 2 2 2 2 2 2 2 2 2 2 2 2 2 2 2 2 2 2 2 2 2 2 2 2 2 2 2 2
left_child=1 3 5 16 8 17 25 29 24 -10 12 22 -7 -5 15 -15 -1 23 -19 -6 -21 -12 -11 -2 -3 -4 -27 -23 -29 -8
right_child=2 4 6 13 19 10 7 -9 9 11 21 -13 -14 14 -16 -17 -18 18 -20 20 -22 27 -24 -25 -26 26 -28 28 -30 -31
leaf_value=-0.035511362982751551 -0.0021982214962398368 -0.0053733129151881144 -0.00063491958038260543 -0.0077829654247681098 0.0093139616979566534 0.009803773188652146 0.028543247524494827 0.018299321598845619 -0.018800147392700996 -0.014939789298918324 -0.00057991573786629104 0.0025728478064357425 0.022443870740471539 -0.027589197729497496 -0.013198666559868445 -0.015326975942749028 -0.02529577811699954 -0.0045110382190712353 0.0072713430550710376 -0.0044425325258325883 0.0062621947881862155 0.015844630096597891 -0.0038420223548578528 0.012393171548242926 0.0079015377470675642 0.022087310682261541 0.0084486990958491034 0.0048345471663774802 0.018758930974004287 0.035996895875247202
leaf_weight=241 56 251 21 72 88 123 272 141 345 183 84 108 256 318 169 113 179 223 177 419 111 190 130 190 51 168 48 214 63 223
leaf_count=241 56 251 21 72 88 123 272 141 345 183 84 108 256 318 169 113 179 223 177 419 111 190 130 190 51 168 48 214 63 223
internal_value=2.37122e-11 -0.0133609 0.0151558 -0.0241597 -0.00636657 0.00929082 0.0257436 0.0288857 -0.00972598 -0.0123259 0.0130427 -0.00702037 0.0183417 -0.0197861 -0.0212265 -0.0243743 -0.0311576 0.00388958 0.000702665 -0.000560985 -0.0022006 0.00939777 -0.0103305 0.00907155 -0.00313153 0.0173117 0.0190565 0.0111925 0.00800146 0.0319012
internal_weight=5227 2778 2449 1092 1686 1576 873 636 1068 766 930 421 379 672 600 431 420 646 400 618 530 551 313 246 302 237 216 467 277 495
internal_count=5227 2778 2449 1092 1686 1576 873 636 1068 766 930 421 379 672 600 431 420 646 400 618 530 551 313 246 302 237 216 467 277 495
is_linear=0
shrinkage=0.05


Tree=13
num_leaves=31
num_cat=0
split_feature=4 4 0 0 4 13 17 17 16 17 0 15 4 17 13 13 13 15 17 17 17 1 16 2 15 17 17 2 12 0
split_gain=390.518 84.77 46.7349 19.0946 12.6121 12.4407 7.19771 6.43453 5.58913 7.83887 5.53237 4.99166 4.7228 4.20874 3.92004 3.8716 3.36832 3.32409 3.51077 4.64086 3.07272 3.0292 2.62832 2.33955 3.06176 2.28378 2.20191 3.24816 1.9908 1.8568
threshold=-0.44719873564431772 -1.261045308065476 -0.048070061218652933 -0.91125559175382953 0.36453702731264587 -0.77631599418522323 11.500000000000002 20.500000000000004 0.18441771849365093 8.5000000000000018 -0.42523290998535629 -2.2283699224892222 -0.82657259139844019 7.5000000000000009 -0.32284152696408674 -0.073831712508275069 -0.45665491646955358 -1.0395807550159264 7.5000000000000009 20.500000000000004 8.5000000000000018 0.36595553234386324 0.78787122942754151 -1.0827997748636142 -1.639552064167076 19.500000000000004 11.500000000000002 -0.13711119494311577 1.0540312707927797 -1.4667776561627621
decision_type=2 2 2 2 2 2 2 2 2 2 2 2 2 2 2 2 2 2 2 2 2 2 2 2 2 2 2 2 2 2
left_child=1 5 8 12 13 6 -1 11 -2 22 17 -8 23 14 -4 -6 -11 18 -5 -20 -17 25 -10 29 -25 -15 -18 -28 -29 -3
right_child=2 3 4 10 15 -7 7 -9 9 16 -12 -13 -14 21 -16 20 26 -19 19 -21 -22 -23 -24 24 -26 -27 27 28 -30 -31
leaf_value=-0.011479154011038573 0.00021468312034088815 -0.020394216115366567 0.016099230280647484 -3.3005136172097097e-05 0.022322216300879806 -0.011143378732217983 -0.034859855263493958 -0.019060917760515095 0.013412862712339985 -0.0021870632818674 0.0030647592457895101 -0.025698090913684635 -0.0059558879437742671 0.0083248555294282624 0.026113852806459954 0.034082584948737352 0.016136842232149586 0.0083956836470953974 -0.0094340786546106559 0.0021950592179255527 0.022633420175407083 0.021420613018625606 0.024353891700836055 -0.020652170020553404 -0.01069263173780262 0.020864644694892277 0.012784684082079265 -0.0012191188798610572 0.00813365635619266 -0.0077328722539351559
leaf_weight=76 196 36 182 245 178 165 284 171 231 103 372 312 215 188 211 256 68 49 450 106 76 93 72 223 118 45 126 132 100 148
leaf_count=76 196 36 182 245 178 165 284 171 231 103 372 312 215 188 211 256 68 49 450 106 76 93 72 223 118 45 126 132 100 148
internal_value=1.85803e-11 -0.0119138 0.0156775 -0.00585913 0.0222578 -0.0236989 -0.0261564 -0.0276107 0.00781058 0.0096 -0.00202068 -0.0300638 -0.0121978 0.0179919 0.021476 0.0282718 0.00592694 -0.0042463 -0.00501966 -0.00721701 0.0314617 0.0137917 0.0160127 -0.0147539 -0.0172058 0.0107467 0.00788877 0.0063221 0.00281225 -0.0102101
internal_weight=5227 2970 2257 1962 1229 1008 843 767 1028 832 1222 596 740 719 393 510 529 850 801 556 332 326 303 525 341 233 426 358 232 184
internal_count=5227 2970 2257 1962 1229 1008 843 767 1028 832 1222 596 740 719 393 510 529 850 801 556 332 326 303 525 341 233 426 358 232 184
is_linear=0
shrinkage=0.05


Tree=14
num_leaves=31
num_cat=0
split_feature=3 4 3 3 4 0 0 0 4 17 0 19 5 4 16 17 15 17 9 17 15 17 17 5 17 11 17 11 17 17
split_gain=355.091 66.7352 52.976 13.7788 12.0618 11.4859 9.92494 4.9512 4.66769 3.59413 3.34468 3.3063 3.26159 3.15082 3.04167 2.95424 3.93197 3.21675 2.4055 2.24723 2.22094 2.30775 3.48791 2.20998 2.0541 2.87035 1.99112 1.81848 1.80903 1.75857
threshold=-0.53197153633455529 -1.17343639771658 0.11393600237564709 -1.5620274780237784 -0.28969661726347679 -0.91125559175382953 0.36595553234386324 -1.3389083521939027 -0.44719873564431772 6.5000000000000009 -0.1064150953576754 1.5000000000000002 -0.48056248358928372 -0.64391721295850146 1.0686194161847451 9.5000000000000018 -1.4721859813363809 21.500000000000004 -0.55782593930620428 7.5000000000000009 -1.0395807550159264 8.5000000000000018 18.500000000000004 -0.66182995973520986 9.5000000000000018 -1.6373627219207834 11.500000000000002 -1.9481954567321056 21.500000000000004 19.500000000000004
decision_type=2 2 2 2 2 2 2 2 2 2 2 2 2 2 2 2 2 2 2 2 2 2 2 2 2 2 2 2 2 2
left_child=1 3 4 11 13 15 9 -5 20 12 27 -1 -4 28 -8 -3 17 -17 -11 -12 21 -7 23 -23 -9 -26 -20 -6 -2 -13
right_child=2 5 6 7 10 8 14 24 -10 18 19 29 -14 -15 -16 16 -18 -19 26 -21 -22 22 -24 -25 25 -27 -28 -29 -30 -31
leaf_value=-0.031929303338961379 -0.0022272523883461524 -0.0045591124695978742 0.005758979018511517 -0.021812093439453371 -0.0028475831563193957 -0.0011468361102988677 0.024096342366036843 -0.005083080101019097 0.0033523658847060198 0.00084625579078089104 0.019094371808891369 -0.026193572768869883 0.023837152213291836 0.0057852731518750868 0.032062463424765743 -0.018397721866309672 -0.0056687824853230272 -0.0052172791678458457 0.018760535020617322 0.011551681700200218 0.0069899913854897027 -0.019191688025395188 -0.00061764733587140158 -0.0082106035339483442 -0.018579911875925073 -0.009045971556861333 0.0084568186746244983 0.009781506071836487 0.011148653914486724 -0.015795618429441344
leaf_weight=257 260 127 28 308 31 237 259 63 260 33 197 156 229 445 223 267 125 56 142 198 40 56 137 252 206 128 70 354 28 55
leaf_count=257 260 127 28 308 31 237 259 63 260 33 197 156 229 445 223 267 125 56 142 198 40 56 137 252 206 128 70 354 28 55
internal_value=8.44134e-12 -0.0124635 0.0136265 -0.0214702 0.00775329 -0.00567821 0.0226573 -0.0170549 -0.00239207 0.0177368 0.012081 -0.0281213 0.0218675 0.00314805 0.0277819 -0.0112904 -0.0131986 -0.0161126 0.0134037 0.0153135 -0.0044607 -0.00513229 -0.00725489 -0.0102072 -0.0133642 -0.0149262 0.0153584 0.00876462 -0.000926817 -0.0234832
internal_weight=5227 2730 2497 1173 1513 1557 984 705 982 502 780 468 257 733 482 575 448 323 245 395 722 682 445 308 397 334 212 385 288 211
internal_count=5227 2730 2497 1173 1513 1557 984 705 982 502 780 468 257 733 482 575 448 323 245 395 722 682 445 308 397 334 212 385 288 211
is_linear=0
shrinkage=0.05


Tree=15
num_leaves=31
num_cat=0
split_feature=3 4 4 0 3 13 0 4 17 17 17 15 3 17 17 16 17 2 4 7 13 17 17 13 17 17 0 13 2 13
split_gain=320.469 60.2646 47.9617 15.8811 10.7853 8.48032 7.75736 4.85263 3.92562 4.2039 3.92487 5.20603 3.77019 3.71906 3.68427 3.14261 2.88018 2.71764 2.69874 2.62792 2.05092 3.0465 3.54544 1.96476 1.95126 2.03333 1.90812 1.7294 1.69337 1.6073
threshold=-0.53197153633455529 -1.3415137160148216 1.0000000180025095e-35 -0.91125559175382953 0.2511734254176326 -0.94699494468231171 -0.29390403291080597 -0.44719873564431772 10.500000000000002 20.500000000000004 9.5000000000000018 -1.4721859813363809 -0.057155655051496751 7.5000000000000009 20.500000000000004 0.6957969988512599 7.5000000000000009 -0.036397625037463743 -0.70075444577645685 0.043282592051374483 -0.10736514768225079 8.5000000000000018 20.500000000000004 -1.1648478707265326 4.5000000000000009 20.500000000000004 0.3779620502779974 -0.49855179192305138 -0.14553376413041752 -1.3056173533778128
decision_type=2 2 2 2 2 2 2 2 2 2 2 2 2 2 2 2 2 2 2 2 2 2 2 2 2 2 2 2 2 2
left_child=1 5 6 10 15 8 18 20 -1 29 23 14 28 17 -12 -4 -17 -6 -2 -15 21 -5 -23 -3 -20 -26 -14 -7 -8 -10
right_child=2 3 4 7 13 27 12 -9 9 -11 11 -13 26 19 -16 16 -18 -19 24 -21 -22 22 -24 -25 25 -27 -28 -29 -30 -31
leaf_value=-0.010241963157455463 -0.002036907404145299 -0.0092463130479457211 0.010381699252169543 -0.0011972591958325949 0.024852287091716666 -0.016485018100255221 0.0097623799644668205 0.0031847475715375581 -0.033179693792522308 -0.019025945806633832 -0.018620481171773895 -0.0056525620197381589 0.012902772127159802 0.011203346038480472 -0.008978131638645236 0.023487185949684478 0.013881749876970481 0.033474984412130558 0.010231565673095775 0.023361805479296231 0.002454077722923307 -0.010363127433137158 0.00060709761592568287 0.0021772491155813141 0.0011396310349572187 0.011201053116562181 0.024097384691445366 -0.0030700099930443146 0.0029899318956794515 -0.026983850772323254
leaf_weight=37 204 101 207 251 292 218 235 260 169 127 380 155 247 67 134 145 169 133 124 132 89 354 93 60 284 61 45 27 152 275
leaf_count=37 204 101 207 251 292 218 235 260 169 127 380 155 247 67 134 145 169 133 124 132 89 354 93 60 284 61 45 27 152 275
internal_value=-1.94032e-11 -0.0118404 0.0129452 -0.00683239 0.0204752 -0.0228603 0.00656812 -0.00273749 -0.026025 -0.0270477 -0.0119979 -0.0136846 0.0103387 0.0249093 -0.0161067 0.0151644 0.0183174 0.0275507 0.0027639 0.0192683 -0.00469401 -0.00560544 -0.00808073 -0.00498908 0.0048521 0.00291861 0.014628 -0.0150066 0.0071024 -0.0293422
internal_weight=5227 2730 2497 1877 1145 853 1352 1047 608 571 830 669 679 624 514 521 314 425 673 199 787 698 447 161 469 345 292 245 387 444
internal_count=5227 2730 2497 1877 1145 853 1352 1047 608 571 830 669 679 624 514 521 314 425 673 199 787 698 447 161 469 345 292 245 387 444
is_linear=0
shrinkage=0.05


Tree=16
num_leaves=31
num_cat=0
split_feature=3 4 3 3 4 1 4 17 13 17 17 13 17 1 13 17 13 17 17 13 4 5 17 5 17 17 7 9 17 1
split_gain=289.224 54.7171 43.4035 11.3663 10.0461 8.30171 7.69861 4.49917 4.08033 4.70802 4.17173 3.40682 3.70433 3.25117 3.08535 3.03381 4.29807 3.44332 2.8766 3.32425 2.60235 2.56626 2.41922 3.32669 2.41236 3.23849 2.63656 1.97643 1.797 1.67577
threshold=-0.53197153633455529 -1.17343639771658 0.11393600237564709 -1.5620274780237784 -0.28969661726347679 0.20881274696707278 -0.82657259139844019 7.5000000000000009 -0.60595176735812784 10.500000000000002 20.500000000000004 -0.032182218406733708 8.5000000000000018 -0.46153036926733376 -1.0407029747051113 8.5000000000000018 -0.3163638586005641 21.500000000000004 8.5000000000000018 -0.71499236051770343 -0.77319715576518944 -0.48056248358928372 18.500000000000004 -0.091966160010008291 4.5000000000000009 17.500000000000004 -1.5483681841289965 -0.94874672791381298 19.500000000000004 -1.2294370689431628
decision_type=2 2 2 2 2 2 2 2 2 2 2 2 2 2 2 2 2 2 2 2 2 2 2 2 2 2 2 2 2 2
left_child=1 3 4 14 20 7 15 21 9 -5 27 -7 -13 24 -1 -3 17 -17 19 -6 -2 -4 23 -20 26 -26 -8 29 -16 -11
right_child=2 6 5 8 18 11 13 -9 -10 10 -12 12 -14 -15 28 16 -18 -19 22 -21 -22 -23 -24 -25 25 -27 -28 -29 -30 -31
leaf_value=-0.02776183686093836 -0.0023859444252931632 -0.0029975866998489887 0.0045077037732598598 -0.0066552219407090525 0.0068832578032743189 0.019831178007893607 -0.0058833637276568748 0.0069722095536278745 -0.006952536799710151 -0.02914006549620134 -0.011571672732722672 0.031017390957094118 0.019869319034147671 0.0027536884875781469 -0.022045075355426352 -0.014908469629040216 -0.00049977814352775856 -0.0026537918781875361 -0.0077368077792925767 0.016808880326066752 0.0044973796187603677 0.020303029006260905 0.015378080337399208 0.0077764571195777224 -0.0091016678388272845 -0.00069351467543238342 0.0070867494515174725 -0.018154948829000608 -0.0078112188276524344 -0.019010176780515364
leaf_weight=353 183 154 29 91 120 261 70 126 119 116 136 231 110 252 85 365 82 68 40 284 550 227 82 254 286 191 89 180 30 63
leaf_count=353 183 154 29 91 120 261 70 126 119 116 136 231 110 252 85 365 82 68 40 284 550 227 82 254 286 191 89 180 30 63
internal_value=1.83434e-11 -0.0112483 0.012298 -0.0194038 0.00698175 0.0204721 -0.00510429 0.0147068 -0.0153936 -0.0171078 -0.0190293 0.0241305 0.0274212 -0.00205262 -0.0254447 -0.00915495 -0.0109962 -0.0129839 0.0109314 0.0138607 0.0027789 0.0185137 0.00778391 0.00566581 -0.003957 -0.00573488 0.00137664 -0.0218545 -0.0183319 -0.0255748
internal_weight=5227 2730 2497 1173 1513 984 1557 382 705 586 495 602 341 888 468 669 515 433 780 404 733 256 376 294 636 477 159 359 115 179
internal_count=5227 2730 2497 1173 1513 984 1557 382 705 586 495 602 341 888 468 669 515 433 780 404 733 256 376 294 636 477 159 359 115 179
is_linear=0
shrinkage=0.05


Tree=17
num_leaves=31
num_cat=0
split_feature=3 4 4 0 3 0 13 3 17 17 13 17 17 3 17 16 5 5 17 1 13 17 1 17 12 17 5 4 16 13
split_gain=261.468 54.1352 37.0788 11.1904 9.1399 8.20501 6.84754 4.1345 3.54567 3.52737 3.28978 3.16904 3.52633 3.0086 2.85777 2.6649 2.60652 2.47156 2.46938 2.4331 2.3478 3.98827 2.27695 2.21594 2.08643 2.27804 2.03671 1.91882 1.72959 1.52312
threshold=-0.68148497563143584 -0.0081363399757802494 -1.3415137160148216 -0.45353267292892702 0.2511734254176326 -0.91125559175382953 -0.94699494468231171 -0.13030337258580141 4.5000000000000009 7.5000000000000009 -0.025216422346915079 10.500000000000002 20.500000000000004 -1.4330751621632207 21.500000000000004 0.6957969988512599 0.1891987303375012 -0.83257278447713934 7.5000000000000009 0.28312572783836792 -0.33301445177673644 8.5000000000000018 -0.44330818696719426 20.500000000000004 0.42642941475186524 9.5000000000000018 -0.66182995973520986 -0.82657259139844019 0.89924760468984155 -0.41932090947405665
decision_type=2 2 2 2 2 2 2 2 2 2 2 2 2 2 2 2 2 2 2 2 2 2 2 2 2 2 2 2 2 2
left_child=2 3 6 8 15 13 11 -5 17 16 14 -1 -13 -4 22 -3 -6 -2 -17 -11 21 -7 -10 26 -9 -26 -23 29 -18 -15
right_child=1 4 5 7 9 20 -8 24 10 19 -12 12 -14 27 -16 18 28 -19 -20 -21 -22 23 -24 -25 25 -27 -28 -29 -30 -31
leaf_value=-0.009368581292722878 0.0020136605777620973 0.0094497425641036706 -0.017942068719794212 0.0050904918555069074 0.020469348531123768 -0.00073172130895208978 -0.01361627818934175 0.0060876671976196426 -0.0082818583859172908 0.0063008059980087898 0.0064713118413647457 -0.026574708520104736 -0.017123983423482245 -0.012321782088486791 0.0067879824701230973 0.021381321003789019 0.019848448043921964 0.015794240133982385 0.012591676932257299 0.019822797636879844 0.00090984322072780411 -0.017762366277221813 -0.00065218140484630453 -0.0006586307294977208 0.01837284602112426 0.0095695156817349469 -0.0081887166735777148 -0.0050465321674120697 0.03042255052079882 -0.00222740192307023
leaf_weight=37 101 225 139 575 181 242 243 120 254 42 91 443 127 422 55 145 48 48 178 160 189 83 159 60 145 149 168 158 199 41
leaf_count=37 101 225 139 575 181 242 243 120 254 42 91 443 127 422 55 145 48 48 178 160 189 83 159 60 145 149 168 158 199 41
internal_value=8.32002e-12 0.0101147 -0.0123638 0.0043983 0.0183496 -0.00764117 -0.0207091 0.00783364 -0.000400505 0.0224572 -0.0022273 -0.0235486 -0.024469 -0.0112927 -0.0039187 0.0136274 0.0250275 0.00645304 0.0165375 0.0170113 -0.0039011 -0.00554534 -0.00534453 -0.00929099 0.0116436 0.0139113 -0.0113545 -0.0098043 0.0283677 -0.0114279
internal_weight=5227 2875 2352 1697 1178 1502 850 989 708 630 559 607 570 760 468 548 428 149 323 202 742 553 413 311 414 294 251 621 247 463
internal_count=5227 2875 2352 1697 1178 1502 850 989 708 630 559 607 570 760 468 548 428 149 323 202 742 553 413 311 414 294 251 621 247 463
is_linear=0
shrinkage=0.05


Tree=18
num_leaves=31
num_cat=0
split_feature=4 3 0 3 13 0 16 17 17 17 17 17 13 17 3 13 17 16 2 1 15 16 15 7 16 1 1 1 13 7
split_gain=236.45 53.0157 28.9299 12.3817 7.93249 7.13096 5.1162 4.55509 4.16497 4.65315 3.94786 3.84177 3.65114 3.64925 3.60829 3.23063 3.03809 2.75198 3.28545 2.65805 2.61514 2.57158 2.20935 2.20048 2.15174 1.9822 1.72 1.61803 2.40822 1.57737
threshold=-0.44719873564431772 -1.2517921222031985 0.18876691106292601 -0.8078339999687334 -0.81376918430123502 -0.27950905185426145 0.77931802856763677 7.5000000000000009 10.500000000000002 21.500000000000004 8.5000000000000018 20.500000000000004 -0.3274992250538325 5.5000000000000009 -0.057155655051496751 -1.3448843299974467 20.500000000000004 0.18441771849365093 -0.19532208355275241 -1.0993401636758857 -1.0997864245936118 0.1050113920682698 -2.0206092072025315 -1.6965367688968918 0.51759671671177065 0.46103322388997736 -0.43734848816637906 -0.42523290998535629 0.023171657875883871 -1.6486109569792891
decision_type=2 2 2 2 2 2 2 2 2 2 2 2 2 2 2 2 2 2 2 2 2 2 2 2 2 2 2 2 2 2
left_child=1 4 5 12 8 17 -4 25 -1 15 21 20 13 29 -7 -10 19 -2 -19 22 26 -5 -15 -18 -13 -8 -12 28 -20 -3
right_child=2 3 6 10 -6 14 7 -9 9 -11 11 24 -14 16 -16 -17 23 18 27 -21 -22 -23 -24 -25 -26 -27 -28 -29 -30 -31
leaf_value=-0.0085246509392163713 -0.0022152395179010419 -0.0071601682248976575 0.012250114529947374 -0.00031379410736064175 -0.0093975460847898849 0.0075906122501898255 0.021407572738841127 0.016397019511188334 -0.030661634131660304 -0.011829577100527761 -0.008971496201077336 -0.0065629539691144604 -0.00073654168274163477 -0.027482806132840262 0.014252634487585084 -0.021660639801834615 -0.011553911980175014 0.0098063327526897223 -0.012802621510970155 -0.010818222548847123 0.0020755004836790366 0.0080330481808121527 -0.014942265876403149 0.00085363797843456273 0.0083890325071460572 0.028456996109455897 -0.0023690671397305681 0.0043894205560513757 0.0049196756263780927 0.0030505031749095408
leaf_weight=64 146 97 185 211 189 406 196 251 123 101 281 32 124 49 407 526 70 235 41 324 107 164 124 73 97 203 152 151 36 62
leaf_count=64 146 97 185 211 189 406 196 251 123 101 281 32 124 49 407 526 70 235 41 324 107 164 124 73 97 203 152 151 36 62
internal_value=-5.05781e-13 -0.00927046 0.012199 -0.00450019 -0.0186255 0.00786124 0.0195863 0.0216743 -0.0207681 -0.0218129 -0.000770191 -0.00307218 -0.00871917 -0.00995803 0.0109257 -0.0233665 -0.0116423 0.00377022 0.00565765 -0.0134901 -0.00492409 0.00333656 -0.0184942 -0.00521999 0.00468001 0.0249941 -0.00665378 0.00138159 -0.00451687 -0.00317865
internal_weight=5227 2970 2257 1967 1003 1422 835 650 814 750 1044 669 923 799 813 649 640 609 463 497 540 375 173 143 129 399 433 228 77 159
internal_count=5227 2970 2257 1967 1003 1422 835 650 814 750 1044 669 923 799 813 649 640 609 463 497 540 375 173 143 129 399 433 228 77 159
is_linear=0
shrinkage=0.05


Tree=19
num_leaves=31
num_cat=0
split_feature=4 0 0 15 0 0 17 13 17 17 17 1 15 13 17 17 7 17 17 13 13 2 17 17 15 13 5 17 8 17
split_gain=213.396 46.5598 26.1221 8.44364 7.63988 6.24102 5.15822 4.71578 3.97506 3.67692 3.36555 3.10246 2.5979 2.57922 2.4941 3.13294 2.41856 2.31204 2.79322 2.16787 2.13015 2.61527 1.97092 2.14101 2.42856 1.9284 1.90109 1.87136 1.65732 1.63814
threshold=-0.44719873564431772 -1.1778483750547897 0.18147066526088199 -2.0206092072025315 -0.67408531060541621 -0.27950905185426145 11.500000000000002 -0.11450775818975688 9.5000000000000018 21.500000000000004 7.5000000000000009 -1.0305745529922035 -1.6500911835433769 -0.27027947123052021 6.5000000000000009 18.500000000000004 -0.3792396088097239 20.500000000000004 13.500000000000002 -0.71499236051770343 -1.0033505356530865 -0.38042609392700982 21.500000000000004 8.5000000000000018 -1.2129969779490823 -1.3723888411338965 -0.99907105874072022 7.5000000000000009 -0.66249755130207999 11.500000000000002
decision_type=2 2 2 2 2 2 2 2 2 2 2 2 2 2 2 2 2 2 2 2 2 2 2 2 2 2 2 2 2 2
left_child=1 3 5 6 11 20 -1 27 -9 25 12 28 -7 -12 26 16 -16 18 -5 -20 -2 -22 23 -13 -25 -8 -6 -4 -3 -15
right_child=2 4 7 17 14 10 9 8 -10 -11 13 22 -14 29 15 -17 -18 -19 19 -21 21 -23 -24 24 -26 -27 -28 -29 -30 -31
leaf_value=-0.0094069928293847443 -0.0035194330026085182 -0.0076496270148549237 0.01573978474427638 0.0019220951961220374 -0.0035236425305667676 0.0085784969129260764 -0.030508163233753296 0.023631455811435741 0.013591021683081524 -0.012755744267003925 0.0022262713643458657 -0.00034384136634776598 0.017135513812896953 0.016660297274819182 -0.0056629242069277394 0.0042972687804124525 0.0061996586402231942 -0.0043615128965315856 -0.017453426174770238 -0.0094521094151531117 0.0085090792880030755 0.0014046350830338068 0.0058405098253536195 -0.0086657501491163927 0.0011925251167267561 -0.022329105547922969 0.0070438062555348603 0.0066591725976516804 -0.014368836626988547 0.0078416156835681827
leaf_weight=93 90 250 233 28 57 146 88 418 129 89 159 164 226 73 349 149 49 89 227 135 249 270 43 374 75 398 168 75 145 189
leaf_count=93 90 250 233 28 57 146 88 418 129 89 159 164 226 73 349 149 49 89 227 135 249 270 43 374 75 398 168 75 145 189
internal_value=2.02708e-11 -0.00880693 0.0115891 -0.0166993 -0.00384117 0.00738844 -0.0203321 0.0184772 0.0212636 -0.0220991 0.0103119 -0.00661531 0.0137771 0.00724999 -6.4472e-05 -0.00188717 -0.00420246 -0.0116332 -0.0132927 -0.0144695 0.00358171 0.00481313 -0.00450732 -0.00523318 -0.00701904 -0.0238101 0.00436672 0.0135286 -0.0101162 0.0102987
internal_weight=5227 2970 2257 1147 1823 1402 668 855 547 575 793 1051 372 421 772 547 398 479 390 362 609 519 656 613 449 486 225 308 395 262
internal_count=5227 2970 2257 1147 1823 1402 668 855 547 575 793 1051 372 421 772 547 398 479 390 362 609 519 656 613 449 486 225 308 395 262
is_linear=0
shrinkage=0.05


Tree=20
num_leaves=31
num_cat=0
split_feature=3 4 4 0 16 17 0 13 1 17 11 2 13 17 17 3 5 17 13 13 17 1 17 5 17 17 15 13 17 17
split_gain=193.812 40.4856 27.4115 8.14788 6.93209 6.15013 5.98755 5.31183 3.20606 2.79558 2.90853 2.71255 3.08857 2.43024 2.58534 2.31401 2.07761 2.04222 1.93969 1.84349 3.07157 1.76932 1.73795 1.69625 1.62681 2.72909 2.052 1.62597 1.53071 1.49678
threshold=-0.68148497563143584 -0.0081363399757802494 -1.3415137160148216 -0.45353267292892702 0.6957969988512599 9.5000000000000018 -0.91125559175382953 -0.97984506421824868 0.26862948648334517 4.5000000000000009 -0.9242307046628494 -0.13711119494311577 -0.7362417748365192 9.5000000000000018 20.500000000000004 -1.4330751621632207 -0.89380673729039539 21.500000000000004 0.11617091524409966 -0.33301445177673644 8.5000000000000018 -0.44330818696719426 20.500000000000004 -0.66182995973520986 11.500000000000002 18.500000000000004 -1.639552064167076 -1.1363083555870299 8.5000000000000018 2.5000000000000004
decision_type=2 2 2 2 2 2 2 2 2 2 2 2 2 2 2 2 2 2 2 2 2 2 2 2 2 2 2 2 2 2
left_child=2 3 7 9 28 18 15 13 11 16 17 12 -5 -1 -15 -4 -2 21 29 20 -8 -11 23 -22 27 26 -26 -17 -3 -6
right_child=1 4 6 8 5 -7 19 -9 -10 10 -12 -13 -14 14 -16 24 -18 -19 -20 -21 22 -23 -24 -25 25 -27 -28 -29 -30 -31
leaf_value=-0.007268152282234621 0.00077142791083917534 0.010684322221398665 -0.015534945970347568 0.0028185981821426303 0.013070178444757658 0.010969292238803569 -0.000621798403069477 -0.011882360725863426 0.014912661547192708 -0.0072239449189987776 0.006448570884571507 0.001951510411972806 0.010488822189440923 -0.023069832209533347 -0.014902645473415034 -0.0078475504492505344 0.012749563097473113 0.0057469032015948001 0.024727734442098137 0.00087388652514188347 -0.015808535841888332 -0.00053633629249816295 -0.00048841821398430815 -0.0070716299388940184 -0.016988325932565111 -0.0053668209172595014 -0.0079741294891791086 0.0022821450896072584 0.00065458644698891373 0.020158281197950725
leaf_weight=33 87 246 139 204 93 229 242 261 106 259 87 311 368 431 125 113 62 53 191 189 83 160 60 168 154 186 107 61 45 374
leaf_count=33 87 246 139 204 93 229 242 261 106 259 87 311 368 431 125 113 62 53 191 189 83 160 60 168 154 186 107 61 45 374
internal_value=6.78611e-12 0.00870832 -0.0106447 0.00376484 0.0158298 0.0180267 -0.00658411 -0.0178201 0.0066962 -0.000329967 -0.00195206 0.00570985 0.00775329 -0.0204512 -0.0212337 -0.0097034 0.00575562 -0.00350049 0.0204829 -0.00338916 -0.00484615 -0.0046702 -0.00813327 -0.00996073 -0.00839811 -0.00999477 -0.0132929 -0.00429634 0.00913333 0.0187467
internal_weight=5227 2875 2352 1697 1178 887 1502 850 989 708 559 883 572 589 556 760 149 472 658 742 553 419 311 251 621 447 261 174 291 467
internal_count=5227 2875 2352 1697 1178 887 1502 850 989 708 559 883 572 589 556 760 149 472 658 742 553 419 311 251 621 447 261 174 291 467
is_linear=0
shrinkage=0.05


Tree=21
num_leaves=31
num_cat=0
split_feature=3 4 3 4 0 3 13 0 3 1 16 2 1 2 13 1 12 8 13 1 0 6 2 13 2 1 16 1 2 5
split_gain=174.916 36.5382 24.8115 8.00295 7.35346 6.31736 3.60283 3.13965 3.03381 2.3814 2.27642 2.52859 2.12255 1.83124 1.75311 1.68223 1.64551 1.43729 1.41567 1.37608 1.24593 1.7073 1.24414 1.22345 1.19726 1.26487 1.18969 1.15526 1.22804 1.17714
threshold=-0.68148497563143584 -0.0081363399757802494 -1.4467979861072264 -0.96076577523715068 -0.45353267292892702 0.35036583734590315 -0.9187085764886348 -1.2716703767586368 -0.13030337258580141 0.18147066526088199 0.6957969988512599 0.0214477671778768 -0.45353267292892702 -1.2360230250390498 -0.46988045439187953 -0.65023095410797604 0.42642941475186524 -0.15128876047175369 -1.3661078239561146 -1.1217066118358003 -0.65003672378432797 0.31934158351699243 -0.55692818319966142 -1.0280714720800936 -0.47455728910560141 0.36595553234386324 1.0686194161847451 0.30145832326262317 0.0214477671778768 -0.94716735019536447
decision_type=2 2 2 2 2 2 2 2 2 2 2 2 2 2 2 2 2 2 2 2 2 2 2 2 2 2 2 2 2 2
left_child=2 4 6 7 12 10 18 -4 27 -7 -3 -12 13 -2 -15 20 -10 23 -1 -9 21 -5 -21 -14 -18 -26 -11 28 29 -6
right_child=1 5 3 15 8 9 -8 19 16 26 11 -13 17 14 -16 -17 24 -19 -20 22 -22 -23 -24 -25 25 -27 -28 -29 -30 -31
leaf_value=-0.024864971463983299 0.0029148925606117199 0.0078892448754864283 -0.013939518603936968 -0.0031047784399519537 -0.0051684574367335213 0.012154220842576523 -0.010862204234187555 -0.010626543849869727 0.0046909630376224722 0.018118384260867568 0.017644161963622729 0.0096812012539209576 -0.00014637584311210297 -0.0085636880936209286 -0.001123981058172226 -0.00020968658038464282 0.016221247650537406 0.0010762067575021373 -0.01868698159783283 -0.0023688104501113569 -0.001183017936692456 -0.010089165572902528 -0.0087249802915045083 0.014241041483150588 0.0074379511554333762 0.017486304793363581 0.023367569364730924 0.013400061945280723 -1.71107845110169e-05 0.0058629504799251678
leaf_weight=119 116 243 336 174 26 101 133 242 120 221 219 183 22 142 179 293 96 204 420 152 151 176 156 45 159 39 211 31 172 346
leaf_count=119 116 243 336 174 26 101 133 242 120 221 219 183 22 142 179 293 96 204 420 152 151 176 156 45 159 39 211 31 172 346
internal_value=-4.0404e-12 0.0082729 -0.0101125 -0.00686456 0.00357659 0.0150383 -0.0182323 -0.0101314 0.00636139 0.0190662 0.0117098 0.0140192 -0.000313469 -0.00246936 -0.00441507 -0.00321914 0.00962501 0.003163 -0.020051 -0.00780505 -0.00497916 -0.00661693 -0.00558817 0.00951681 0.0116389 0.00941717 0.0206822 0.00401158 0.00347658 0.00509194
internal_weight=5227 2875 2352 1680 1697 1178 672 886 989 533 645 402 708 437 321 794 414 271 539 550 501 350 308 67 294 198 432 575 544 372
internal_count=5227 2875 2352 1680 1697 1178 672 886 989 533 645 402 708 437 321 794 414 271 539 550 501 350 308 67 294 198 432 575 544 372
is_linear=0
shrinkage=0.05


Tree=22
num_leaves=31
num_cat=0
split_feature=4 3 3 3 13 0 17 17 0 13 17 13 17 17 9 17 9 15 15 17 17 17 17 17 5 17 9 13 13 13
split_gain=158.31 35.5759 19.5739 7.30233 6.85354 6.09802 4.25262 4.11417 3.08513 2.47951 3.29929 3.07167 2.45078 3.13082 2.1973 3.24556 2.03652 1.90433 1.84727 1.83491 1.74392 1.66446 1.85002 1.64225 1.59549 1.51405 1.51399 1.4798 1.46276 1.45786
threshold=-0.44719873564431772 -1.2008001035192513 0.2511734254176326 -0.77319715576518944 -0.81376918430123502 -0.048070061218652933 10.500000000000002 20.500000000000004 0.36595553234386324 -1.0033505356530865 8.5000000000000018 -0.45665491646955358 8.5000000000000018 20.500000000000004 -0.45953272389425298 8.5000000000000018 -1.0678824749981553 -1.0395807550159264 -2.3214507915561797 6.5000000000000009 19.500000000000004 21.500000000000004 11.500000000000002 7.5000000000000009 -0.63343433893454792 11.500000000000002 -1.1466156081761645 0.14695255070587387 -0.073831712508275069 -0.12068977383068001
decision_type=2 2 2 2 2 2 2 2 2 2 2 2 2 2 2 2 2 2 2 2 2 2 2 2 2 2 2 2 2 2
left_child=1 4 5 14 6 9 -1 18 25 -2 -11 -12 16 17 15 -3 -5 -14 -8 -7 24 22 -13 27 -17 -4 -9 -10 -25 -15
right_child=2 3 8 12 -6 19 7 26 23 10 11 21 13 29 -16 20 -18 -19 -20 -21 -22 -23 -24 28 -26 -27 -28 -29 -30 -31
leaf_value=-0.0059674829864297318 -0.0027964143249112261 -0.0026212034991902593 0.014177064948367322 -0.0016737075253437019 -0.0071266055502916467 0.013835736148130343 -0.024032130725987134 -0.015468197431146486 0.018982564722420648 0.0091854450693445912 -0.0041899594073718195 0.011731274635954338 -0.0054455898851537045 0.0019742953867375197 -0.0020611775770353583 -0.014575797153691597 0.0061527657801545513 0.0027520556075953297 -0.018023626153850381 0.0081706457620688913 -0.0053726859415473881 0.011818575275025632 0.0016735210248597339 0.0026171292000938032 -0.007676902414855755 0.0033894747388675006 -0.0062691389252038966 0.026431884835474196 0.017072764176077077 0.015021014186952794
leaf_weight=83 109 205 269 138 236 269 183 97 200 323 122 55 402 91 208 221 209 86 425 305 140 71 271 21 135 37 83 100 105 28
leaf_count=83 109 205 269 138 236 269 183 97 200 323 122 55 402 91 208 221 209 86 425 305 140 71 271 21 135 37 83 100 105 28
internal_value=5.4782e-12 -0.00758552 0.00998183 -0.00336722 -0.0146846 0.00675583 -0.0167325 -0.0178663 0.0167027 0.00429945 0.00521804 0.00274892 -0.000311577 -0.00222768 -0.00657413 -0.0079132 0.00304022 -0.00400092 -0.0198321 0.0108255 -0.0101004 0.00488127 0.00337038 0.0194538 -0.0119596 0.0128727 -0.0112264 0.0214657 0.0146635 0.00504411
internal_weight=5227 2970 2257 1863 1107 1525 871 788 732 951 842 519 954 607 909 701 347 488 608 574 496 397 326 426 356 306 180 300 126 119
internal_count=5227 2970 2257 1863 1107 1525 871 788 732 951 842 519 954 607 909 701 347 488 608 574 496 397 326 426 356 306 180 300 126 119
is_linear=0
shrinkage=0.05


Tree=23
num_leaves=31
num_cat=0
split_feature=3 0 3 3 1 1 13 17 9 2 13 17 17 15 17 2 16 17 13 13 17 17 1 17 5 17 17 5 5 14
split_gain=142.841 27.3725 22.1303 6.97932 4.9127 4.64383 4.3441 3.03734 2.70744 2.68949 2.66087 3.1463 2.58649 2.56707 3.24758 2.46328 2.35136 2.30616 2.05015 1.9826 2.53019 1.97423 1.96295 1.86917 1.83856 1.83369 2.27271 1.72253 1.41876 1.37377
threshold=-0.53197153633455529 -1.2975136118312942 0.11393600237564709 -1.0083927254975749 -0.41147408340725916 0.23782528451600035 -1.1431539405048941 7.5000000000000009 -0.77123045232620646 -1.1553828294238127 -0.81800218799296276 8.5000000000000018 19.500000000000004 -1.0395807550159264 8.5000000000000018 -0.13711119494311577 0.081814836599391941 18.500000000000004 -1.2657375511917777 -0.22795151431387553 8.5000000000000018 19.500000000000004 -0.26988765370896489 13.500000000000002 -0.48056248358928372 12.500000000000002 21.500000000000004 0.19988421018718464 -0.94716735019536447 0.57531754056020423
decision_type=2 2 2 2 2 2 2 2 2 2 2 2 2 2 2 2 2 2 2 2 2 2 2 2 2 2 2 2 2 2
left_child=1 6 4 8 15 7 25 24 9 -3 -6 29 27 14 18 16 -2 22 -5 -7 -21 23 -16 -8 -4 -1 -27 -13 -20 -12
right_child=2 3 5 13 10 19 21 -9 -10 -11 11 12 -14 -15 17 -17 -18 -19 28 20 -22 -23 -24 -25 -26 26 -28 -29 -30 -31
leaf_value=-0.011173613074208624 -0.0037426905113865034 -0.0067619852097994537 0.0014063778493938776 -0.0046042335173755956 -5.6843085120580775e-05 0.010699072892856883 -0.00067340719513595112 0.0039976219980417229 -0.0047174617563666525 -0.01501569050464475 0.010009519288804667 0.0013024637225457396 0.013275377962435053 0.0066941032058237433 -0.0081170446636882609 -0.0049078522647443903 0.0051366503223998859 -7.8606313466060671e-05 -0.00041875184320875253 0.020984267701273322 0.013099227445039514 -0.0069559321044944224 0.00033098685255806361 -0.014874051971780065 0.01471448366469911 -0.021816432514538367 -0.010925165008296047 0.0079564125296000595 0.0069212967275081765 0.017910865460940197
leaf_weight=69 99 193 29 109 119 94 25 128 306 202 288 264 86 81 379 133 302 193 122 341 145 150 84 317 247 300 57 154 143 68
leaf_count=69 99 193 29 109 119 94 25 128 306 202 288 264 86 81 379 133 302 193 122 341 145 150 84 317 247 300 57 154 143 68
internal_value=1.6019e-11 -0.00790492 0.00864254 -0.00434133 0.00484649 0.0144794 -0.0149389 0.0103638 -0.0082479 -0.0109829 0.0069507 0.00792035 0.00537861 -0.00187643 -0.00255042 0.00098876 0.00294449 -0.00467032 0.0011679 0.0173461 0.0186317 -0.0117384 -0.00658436 -0.013836 0.0133162 -0.0186353 -0.0200775 0.00375392 0.0035421 0.0115188
internal_weight=5227 2730 2497 1812 1513 984 918 404 701 395 979 860 504 1111 1030 534 401 656 374 580 486 492 463 342 276 426 357 418 265 356
internal_count=5227 2730 2497 1812 1513 984 918 404 701 395 979 860 504 1111 1030 534 401 656 374 580 486 492 463 342 276 426 357 418 265 356
is_linear=0
shrinkage=0.05


Tree=24
num_leaves=31
num_cat=0
split_feature=4 3 0 1 13 1 17 17 17 17 17 3 17 16 15 13 17 9 17 16 13 1 17 2 13 15 2 13 1 17
split_gain=129.574 25.621 19.7484 6.33453 5.58083 4.70626 3.49863 3.70858 2.9079 2.88642 2.79526 2.73763 2.36008 2.51414 2.11148 2.07343 1.95171 1.93936 1.85666 1.68025 1.403 1.34404 1.6578 1.34617 1.7077 1.31302 1.31183 2.39721 1.28174 1.11122
threshold=-0.53258330054405867 -1.191305324760654 -0.1064150953576754 0.26862948648334517 -0.81376918430123502 -1.0993401636758857 10.500000000000002 21.500000000000004 5.5000000000000009 7.5000000000000009 20.500000000000004 -0.29518528994400467 7.5000000000000009 0.89924760468984155 -1.3144307115312024 -1.3056173533778128 21.500000000000004 -0.72907933380887047 12.500000000000002 -0.14128716614849149 -0.61643523268090172 -0.36480587243747337 19.500000000000004 -0.55025050715586665 0.023171657875883871 -1.7074514744055882 -1.0479993211936587 -0.53381262694203324 -0.4038646662642974 4.5000000000000009
decision_type=2 2 2 2 2 2 2 2 2 2 2 2 2 2 2 2 2 2 2 2 2 2 2 2 2 2 2 2 2 2
left_child=1 4 11 9 6 26 -1 15 19 17 14 21 13 -5 18 -8 -11 -4 25 -7 -12 23 -23 -2 -25 -10 -3 -28 -16 -13
right_child=2 5 3 12 -6 8 7 -9 10 16 20 29 -14 -15 28 -17 -18 -19 -20 -21 -22 22 -24 24 -26 -27 27 -29 -30 -31
leaf_value=-0.0054468246551030988 0.0018757401037584184 -0.005336846678797651 0.0026868392402560996 0.012413326551102038 -0.0065327737335126382 -0.0042069498227647276 -0.021865311397472401 -0.0079159149832337111 -0.0044677102347031638 0.0031709512713540902 -0.0070160234537906948 0.0099568853429788592 0.012418214972051582 0.021281275048182467 -0.0025164616135457023 -0.015802129864642519 0.014360897058244558 0.012901528077650895 -0.0087885048241814201 0.0051664369219603639 0.0061636763490692144 0.0028184760626211638 0.017248201428446918 -0.0074899346373621918 0.0036080851659644393 0.0045346561191684526 -0.015726724472573488 -0.0044535855291104771 0.0059072292709033448 0.0046918065142051235
leaf_weight=84 226 188 53 116 239 64 200 116 339 228 25 138 275 257 143 478 47 377 272 189 105 209 22 113 50 46 117 79 66 366
leaf_count=84 226 188 53 116 239 64 200 116 339 228 25 138 275 257 143 478 47 377 272 189 105 209 22 113 50 46 117 79 66 366
internal_value=1.10772e-11 -0.00747134 0.00829479 0.012364 -0.0133067 -0.00347985 -0.0151506 -0.0161772 -0.00199152 0.009084 -0.00320745 0.00339656 0.0159325 0.0185234 -0.00423373 -0.0175907 0.00508341 0.0116425 -0.00562623 0.0027953 0.00362912 0.00117174 0.00419274 -0.000622214 -0.00408563 -0.0033921 -0.0083208 -0.011183 0.000143651 0.00613344
internal_weight=5227 2750 2477 1353 1117 1633 878 794 1249 705 996 1124 648 373 866 678 275 430 657 253 130 620 231 389 163 385 384 196 209 504
internal_count=5227 2750 2477 1353 1117 1633 878 794 1249 705 996 1124 648 373 866 678 275 430 657 253 130 620 231 389 163 385 384 196 209 504
is_linear=0
shrinkage=0.05


Tree=25
num_leaves=31
num_cat=0
split_feature=4 3 1 3 17 13 13 17 17 16 5 17 13 13 17 17 17 17 13 17 11 5 1 15 16 2 17 5 13 13
split_gain=117.127 26.2056 14.9016 6.24409 5.52398 4.86406 4.31513 3.20044 2.74482 2.62879 2.57395 2.37476 2.47843 2.32689 2.23723 2.93566 2.17622 2.08351 1.91217 1.78154 1.76523 1.75962 1.61766 1.68318 1.53382 1.49667 1.42661 1.41748 1.21208 1.15871
threshold=-0.44719873564431772 -1.2517921222031985 0.26862948648334517 -0.8078339999687334 7.5000000000000009 -0.59335551347564508 -0.81376918430123502 19.500000000000004 7.5000000000000009 0.88998043139181526 -0.091966160010008291 8.5000000000000018 -0.29612998421504849 -0.3274992250538325 10.500000000000002 19.500000000000004 5.5000000000000009 20.500000000000004 -1.0556579172634668 21.500000000000004 -2.2283699224892222 -1.3670718983560408 -1.0993401636758857 -2.1344452895589079 -0.010041029772962163 -0.96730545163542481 2.5000000000000004 -1.5633826793392493 0.05446518587156763 0.18855672336669313
decision_type=2 2 2 2 2 2 2 2 2 2 2 2 2 2 2 2 2 2 2 2 2 2 2 2 2 2 2 2 2 2
left_child=1 6 4 13 5 20 14 10 9 -4 29 24 -13 16 -1 -16 27 22 -17 -14 -2 -19 23 -18 -5 -9 -7 -3 -10 -6
right_child=2 3 8 11 7 26 -8 25 28 -11 -12 12 19 -15 15 18 17 21 -20 -21 -22 -23 -24 -25 -26 -27 -28 -29 -30 -31
leaf_value=-0.0057088475754426332 -0.010197305628098549 -0.01311741644361367 0.011309155799321666 -0.0014563959280147832 -0.0046004288982961347 0.0096346102581402211 -0.0062957940565110506 -0.002801855009049177 0.0080669901105618665 0.020133087328549903 0.003505774253386917 -0.0051610515408039362 -0.00040029563384948023 0.0002056797752307067 -0.017606972980642541 -0.01406812015602724 -0.024880576348895657 -0.0094776511985635876 -0.0046495374739831197 0.011569419801900431 0.005125805040174433 0.0017143805307209678 -0.0079024407709014522 -0.011677392551306792 0.0051452902896910839 0.010364320643911695 0.015318017334136326 6.9849587011116529e-05 0.014192853192511349 0.0080457470286637561
leaf_weight=64 20 24 123 141 192 245 189 25 161 269 369 356 278 124 508 161 29 62 81 35 312 81 324 144 234 158 201 135 162 20
leaf_count=64 20 24 123 141 192 245 189 25 161 269 369 356 278 124 508 161 29 62 81 35 312 81 324 144 234 158 201 135 162 20
internal_value=1.69086e-11 -0.00652469 0.00858588 -0.00317089 0.00581938 0.00878497 -0.0131019 0.00279945 0.0145522 0.0173644 0.000983241 -0.00052207 -0.00230745 -0.00616696 -0.0146822 -0.0154479 -0.00715596 -0.0084566 -0.0109156 0.000938171 0.00420273 -0.00313811 -0.00998687 -0.0138906 0.00266306 0.00856566 0.012196 -0.00192068 0.0111394 -0.00340739
internal_weight=5227 2970 2257 1967 1542 778 1003 764 715 392 581 1044 669 923 814 750 799 640 242 313 332 143 497 173 375 183 446 159 323 212
internal_count=5227 2970 2257 1967 1542 778 1003 764 715 392 581 1044 669 923 814 750 799 640 242 313 332 143 497 173 375 183 446 159 323 212
is_linear=0
shrinkage=0.05


Tree=26
num_leaves=31
num_cat=0
split_feature=4 3 1 3 17 16 13 17 3 1 17 13 13 17 17 17 13 17 17 5 1 15 16 2 11 13 5 13 7 1
split_gain=105.707 23.6506 13.4487 5.63529 4.98539 4.44141 3.89441 2.8884 2.53413 2.327 2.14322 2.23679 2.10002 2.02928 2.51918 1.96404 1.95117 1.88037 1.60784 1.58806 1.45994 1.54316 1.39901 1.35074 1.29453 1.2842 1.27928 1.19159 1.16439 1.04297
threshold=-0.44719873564431772 -1.2517921222031985 0.26862948648334517 -0.8078339999687334 7.5000000000000009 0.29708412023433017 -0.81376918430123502 19.500000000000004 0.35036583734590315 -0.38024930435218302 8.5000000000000018 -0.29612998421504849 -0.3274992250538325 21.500000000000004 10.500000000000002 5.5000000000000009 -1.3448843299974467 20.500000000000004 21.500000000000004 -1.3670718983560408 -1.0993401636758857 -2.0206092072025315 0.1050113920682698 -0.96730545163542481 -2.2283699224892222 -0.080386064236847091 -1.5633826793392493 0.023171657875883871 -1.012169867397636 -0.39345635511970839
decision_type=2 2 2 2 2 2 2 2 2 2 2 2 2 2 2 2 2 2 2 2 2 2 2 2 2 2 2 2 2 2
left_child=1 6 4 12 5 24 13 9 -4 27 22 -12 15 14 -1 26 -16 20 29 -19 21 -17 -5 -9 -2 -10 -3 -6 -7 -13
right_child=2 3 8 10 7 28 -8 23 25 -11 11 18 -14 -15 16 17 -18 19 -20 -21 -22 -23 -24 -25 -26 -27 -28 -29 -30 -31
leaf_value=-0.0054234052888205049 -0.0096874404256232088 -0.012461545621044935 0.010231545063546184 -0.00016253229537163585 -0.0068984852634172925 0.0069244180595630714 -0.005981004363044151 -0.0026617622771300375 0.011612804542194707 0.0028595952280601575 -0.0049029989579425642 -0.0026045334272107091 0.00019539582558096417 -0.0073150148972555415 -0.021490354735756341 -0.020708270853727451 -0.01449523941446525 -0.0090037686793009702 0.010990948837799287 0.0016286615186901247 -0.0075073187181507461 -0.010227596008447901 0.0059939518823606402 0.0098461045658685964 0.0036336050351973674 0.017909321396367715 6.6357101658704107e-05 0.0029418464563648397 0.012144144553412799 0.0038365313255781077
leaf_weight=64 20 24 291 211 115 145 189 25 109 424 356 182 124 101 123 49 526 62 35 81 324 124 164 158 207 315 135 42 406 96
leaf_count=64 20 24 291 211 115 145 189 25 109 424 356 182 124 101 123 49 526 62 35 81 324 124 164 158 207 315 135 42 406 96
internal_value=4.22296e-12 -0.00619846 0.00815659 -0.00301235 0.00552841 0.00834572 -0.0124468 0.00265948 0.0138246 0.000934079 -0.000495966 -0.00219208 -0.00585861 -0.0139481 -0.0148877 -0.00679816 -0.015821 -0.00803377 0.000891262 -0.0029812 -0.00948752 -0.0131961 0.0025299 0.00813738 0.00245994 0.0162906 -0.00182465 -0.00426604 0.0107705 -0.000380281
internal_weight=5227 2970 2257 1967 1542 778 1003 764 715 581 1044 669 923 814 713 799 649 640 313 143 497 173 375 183 227 424 159 157 551 278
internal_count=5227 2970 2257 1967 1542 778 1003 764 715 581 1044 669 923 814 713 799 649 640 313 143 497 173 375 183 227 424 159 157 551 278
is_linear=0
shrinkage=0.05


Tree=27
num_leaves=31
num_cat=0
split_feature=1 0 4 4 15 16 17 17 17 17 17 1 1 17 17 9 5 2 16 13 13 17 17 15 17 17 13 16 15 5
split_gain=95.888 21.3962 12.303 4.78452 4.01285 3.68236 3.89054 3.16316 2.92975 2.70026 3.52792 2.2954 2.26352 2.23965 2.07238 1.9361 1.65439 1.54144 2.19449 1.70988 1.52957 1.4941 1.61648 1.36746 1.34694 1.17301 1.15047 1.14207 1.13602 1.13223
threshold=-0.43734848816637906 -1.2033276557399124 -0.036397625037463743 -0.53258330054405867 -2.0206092072025315 0.6957969988512599 11.500000000000002 5.5000000000000009 19.500000000000004 8.5000000000000018 17.500000000000004 -1.0993401636758857 0.30145832326262317 12.500000000000002 20.500000000000004 -0.68815063861331172 -0.25796425913938426 -0.13711119494311577 0.13164569409931906 0.033457123494560002 0.087878600121845327 20.500000000000004 13.500000000000002 -2.1105016739381344 21.500000000000004 9.5000000000000018 -0.59741815483269367 -0.11568488283098888 -1.3144307115312024 -1.0090109375314935
decision_type=2 2 2 2 2 2 2 2 2 2 2 2 2 2 2 2 2 2 2 2 2 2 2 2 2 2 2 2 2 2
left_child=1 4 7 9 13 -4 20 16 12 27 11 -11 23 -1 -15 -12 -2 18 -5 -19 -7 22 -6 -9 -17 -25 -24 -3 -27 -29
right_child=2 3 5 17 21 6 -8 8 -10 10 15 -13 -14 14 -16 24 -18 19 -20 -21 -22 -23 26 25 -26 28 -28 29 -30 -31
leaf_value=-0.007454665305537231 0.0068960170469595534 -0.0036428435142132928 0.0063117020635112021 -0.0034040758404825324 0.0046537952474318446 0.012485657550496399 0.0044805989695790539 -0.0076735611534582415 0.010500089533161373 -0.014916107745055075 -0.0080562282056754544 -0.0067629135537230559 0.0096427736622090015 -0.017088825680214845 -0.0099618635423265756 -0.0022806285750130344 0.01750480215044015 -0.0082758892434523328 0.0049909397228233704 0.0044531116361457221 0.01711670072412529 -0.001465369782156565 -0.011538909458994079 0.0046368530386861739 0.0051531341372425725 -0.002873259403330105 -0.0044352595847457236 -0.0015446386105158246 0.0021908333709081342 0.0058749203911922397
leaf_weight=109 223 183 283 105 20 494 120 49 98 109 112 415 73 408 136 246 44 74 301 41 279 77 260 163 81 220 73 115 223 93
leaf_count=109 223 183 283 105 20 494 120 49 98 109 112 415 73 408 136 246 44 74 301 41 279 77 260 163 81 220 73 115 223 93
internal_value=2.66616e-12 -0.00593122 0.00773228 -0.00269936 -0.0115266 0.0112818 0.0128568 0.00391326 0.00238399 -0.0042661 -0.00568888 -0.0084589 0.00129143 -0.0139963 -0.0153071 -0.00238252 0.00864428 0.00137237 0.00281982 -0.00373772 0.0141571 -0.00777593 -0.00915245 0.000360674 -0.000439238 0.00101031 -0.00998165 -0.000761908 -0.000324066 0.00177276
internal_weight=5227 2958 2269 1875 1083 1176 893 1093 826 1354 963 524 728 653 544 439 267 521 406 115 773 430 353 655 327 606 333 391 443 208
internal_count=5227 2958 2269 1875 1083 1176 893 1093 826 1354 963 524 728 653 544 439 267 521 406 115 773 430 353 655 327 606 333 391 443 208
is_linear=0
shrinkage=0.05


Tree=28
num_leaves=31
num_cat=0
split_feature=1 3 3 13 13 17 17 17 17 17 17 17 13 13 13 5 7 15 5 5 17 1 1 17 17 17 14 7 6 2
split_gain=86.539 19.6353 11.5466 4.75643 3.63107 3.65519 3.65473 3.59899 3.59405 5.55729 3.20685 2.87906 2.07779 2.07693 1.88742 1.85557 1.80813 1.80018 1.56422 1.43033 1.33357 1.2026 1.13973 1.10304 1.08072 1.07252 1.06955 0.958276 0.953894 0.924241
threshold=-0.43734848816637906 -1.0621935662734729 0.11393600237564709 -0.82290373378132176 -0.81800218799296276 10.500000000000002 18.500000000000004 11.500000000000002 8.5000000000000018 18.500000000000004 21.500000000000004 7.5000000000000009 -0.9187085764886348 -0.12068977383068001 -0.073831712508275069 -0.78016623304162958 0.078318847596441435 -2.3214507915561797 0.26953561502248041 -1.3853063632239446 21.500000000000004 0.4764808357526617 -1.0993401636758857 21.500000000000004 20.500000000000004 8.5000000000000018 0.61172080611364754 -1.1041314307068995 0.18339577756097822 -1.6607868314331831
decision_type=2 2 2 2 2 2 2 2 2 2 2 2 2 2 2 2 2 2 2 2 2 2 2 2 2 2 2 2 2 2
left_child=1 3 4 7 25 26 18 -1 12 15 17 14 29 19 -4 22 -13 -9 -7 -11 -15 -16 -10 -21 -5 -2 28 -14 -6 -3
right_child=2 8 11 24 5 6 -8 10 9 13 -12 16 27 20 21 -17 -18 -19 -20 23 -22 -23 -24 -25 -26 -27 -28 -29 -30 -31
leaf_value=-0.0051791397080695094 0.00093978205515581753 -0.005020349092998551 0.010890514037938594 -0.0065508785886271076 -0.00012876894183908448 -0.00089679632578488783 0.010326804381216907 -0.018563969645795011 -0.017497432118813907 -0.012230420030703369 -0.0060847479279271203 0.0043982266448438171 0.0029098096205196627 0.0032377707600532166 0.013151855568211315 -0.0053227188418399022 0.011732440743580812 -0.012924554908680962 0.0065967994131918622 -0.0037293494936078788 0.015245351003062341 0.019511488222820051 -0.0077993530773021518 0.0027773565714596772 0.00017626751497438228 -0.0063899519217108765 0.019606189332192853 0.010037122639166056 0.0086624327540814287 0.00058222686172040665
leaf_weight=170 168 103 306 309 33 349 124 198 56 28 134 177 149 91 142 465 160 496 87 125 31 156 66 136 74 71 21 69 475 258
leaf_count=170 168 103 306 309 33 349 124 198 56 28 134 177 149 91 142 465 160 496 87 125 31 156 66 136 74 71 21 69 475 258
internal_value=7.72983e-13 -0.00563466 0.00734567 -0.00998786 0.00434322 0.00556804 0.00275261 -0.0118057 -0.00182251 -0.00364062 -0.0131662 0.0115829 0.0013113 0.000818353 0.0136488 -0.00676265 0.00788035 -0.0145335 0.000598485 -0.001491 0.00628888 0.0164811 -0.0122509 -0.000338882 -0.00525112 -0.00123767 0.00854846 0.0051657 0.00809135 -0.00101629
internal_weight=5227 2958 2269 1381 1328 1089 560 998 1577 998 828 941 579 411 604 587 337 694 436 289 122 298 122 261 383 239 529 218 508 361
internal_count=5227 2958 2269 1381 1328 1089 560 998 1577 998 828 941 579 411 604 587 337 694 436 289 122 298 122 261 383 239 529 218 508 361
is_linear=0
shrinkage=0.05


Tree=29
num_leaves=31
num_cat=0
split_feature=1 3 3 13 13 4 2 0 0 2 1 2 13 1 5 13 15 14 16 5 13 2 10 9 13 15 16 10 5 1
split_gain=78.1014 17.7208 10.4208 4.29268 3.27704 3.05791 2.5738 2.42943 2.29045 1.79619 1.66468 1.55514 1.66312 1.71086 1.4811 1.41828 1.34448 1.24964 1.21147 1.15325 1.04758 1.32802 1.01802 1.00547 0.880421 0.854975 0.837461 0.835597 0.829459 0.824068
threshold=-0.43734848816637906 -1.0621935662734729 0.11393600237564709 -0.82290373378132176 -0.81800218799296276 -0.43376685668677312 -0.15451903318983412 0.39732976058071834 -1.6201417510092615 -1.2302513414284564 0.53743239099985407 -1.0714582491650078 -0.49855179192305138 -0.78603464724928507 -1.4016309667131772 0.21666516119423046 -2.3214507915561797 0.56474101000159471 1.1082433842814583 -1.610851378040123 -1.0502939348968734 0.16998847564767663 0.54954541801155343 -0.55782593930620428 -0.32284152696408674 -0.82834843185715978 0.57772831159180171 0.57146085378776235 0.19988421018718464 -1.8323368389601256
decision_type=2 2 2 2 2 2 2 2 2 2 2 2 2 2 2 2 2 2 2 2 2 2 2 2 2 2 2 2 2 2
left_child=1 3 4 8 -2 11 15 22 16 19 28 14 13 -13 -3 17 -1 27 -9 -10 -7 25 -4 -24 -5 -22 -16 -6 -8 -11
right_child=2 5 7 24 6 20 10 18 9 29 -12 12 -14 -15 26 -17 -18 -19 -20 -21 21 -23 23 -25 -26 -27 -28 -29 -30 -31
leaf_value=-0.018000451902854191 -0.001175786826124407 -0.0076575369318766934 0.010427380436084282 -0.0058632700380882308 0.0066003227687741004 -0.0048322325430648488 0.0010312330963511086 0.011399136996629977 -0.010308331853867326 -0.021216781454330143 0.01307550987816955 -0.0095941736713395474 -0.0019856102216595419 -0.0029182390940453236 2.3361885439736575e-05 0.018029632943216713 -0.011891058713671278 0.011213598473730029 0.016637691896115959 -0.0038812245225348452 0.0037140766485813763 -0.0049589707508011791 -0.0029935873246618679 0.0072405059534849858 0.0015814768202188944 0.014437835142016412 0.009177179720589063 -0.00026695520164839062 0.0054666766816557485 -0.011200149850288631
leaf_weight=148 239 62 295 338 299 46 386 256 117 22 38 214 393 174 335 32 230 137 194 173 263 43 28 168 45 20 27 52 145 308
leaf_count=148 239 62 295 338 299 46 386 256 117 22 38 214 393 174 335 32 230 137 194 173 263 43 28 168 45 20 27 52 145 308
internal_value=-4.70912e-13 -0.00535293 0.00697839 -0.00948847 0.00412606 -0.00173138 0.00528964 0.0110038 -0.0112154 -0.00934507 0.00296589 -0.00295471 -0.0042782 -0.00660033 -0.00051688 0.00783236 -0.0142831 0.00716368 0.0136575 -0.00647423 0.00223129 0.00322799 0.00857161 0.00577849 -0.00498856 0.00447194 0.000706105 0.00558295 0.00224242 -0.0118679
internal_weight=5227 2958 2269 1381 1328 1577 1089 941 998 620 569 1205 781 388 424 520 378 488 450 290 372 326 491 196 383 283 362 351 531 330
internal_count=5227 2958 2269 1381 1328 1577 1089 941 998 620 569 1205 781 388 424 520 378 488 450 290 372 326 491 196 383 283 362 351 531 330
is_linear=0
shrinkage=0.05


Tree=30
num_leaves=31
num_cat=0
split_feature=1 3 3 13 17 17 17 13 17 17 17 13 17 16 16 17 5 17 1 6 13 7 15 4 13 2 13 17 5 17
split_gain=70.4865 15.9931 9.40594 3.87414 3.08836 4.78623 3.06348 2.81851 3.02299 2.77341 2.72439 2.88742 2.55945 2.1912 2.16834 2.14508 1.63704 1.56803 1.39005 1.15197 1.14538 1.09457 1.07975 1.25306 1.0566 1.03258 0.982557 0.976672 0.943984 0.925651
threshold=-0.43734848816637906 -1.0621935662734729 0.088984725545156115 -0.82290373378132176 8.5000000000000018 17.500000000000004 11.500000000000002 -0.8316560079485541 8.5000000000000018 20.500000000000004 11.500000000000002 -0.27027947123052021 18.500000000000004 0.060035944421714026 0.51759671671177065 21.500000000000004 0.19988421018718464 6.5000000000000009 -1.0993401636758857 0.44291696493356819 -1.3968111895909576 -1.1041314307068995 -1.1263236155179015 -1.197243469214941 -1.0556579172634668 -0.66171293128862307 0.087878600121845327 20.500000000000004 -0.7398388848828007 20.500000000000004
decision_type=2 2 2 2 2 2 2 2 2 2 2 2 2 2 2 2 2 2 2 2 2 2 2 2 2 2 2 2 2 2
left_child=1 3 7 6 13 18 -1 -2 19 20 11 17 16 -3 29 22 -10 -4 28 -9 -8 -15 23 -16 -11 -17 -13 -5 -6 -7
right_child=2 4 10 27 5 14 9 8 12 24 -12 26 -14 21 15 25 -18 -19 -20 -21 -22 -23 -24 -25 -26 -27 -28 -29 -30 -31
leaf_value=-0.0045409313234781356 -0.0014367193700701979 -0.001896469969774476 0.0097939210868550133 -0.0059747432289665049 -0.016393942566140109 -0.015624179169535637 -0.020912328147690517 0.0098195853445519656 -0.00017365224206466093 -0.0097057614736735659 0.0014717303734141753 0.011203904703601438 0.0095073921219833817 0.0023353812527757158 0.0084725743070954377 0.0047536609445342042 0.0058523942283805344 0.0014978385532788021 -0.0055657464031277333 0.0031416625284203673 -0.012947732960255932 0.009051100475001423 0.0039234161381590553 -0.0046375118642480225 -0.0023412621552065679 0.015155269228853286 0.015116272509704458 0.00042037587027644391 -0.0036777724890271202 -0.0036949891239047073
leaf_weight=170 213 282 136 309 54 20 49 304 413 127 80 400 120 212 21 80 155 98 453 82 573 85 91 138 79 34 268 74 20 87
leaf_count=170 213 282 136 309 54 20 49 304 413 127 80 400 120 212 21 80 155 98 453 82 573 85 91 138 79 34 268 74 20 87
internal_value=3.53657e-12 -0.00508528 0.00662947 -0.00901404 -0.00164481 -0.00333017 -0.0106546 0.00381743 0.00485946 -0.0119098 0.0103149 0.0110992 0.00287251 0.00126017 0.00033249 0.00217184 0.00147078 0.00631949 -0.00660363 0.00840096 -0.0135752 0.00425739 -0.000420087 -0.00290599 -0.00688151 0.00785589 0.0127735 -0.00473913 -0.0129571 -0.00592474
internal_weight=5227 2958 2269 1381 1577 998 998 1287 1074 828 982 902 688 579 471 364 568 234 527 386 622 297 250 159 206 114 668 383 74 107
internal_count=5227 2958 2269 1381 1577 998 998 1287 1074 828 982 902 688 579 471 364 568 234 527 386 622 297 250 159 206 114 668 383 74 107
is_linear=0
shrinkage=0.05


Tree=31
num_leaves=31
num_cat=0
split_feature=1 1 1 15 4 4 2 13 13 1 9 2 13 2 12 2 2 16 10 0 7 2 16 1 2 14 13 7 1 9
split_gain=63.6141 14.3389 8.56626 3.85502 3.10165 2.83826 2.05433 1.83972 1.73188 1.62066 1.61517 1.50809 1.25329 1.27684 1.27548 1.24069 1.21532 1.18319 1.1568 1.13268 1.07375 1.06067 1.09122 1.15409 1.0147 0.977461 0.875955 0.873515 0.852893 0.838759
threshold=-0.43734848816637906 -1.1293856029774518 0.26862948648334517 -2.0206092072025315 -0.2605026082653189 -0.44719873564431772 -1.2360230250390498 -0.26726347555597707 -0.50681254239664197 -1.3972874309884189 -0.84701888061871633 -1.0714582491650078 0.23946127108585907 -0.77964869083306321 0.79692128274747842 -0.24748862182231723 0.35390149571003704 0.82832044504118996 0.57107506044357259 -1.3521367129631401 -0.36570905597155806 0.16114126034541296 0.13164569409931906 -0.66716219459321213 -1.0316956537834479 0.55866668960604227 0.070873567112243394 -0.57361216892382638 0.52252546790216947 -0.76550421630704457
decision_type=2 2 2 2 2 2 2 2 2 2 2 2 2 2 2 2 2 2 2 2 2 2 2 2 2 2 2 2 2 2
left_child=1 3 4 9 12 6 -3 -4 19 -1 -6 -11 13 18 20 -12 -9 24 -2 25 -15 22 23 -7 -5 -8 -18 -16 -28 -26
right_child=2 5 7 17 10 21 8 16 -10 11 15 -13 -14 14 27 -17 26 -19 -20 -21 -22 -23 -24 -25 29 -27 28 -29 -30 -31
leaf_value=-0.012860863957260302 0.0075922573007823485 0.00062584176041485492 0.0053105610059794245 -0.0036094379548570902 -0.0018720821927076783 -0.0077612408393517478 -0.0070510917386286572 0.01375171384413678 -0.00160783699367483 -0.0038874250495384457 0.0084953615048213582 -0.012699273115315711 0.013411767865446482 -0.0035108394695151993 0.0072292739259345196 0.0045318808000977566 0.0050449104660878052 0.0053715639079556518 -0.00030734780499384412 -0.0048489237982922845 0.0045999269381317561 -0.0047001981957846342 0.0044443267889225395 0.0046697505887343801 -0.011068308829063817 -0.017764521067058951 0.0067047793915400574 1.1399391619108983e-05 0.014390268298216486 -0.005710140265808958
leaf_weight=506 124 305 127 215 58 43 60 363 425 117 453 83 22 244 77 350 84 23 74 506 49 53 261 33 133 33 59 92 93 162
leaf_count=506 124 305 127 215 58 43 60 363 425 117 453 83 22 244 77 350 84 23 74 506 49 53 261 33 133 33 59 92 93 162
internal_value=1.41087e-11 -0.00483102 0.00629799 -0.00893146 0.00419066 -0.00187555 -0.00297615 0.0107768 -0.004049 -0.0113548 0.0061858 -0.00754434 0.00167186 0.00128053 -0.00015919 0.00676782 0.0119358 -0.0057216 0.00463988 -0.00578105 -0.00215443 0.00187494 0.00290901 -0.00236357 -0.00622188 -0.0108526 0.00914258 0.00330002 0.0114071 -0.00812586
internal_weight=5227 2958 2269 1239 1543 1719 1329 726 1024 706 861 200 682 660 462 803 599 533 198 599 293 390 337 76 510 93 236 169 152 295
internal_count=5227 2958 2269 1239 1543 1719 1329 726 1024 706 861 200 682 660 462 803 599 533 198 599 293 390 337 76 510 93 236 169 152 295
is_linear=0
shrinkage=0.05


Tree=32
num_leaves=31
num_cat=0
split_feature=3 4 1 1 13 13 17 13 17 17 1 17 17 17 13 2 13 17 5 17 17 13 5 13 17 14 11 2 2 2
split_gain=57.6993 12.8237 8.60518 3.92648 2.64698 2.62422 3.71 2.41614 2.38134 2.26978 2.0455 1.62201 1.59394 2.24473 1.47655 1.40808 1.33878 1.55892 1.30148 1.13387 1.0906 1.67483 1.05223 1.05153 1.11395 1.05834 1.03462 0.923517 0.901895 0.901256
threshold=-0.69064547428097989 0.10260855559999731 -1.3972874309884189 -0.3413940051912297 -1.0633997169054135 -0.33301445177673644 9.5000000000000018 -0.84020840456090251 8.5000000000000018 20.500000000000004 0.53743239099985407 19.500000000000004 5.5000000000000009 21.500000000000004 -1.247822197807652 -0.74493559202955451 -0.038787554829572329 10.500000000000002 -0.94716735019536447 21.500000000000004 10.500000000000002 -0.26726347555597707 0.19988421018718464 -0.60595176735812784 12.500000000000002 0.49639197148761721 -0.88655306600459671 -0.028317520514900166 -0.76960367010689368 -1.8104955050984433
decision_type=2 2 2 2 2 2 2 2 2 2 2 2 2 2 2 2 2 2 2 2 2 2 2 2 2 2 2 2 2 2
left_child=2 3 4 12 29 6 14 -5 -9 23 20 22 18 16 -4 -15 17 -14 -2 -6 21 -3 -10 24 -8 -26 -12 -22 -7 -1
right_child=1 10 5 7 19 28 9 8 11 -11 26 -13 13 15 -16 -17 -18 -19 -20 -21 27 -23 -24 -25 25 -27 -28 -29 -30 -31
leaf_value=-0.0085392526754805333 -0.0013525792846439391 0.0054254011800799863 -0.0041986333467090835 -0.0024177494695918128 -0.0078860484512847228 0.010542354241690853 -0.0057346749820235167 0.008662668525538578 0.00034958821619308065 -0.0012352166066813715 0.009026016504605017 0.010108594491922607 -8.5818110115675107e-05 0.0011201330158911961 0.0019946490914670659 0.013259486722139023 0.0017335985360509443 -0.0065510096947758627 0.0054109666722878397 0.0011138815398714164 0.012293856216432609 0.010994875407707808 0.00543358390119304 -0.0046246287468550565 -0.0027099190272565467 -0.011343909237027494 0.015034772769891118 0.0010672995772781884 -5.4406259593594342e-05 -0.013969208043096244
leaf_weight=98 111 227 166 110 239 22 204 346 286 176 115 75 148 71 229 36 127 252 198 41 23 333 158 224 40 315 190 90 230 347
leaf_count=98 111 227 166 110 239 22 204 346 286 176 115 75 148 71 229 36 127 252 198 41 23 333 158 224 40 315 190 90 230 347
internal_value=1.86519e-11 0.00471304 -0.00585541 0.00233716 -0.0103769 -0.00381426 -0.0046862 0.00456201 0.00544961 -0.00636592 0.00937247 0.00330758 3.68161e-05 -0.00139829 -0.000608097 0.0052044 -0.00273888 -0.00415889 0.00298134 -0.0065682 0.0078331 0.00873725 0.00215876 -0.00751918 -0.00867907 -0.0103711 0.0127692 0.00335235 0.000870708 -0.0127734
internal_weight=5227 2896 2331 1918 725 1606 1354 975 865 959 978 519 943 634 395 107 527 400 309 280 673 560 444 783 559 355 305 113 252 445
internal_count=5227 2896 2331 1918 725 1606 1354 975 865 959 978 519 943 634 395 107 527 400 309 280 673 560 444 783 559 355 305 113 252 445
is_linear=0
shrinkage=0.05


Tree=33
num_leaves=31
num_cat=0
split_feature=3 4 1 1 13 13 17 13 17 17 1 17 17 17 13 2 13 17 5 17 4 5 13 8 11 14 8 14 0 17
split_gain=52.0736 11.5734 7.76617 3.54364 2.3889 2.36836 3.34827 2.18074 2.1108 2.04847 1.84607 1.5015 1.43853 2.02587 1.33259 1.27079 1.20825 1.40693 1.1784 1.06952 1.02111 0.997468 0.949004 1.03896 0.933744 0.932208 0.897334 0.829347 0.818912 0.816667
threshold=-0.69064547428097989 0.10260855559999731 -1.3972874309884189 -0.3413940051912297 -1.0633997169054135 -0.33301445177673644 9.5000000000000018 -0.86597783170026876 8.5000000000000018 20.500000000000004 0.53743239099985407 19.500000000000004 5.5000000000000009 21.500000000000004 -1.247822197807652 -0.74493559202955451 -0.038787554829572329 10.500000000000002 -0.89380673729039539 19.500000000000004 0.5593483874306725 0.19988421018718464 -0.60595176735812784 -0.68903457315176808 -0.88655306600459671 0.52611336973202649 0.39968696583694191 0.52245368467625031 -0.028317520514900166 10.500000000000002
decision_type=2 2 2 2 2 2 2 2 2 2 2 2 2 2 2 2 2 2 2 2 2 2 2 2 2 2 2 2 2 2
left_child=2 3 4 12 27 6 14 -5 26 22 20 21 18 16 -4 -15 17 -14 -2 -6 29 -10 23 25 -12 -8 -9 -1 -23 -3
right_child=1 10 5 7 19 -7 9 8 11 -11 24 -13 13 15 -16 -17 -18 -19 -20 -21 -22 28 -24 -25 -26 -27 -28 -29 -30 -31
leaf_value=-0.0092397671248529503 -0.00083945298438266043 0.0073605164142386686 -0.0039887017199800477 -0.0031734965021976017 -0.0089552096839805567 0.00082717237071067628 -0.0072504188645292414 0.0064249069100619088 0.00023010193980466383 -0.0011734558229363756 0.0085747156972470484 0.0096031647901982081 -8.1527352056189167e-05 0.0010641262817367072 0.0018949166237169218 0.012596512344639954 0.0016469186192972396 -0.0062234592758036418 0.0054288581899979583 -0.0027231023323409202 0.010972256439435446 0.0098247565179116134 -0.0043933972948187669 -0.0070644640945694091 0.014283034128296238 -0.015844989121526581 0.011910707535183369 -0.013744163946403268 0.0023830333884542038 0.0023840187784364246
leaf_weight=159 128 413 166 88 158 252 55 257 292 176 115 75 148 71 229 36 127 252 181 122 157 59 224 430 190 74 105 286 99 103
leaf_count=159 128 413 166 88 158 252 55 257 292 176 115 75 148 71 229 36 127 252 181 122 157 59 224 430 190 74 105 286 99 103
internal_value=2.82281e-12 0.00447739 -0.00556264 0.00222031 -0.00985806 -0.00362354 -0.00445189 0.00433391 0.00507873 -0.00604762 0.00890384 0.00305335 3.49752e-05 -0.00132838 -0.000577693 0.00494418 -0.00260193 -0.00395094 0.00283228 -0.00623979 0.00744144 0.00196171 -0.00714322 -0.00824512 0.0121307 -0.0121806 0.00801609 -0.0121347 0.0051619 0.00636715
internal_weight=5227 2896 2331 1918 725 1606 1354 975 887 959 978 525 943 634 395 107 527 400 309 280 673 450 783 559 305 129 362 445 158 516
internal_count=5227 2896 2331 1918 725 1606 1354 975 887 959 978 525 943 634 395 107 527 400 309 280 673 450 783 559 305 129 362 445 158 516
is_linear=0
shrinkage=0.05


Tree=34
num_leaves=31
num_cat=0
split_feature=1 1 1 17 17 17 15 17 17 17 5 17 7 16 5 5 17 12 17 13 14 17 14 7 6 15 17 11 1 6
