tree
version=v4
num_class=1
num_tree_per_iteration=1
label_index=0
max_feature_idx=19
objective=regression
feature_names=pm10 lag_1 lag_6 lag_24 lag_48 rolling_mean_6 rolling_std_6 rolling_min_6 rolling_max_6 rolling_mean_24 rolling_std_24 rolling_min_24 rolling_max_24 rolling_mean_48 rolling_std_48 rolling_min_48 rolling_max_48 hour dayofweek month
feature_infos=[-2.5728724676293799:2.2522939297972289] [-2.5728724676293799:2.2522939297972289] [-2.5728724676293799:2.2522939297972289] [-2.5728724676293799:2.2522939297972289] [-2.5728724676293799:2.2522939297972289] [-2.0968140182590056:1.6690863195012886] [0.047241146070885871:0.73727012344234566] [-2.5728724676293799:1.4426121826085707] [-1.8536218918251841:2.2522939297972289] [-1.5299566184412861:1.0109683989007834] [0.36422627695707266:0.71025053167063568] [-2.5728724676293799:0.23079747985233859] [-0.79008943726683123:2.2522939297972289] [-1.5339213854765363:0.95512239554791645] [0.42264869270927269:0.65941098890614858] [-2.5728724676293799:-0.072119934093547319] [-0.70569538332270865:2.2522939297972289] [0:23] [0:6] [1:10]
tree_sizes=2817 2851 2851 2850 2869 2868 2870 2869 2865 2869 2879 2870 2855 2861 2877 2881 2880 2879 2879 2877 2883 2886 2881 2884 2891 2890 2888 2918 2899 2904 2907 2918 2909 2917 2909 2925 2920 2921 2942 2931 2931 2947 2939 2947 2946 2952 2959 2953 2958 2960 2954 2950 2952 2961 2964 2965 2970 2970 2972 2968 2966 2965 2969 2974 2987 2969 2965 2971 2983 2968 2981 3003 2986 2987 2976 2979 2978 2986 2995 2993 2992 2981 2988 3030 3011 3042 3001 3000 2995 3007 2987 2995 3017 3009 3007 3031 3017 3012 3017 3024 3003 3021 3021 3013 3032 3012 3012 3016 3020 3032 3039 3029 3036 3033 3029 3049 3015 3042 3042 3029 3038 3052 3030 3045 3057 3046 3042 3051 3018 3039 3046 3052 3031 3043 3055 3048 3045 3047 3055 3040 3047 3036 3044 3062 3033 3044 3041 3044 3037 3024 3040 3033 3033 3043 3056 3026 3013 3037 2937 2444 2466 3008 3023 3052 3044 3036 2745 3042 2935 2933 2172 2827 1799 1924 3010 2538 2428 2241 1441 3025 2829 2658 2460 3039 2467 2836 3064 2851 2275 2624 3014 1442 3034 2336 2540 3032 3041 1988 1722 1628

Tree=0
num_leaves=31
num_cat=0
split_feature=3 3 3 3 3 3 3 3 3 3 3 3 3 3 3 3 3 3 3 3 3 3 3 3 3 3 3 3 3 3
split_gain=3421.91 614.896 569.291 96.6762 87.0677 86.9031 83.4001 15.4556 14.9401 13.0571 13.0231 11.7877 10.8441 10.1325 10.0905 2.4964 2.43117 2.40618 2.40525 1.7523 1.59169 1.57103 1.52824 1.4886 1.44697 1.40851 1.35643 1.34937 1.26413 1.26016
threshold=-0.30163616392449716 0.50656261633688493 -1.1003719393489446 1.0383641414849831 0.084817980609066368 -1.6042988282644941 -0.68478899325868492 0.74495264971989716 1.4003432299245155 -1.9189047149147158 -1.3475973886077355 0.28534098786685663 -0.89191052684215322 -0.49517966685301079 -0.11106215476922071 1.2121715621563951 -2.1434361886776299 1.7348434546719027 0.89497052046794756 -1.2153778881133135 -1.4797679095704248 0.39596481317431936 -1.7650739976693524 0.61957880348513561 -0.4033297071733159 -0.99149741504165989 -0.20539903604738585 -0.78914670289946087 0.18211890265418415 -0.019743249234245624
decision_type=2 2 2 2 2 2 2 2 2 2 2 2 2 2 2 2 2 2 2 2 2 2 2 2 2 2 2 2 2 2
left_child=2 4 5 7 14 9 12 23 15 16 20 28 25 -8 26 -5 -1 -10 -9 -12 -7 -13 -11 -3 -15 -4 -2 -14 -6 -16
right_child=1 3 6 8 11 10 13 18 17 22 19 21 27 24 29 -17 -18 -19 -20 -21 -22 -23 -24 -25 -26 -27 -28 -29 -30 -31
leaf_value=-0.39050008246130286 -0.28982779017524102 -0.24900763648150331 -0.32951602974361716 -0.22126244997159383 -0.27048767036733778 -0.35428622822220235 -0.30686614293944353 -0.2362707876238356 -0.20035487419651801 -0.36888606028086479 -0.34116080150971206 -0.2602109092877769 -0.3191413330312084 -0.29965319442050614 -0.28046387832924358 -0.21205623030285226 -0.37774070092863377 -0.18366675968146068 -0.2289164502936179 -0.33508290378364181 -0.3478480480477012 -0.25466930094928353 -0.36134588189321726 -0.24309111396725086 -0.29471762629814358 -0.32406686575006272 -0.28504914453960817 -0.31423258031306633 -0.26568848766285147 -0.27566800101543198
leaf_weight=56 297 243 252 162 279 168 496 270 108 112 252 270 280 297 270 135 112 27 189 224 224 243 168 189 297 224 297 280 270 278
leaf_count=56 297 243 252 162 279 168 496 270 108 112 252 270 280 297 270 135 112 27 189 224 224 243 168 189 297 224 297 280 270 278
internal_value=-0.291777 -0.257166 -0.327244 -0.23022 -0.273341 -0.353089 -0.311245 -0.239631 -0.210809 -0.370974 -0.343858 -0.263035 -0.321403 -0.301591 -0.282924 -0.217078 -0.381994 -0.197017 -0.233243 -0.338301 -0.350607 -0.257586 -0.364362 -0.246419 -0.297185 -0.326952 -0.287438 -0.316687 -0.268127 -0.278031
internal_weight=6969 3527 3442 1323 2204 1316 2126 891 432 448 868 1062 1036 1090 1142 297 168 135 459 476 392 513 280 432 594 476 594 560 549 548
internal_count=6969 3527 3442 1323 2204 1316 2126 891 432 448 868 1062 1036 1090 1142 297 168 135 459 476 392 513 280 432 594 476 594 560 549 548
is_linear=0
shrinkage=1


Tree=1
num_leaves=31
num_cat=0
split_feature=3 3 3 3 3 3 3 3 3 3 3 3 3 3 3 3 3 3 3 3 3 3 3 3 3 3 3 3 3 3
split_gain=3088.39 546.554 522.298 84.2234 81.5164 79.242 74.7499 14.251 13.1403 12.1023 11.4527 10.7948 10.293 9.23212 8.22484 2.41378 2.19414 2.02257 1.78169 1.7793 1.65795 1.60646 1.43285 1.38425 1.27488 1.25909 1.25057 1.21042 1.16042 1.1599
threshold=-0.2911406486095372 0.51875259271241625 -1.0863103913933416 1.06655885168777 -1.5848527434977726 0.094184937910776548 -0.66566547850482261 0.77720586739296837 -1.9189047149147158 1.4540509418713594 -1.3191537940211184 0.30740510990657105 -0.87904634233412549 -0.10286330889119545 -0.47856367289024071 1.259054449290574 -2.1434361886776299 0.91304469178641678 0.65410683324399699 -1.7337424036260669 -1.4467979861072264 1.7348434546719027 -0.76310673818922825 0.20754423085549059 -1.1962843267664203 -0.97390328909094859 0.41937189381598466 -0.19361362126516038 1.0000000180025095e-35 -0.38365452394797867
decision_type=2 2 2 2 2 2 2 2 2 2 2 2 2 2 2 2 2 2 2 2 2 2 2 2 2 2 2 2 2 2
left_child=2 5 4 7 8 13 12 18 16 15 20 23 25 27 -8 -5 -1 -9 -3 -10 -6 -11 -14 -7 -12 -4 -13 -2 -15 -16
right_child=1 3 6 9 10 11 14 17 19 21 24 26 22 28 29 -17 -18 -19 -20 -21 -22 -23 -24 -25 -26 -27 -28 -29 -30 -31
leaf_value=-0.093786551271166127 0.0022746776756070093 0.041569425783775475 -0.035258979314849496 0.06848289028361991 -0.058000151752209177 0.021090924564793889 -0.013329608083857218 0.053811235854655137 -0.072484782295567651 0.088622203873999328 -0.045816395751067572 0.031043602150899394 -0.025081486317018672 0.011408533434374165 -0.0066603835559252535 0.077535469752770883 -0.081665136132921493 0.060707749513091241 0.047899073236203071 -0.06485255073223796 -0.051703226326831754 0.10270510183440314 -0.020093914026778844 0.0260572972672957 -0.04048187341541052 -0.030106950325093102 0.036147866743030374 0.0067888074526281069 0.016021549843606497 -0.0021323258881414033
leaf_weight=56 297 270 252 162 196 332 494 243 140 81 224 270 336 297 297 135 112 189 189 168 224 27 252 243 224 224 216 297 252 270
leaf_count=56 297 270 252 162 196 332 494 243 140 81 224 270 336 297 297 135 112 189 189 168 224 27 252 243 224 224 216 297 252 270
internal_value=1.64877e-10 0.0331374 -0.0334335 0.0589039 -0.0578289 0.0179861 -0.0180042 0.0503104 -0.0744572 0.0778098 -0.0487101 0.0278264 -0.0273687 0.00885181 -0.00861328 0.0725977 -0.0857056 0.0568285 0.0441758 -0.0683217 -0.0546418 0.0921429 -0.022944 0.0231898 -0.0431491 -0.0328345 0.0333122 0.00453174 0.013526 -0.00450417
internal_weight=6969 3500 3469 1296 1344 2204 2125 891 476 405 868 1061 1064 1143 1061 297 168 432 459 308 420 108 588 575 448 476 486 594 549 567
internal_count=6969 3500 3469 1296 1344 2204 2125 891 476 405 868 1061 1064 1143 1061 297 168 432 459 308 420 108 588 575 448 476 486 594 549 567
is_linear=0
shrinkage=0.05


Tree=2
num_leaves=31
num_cat=0
split_feature=3 3 3 3 3 3 3 3 3 3 3 3 3 3 3 3 3 3 3 3 3 3 3 3 3 3 3 3 3 3
split_gain=2787.44 508.625 456.205 81.7203 70.3416 68.5133 68.1685 13.4421 12.3273 10.9664 9.51021 9.4603 9.02464 8.57354 8.12263 2.47118 2.03678 1.86715 1.48763 1.43846 1.43738 1.42451 1.40235 1.31419 1.2536 1.15433 1.1495 1.0445 0.96869 0.942813
threshold=-0.30893236642405009 0.49472723394153856 -1.1154443703111414 1.0200528307515 0.071763300581358033 -0.69576897515575975 -1.6290247418324901 1.4003432299245155 0.72593924107227448 -1.3660906468056944 -1.9605105247421972 0.27342301514002049 -0.91268231494592533 -0.52667742286007868 -0.12706206500537673 1.2121715621563951 1.6061464779789263 0.86197653733494173 -1.2517921222031985 -1.7945837952754062 -0.41196805281981952 -2.1434361886776299 -1.4953628397413332 -0.80879229368613992 0.38086344131566913 -0.036734256747347822 0.5939338373311327 0.16520400675950106 -0.22782109687994836 -1.0176547857216112
decision_type=2 2 2 2 2 2 2 2 2 2 2 2 2 2 2 2 2 2 2 2 2 2 2 2 2 2 2 2 2 2
left_child=2 4 6 8 14 12 10 15 26 22 21 27 29 -7 28 -5 -9 -10 -11 -12 -15 -1 -8 -14 -13 -16 -3 -6 -2 -4
right_child=1 3 5 7 11 13 9 16 17 18 19 24 23 20 25 -17 -18 -19 -20 -21 -22 -23 -24 -25 -26 -27 -28 -29 -30 -31
leaf_value=-0.089097221834318979 0.00094084720314262411 0.037694903656288435 -0.034886946316276278 0.063091647088843059 0.01852302114287066 -0.014654125792918303 -0.057388256561188469 0.080546549220144023 0.049035271033338074 -0.045982782390652871 -0.071348826055015843 0.027987152967188095 -0.025652677177318506 -0.0077947624197542836 0.0093855171733432351 0.071948861060319128 0.093082847970503355 0.055424307562686785 -0.040303233116865157 -0.064033480981985733 -0.0030685631732334092 -0.078802066828523365 -0.051345113957566885 -0.020919715235759688 0.032937354609799484 0.013877848082369096 0.042853264138102531 0.022896191042741675 0.0051170182994992285 -0.030299471052629607
leaf_weight=56 243 216 224 189 252 443 168 81 243 196 112 270 280 351 270 135 54 216 280 168 297 84 224 308 243 304 216 298 324 224
leaf_count=56 243 216 224 189 252 443 168 81 243 196 112 270 280 351 270 135 54 216 280 168 297 84 224 308 243 304 216 298 324 224
internal_value=1.06363e-10 0.0309973 -0.032259 0.0551658 0.0161936 -0.018038 -0.0557435 0.0723054 0.0463363 -0.047742 -0.0722798 0.025448 -0.0272469 -0.0092934 0.00757186 0.0667822 0.0855611 0.0520419 -0.0426419 -0.0669596 -0.00562859 -0.0829201 -0.053935 -0.0231735 0.030332 0.0117647 0.0402741 0.0208925 0.00332723 -0.0325932
internal_weight=6969 3554 3415 1350 2204 2127 1288 459 891 868 420 1063 1036 1091 1141 324 135 459 476 280 648 140 392 588 513 574 432 550 567 448
internal_count=6969 3554 3415 1350 2204 2127 1288 459 891 868 420 1063 1036 1091 1141 324 135 459 476 280 648 140 392 588 513 574 432 550 567 448
is_linear=0
shrinkage=0.05


Tree=3
num_leaves=31
num_cat=0
split_feature=3 3 3 3 3 3 3 3 3 3 3 3 3 3 3 3 3 3 3 3 3 3 3 3 3 3 3 3 3 3
split_gain=2515.7 438.61 432.484 69.0307 66.2411 65.1219 60.6852 11.9825 10.6589 9.88297 9.07769 8.78168 8.29601 8.25551 5.99322 2.25259 1.95401 1.50997 1.44471 1.36067 1.29572 1.28104 1.18186 1.17799 1.13656 1.07426 1.05423 1.04042 1.02526 0.993249
threshold=-0.28316584948862683 0.52962446711322031 -1.0735943877813587 -1.5620274780237784 1.06655885168777 0.11404842498612223 -0.64605894861181978 -1.8679892299369603 0.79035157226580133 1.4540509418713594 -1.3035310499500523 -0.85678051747089434 0.31896053019189724 -0.083010061589380887 -0.45416301440473217 -2.0522652159901309 1.259054449290574 0.67591821902454374 0.93100144653700656 1.7348434546719027 -1.4126262932494154 -1.6877917943462069 -0.7535357991538798 -0.96016170074998652 -0.17896476011869747 -0.56146121109824965 -1.1770838894009312 0.43192665296461541 0.2277495982816278 0.022102653111950501
decision_type=2 2 2 2 2 2 2 2 2 2 2 2 2 2 2 2 2 2 2 2 2 2 2 2 2 2 2 2 2 2
left_child=2 5 3 7 8 13 11 15 17 16 20 23 28 24 25 -1 -6 -3 -10 -11 -5 -9 -13 -4 -2 -8 -12 -14 -7 -15
right_child=1 4 6 10 9 12 14 21 18 19 26 22 27 29 -16 -17 -18 -19 -20 -21 -22 -23 -24 -25 -26 -27 -28 -29 -30 -31
leaf_value=-0.082395329787617641 0.0025916444855586937 0.038120118004304399 -0.031284263848312316 -0.051155752289508076 0.061830354288772309 0.019834136443607736 -0.013533513798370018 -0.063335040424551278 0.049210029717826065 0.079954824256308288 -0.040465189445586434 -0.022010019169999409 0.028498963227978458 0.01109856523598317 -0.0032816339496460852 -0.071563780467425078 0.069975272637826422 0.043947153463565487 0.055305779679321959 0.09291570561903495 -0.045589044811774275 -0.056859022549220498 -0.017521671365414347 -0.02644971281526581 0.0068737815476025803 -0.0089356752708303396 -0.035575870074787921 0.033154649563409667 0.024265106829504172 0.01535983547450058
leaf_weight=84 324 270 252 224 162 330 222 168 243 81 252 308 270 299 513 112 135 189 162 27 196 140 280 252 297 297 196 216 216 252
leaf_count=84 324 270 252 224 162 330 222 168 243 81 252 308 270 299 513 112 135 189 162 27 196 140 280 252 297 297 196 216 216 252
internal_value=-1.58537e-10 0.0301403 -0.029942 -0.0518231 0.0535573 0.0166574 -0.0158079 -0.0665415 0.0457361 0.0702426 -0.043277 -0.0240239 0.0258165 0.00859245 -0.00711416 -0.0762059 0.0655326 0.0405195 0.0516483 0.083195 -0.048558 -0.0603914 -0.0198727 -0.028867 0.00463962 -0.0109024 -0.0383261 0.0305682 0.021587 0.0130475
internal_weight=6969 3473 3496 1372 1269 2204 2124 504 864 405 868 1092 1032 1172 1032 196 297 459 405 108 420 308 588 504 621 519 448 486 546 551
internal_count=6969 3473 3496 1372 1269 2204 2124 504 864 405 868 1092 1032 1172 1032 196 297 459 405 108 420 308 588 504 621 519 448 486 546 551
is_linear=0
shrinkage=0.05


Tree=4
num_leaves=31
num_cat=0
split_feature=3 3 3 3 3 3 3 3 3 3 3 3 3 3 3 3 3 3 3 3 3 3 3 3 3 3 3 3 3 3
split_gain=2271.07 420.585 365.456 69.0637 56.7384 56.2106 53.3934 12.1473 9.80919 8.19814 7.78842 7.59656 7.50285 7.08869 6.52757 2.24506 1.78178 1.4421 1.25356 1.24411 1.18367 1.07578 1.0368 0.997981 0.952089 0.920792 0.884102 0.866439 0.787091 0.749445
threshold=-0.32094663276061974 0.48109488986179128 -1.1276144765426006 0.99940061097948407 0.057711161368218945 -0.70788853504850868 -1.6290247418324901 1.3519659998696409 0.70790150142813124 -1.3792361818838654 -1.9605105247421972 0.26170032314726471 -0.92615715848170377 -0.52667742286007868 -0.13589969160385915 1.6061464779789263 1.1697044676839476 0.84300476257756718 -2.2420111748900928 -1.2721051151857046 -1.7945837952754062 -0.82122840901315242 -0.42087769611730802 0.36945605533383524 -1.4953628397413332 -0.048084496900668551 0.58158823329398424 0.15423968449258993 -0.239600366817285 -1.0312342151399105
decision_type=2 2 2 2 2 2 2 2 2 2 2 2 2 2 2 2 2 2 2 2 2 2 2 2 2 2 2 2 2 2
left_child=2 4 6 8 14 12 10 16 26 24 18 27 29 -7 28 -9 -5 -10 -1 -11 -12 -14 -15 -13 -8 -16 -3 -6 -2 -4
right_child=1 3 5 7 11 13 9 15 17 19 20 23 21 22 25 -17 -18 -19 -20 -21 -22 -23 -24 -25 -26 -27 -28 -29 -30 -31
leaf_value=-0.084333557316235139 0.00051403902830671493 0.033502273082181261 -0.031971450123403758 0.055880386110336071 0.016286633069080021 -0.013419105334013637 -0.051818475694883438 0.071620674928029385 0.043619172857622068 -0.042143564868946465 -0.064408914212669643 0.024809225659679485 -0.023580608586115496 -0.0072410722366637653 0.0081089287830723653 0.084106939699914729 0.063401316183584716 0.049234103287259745 -0.072505340565528195 -0.036949633508920672 -0.057772990564505258 -0.019298425065232563 -0.0031511656403767339 0.02922599525363357 -0.04668895577897831 0.012124291337756041 0.03802613370396473 0.020266595099083955 0.0042784624451334468 -0.027881377749145033
leaf_weight=28 243 216 224 189 252 471 168 108 243 196 112 270 280 324 270 54 135 216 112 280 168 308 297 243 196 303 216 299 324 224
leaf_count=28 243 216 224 189 252 471 168 108 243 196 112 270 280 324 270 54 135 216 112 280 168 308 297 243 196 303 216 299 324 224
internal_value=2.87907e-11 0.0277632 -0.0293448 0.0494419 0.0142189 -0.0167086 -0.0506859 0.0646037 0.0411719 -0.0434078 -0.0652419 0.0225229 -0.0250517 -0.00879341 0.0064686 0.0757828 0.0590141 0.0462615 -0.074871 -0.0390883 -0.0604274 -0.0213376 -0.00528503 0.0269014 -0.0490564 0.0102322 0.0357642 0.0184464 0.00266514 -0.0299264
internal_weight=6969 3581 3388 1377 2204 2128 1260 486 891 840 420 1064 1036 1092 1140 162 324 459 140 476 280 588 621 513 364 573 432 551 567 448
internal_count=6969 3581 3388 1377 2204 2128 1260 486 891 840 420 1064 1036 1092 1140 162 324 459 140 476 280 588 621 513 364 573 432 551 567 448
is_linear=0
shrinkage=0.05


Tree=5
num_leaves=31
num_cat=0
split_feature=3 3 3 3 3 3 3 3 3 3 3 3 3 3 3 3 3 3 3 3 3 3 3 3 3 3 3 3 3 3
split_gain=2049.64 379.614 329.843 60.1712 53.392 50.1548 48.5709 9.9818 9.09218 7.87247 7.16767 6.95482 6.43027 6.36749 6.17484 2.02616 1.52465 1.33116 1.18697 1.07497 1.05442 0.988959 0.960261 0.926319 0.915511 0.862487 0.831814 0.821983 0.797128 0.704073
threshold=-0.32094663276061974 0.49472723394153856 -1.1154443703111414 1.0200528307515 0.071763300581358033 -1.6042988282644941 -0.70788853504850868 1.3519659998696409 0.74495264971989716 -1.9189047149147158 -1.3475973886077355 0.28534098786685663 -0.53947027408425285 -0.12706206500537673 -0.91268231494592533 1.6061464779789263 -2.1434361886776299 1.1697044676839476 0.87892638251506783 0.61103261274606313 -0.42848997493749902 -1.4661750796135649 -1.7337424036260669 -1.2298765971113623 0.17282456363902907 -0.028094316376723123 -0.80879229368613992 -0.22194336236812809 0.38086344131566913 -1.0058293372518097
decision_type=2 2 2 2 2 2 2 2 2 2 2 2 2 2 2 2 2 2 2 2 2 2 2 2 2 2 2 2 2 2
left_child=2 4 5 8 13 9 14 17 19 16 21 24 -8 27 29 -9 -1 -5 -10 -3 -14 -7 -11 -12 -6 -15 -16 -2 -13 -4
right_child=1 3 6 7 11 10 12 15 18 22 23 28 20 25 26 -17 -18 -19 -20 -21 -22 -23 -24 -25 -26 -27 -28 -29 -30 -31
leaf_value=-0.076601623211588185 0.00084333917111017662 0.032544975099249633 -0.029697538486548831 0.053508633375167848 0.016056517697870733 -0.048041633546960602 -0.012988947140606675 0.068039644261201224 0.04262125024824967 -0.059102644281727928 -0.038545832809592999 0.024201243478084299 -0.0071946852162112426 0.0082161403665638923 -0.022000931033066343 0.079901593702810789 -0.066497297797884256 0.060231249111670042 0.047904449086340645 0.037392778418682236 -0.0031608385689280653 -0.04301883146470907 -0.053246447358812614 -0.033998661168984007 0.020041555763294402 0.01209482224355536 -0.018146864803774015 0.0045632976148064289 0.028251157572240004 -0.02570186959845679
leaf_weight=56 297 243 252 162 280 196 444 108 243 140 224 243 324 297 280 54 112 135 189 216 324 196 140 224 297 277 280 297 243 196
leaf_count=56 297 243 252 162 280 196 444 108 243 140 224 243 324 297 280 54 112 135 189 216 324 196 140 224 297 277 280 297 243 196
internal_value=-5.5549e-11 0.0263751 -0.0278775 0.0473028 0.0137115 -0.0477982 -0.0156595 0.06201 0.0397263 -0.0613086 -0.0405926 0.0218195 -0.00835374 0.00633239 -0.0235741 0.0719936 -0.0698654 0.0565644 0.0449326 0.0348263 -0.00517776 -0.0455302 -0.0561745 -0.0362722 0.0181077 0.0100879 -0.0200739 0.00270332 0.0262262 -0.0279494
internal_weight=6969 3581 3388 1350 2231 1288 2100 459 891 448 840 1063 1092 1168 1008 162 168 297 432 459 648 392 280 448 577 574 560 594 486 448
internal_count=6969 3581 3388 1350 2231 1288 2100 459 891 448 840 1063 1092 1168 1008 162 168 297 432 459 648 392 280 448 577 574 560 594 486 448
is_linear=0
shrinkage=0.05


Tree=6
num_leaves=31
num_cat=0
split_feature=3 3 3 3 3 3 3 3 3 3 3 3 3 3 3 3 3 3 3 3 3 3 3 3 3 3 3 3 3 3
split_gain=1849.84 337.511 302.735 52.4981 48.6068 47.0745 43.6883 9.31167 7.98906 7.37335 6.40354 6.28998 6.27365 5.84017 4.71234 1.71867 1.42783 1.40788 1.07145 1.03907 0.895938 0.849221 0.848121 0.822121 0.804963 0.796332 0.762877 0.750308 0.749477 0.730846
threshold=-0.30893236642405009 0.50656261633688493 -1.1003719393489446 1.06655885168777 0.084817980609066368 -1.5848527434977726 -0.67477495793957021 0.75998598659739136 -1.8679892299369603 1.4540509418713594 0.29570613991318473 -1.3327559056828375 -0.87904634233412549 -0.11939126046805178 -0.50281018966208679 -2.0522652159901309 1.2121715621563951 0.91304469178641678 1.7348434546719027 0.63833463812904578 -0.99149741504165989 -1.4467979861072264 0.19831274592577294 -1.2153778881133135 -0.0071947336303676184 -0.39237946464645451 -1.7114406350069731 0.40738553848755216 -0.21489951805027316 -0.77964869083306321
decision_type=2 2 2 2 2 2 2 2 2 2 2 2 2 2 2 2 2 2 2 2 2 2 2 2 2 2 2 2 2 2
left_child=2 4 5 7 13 8 12 19 15 16 22 21 20 28 -8 -1 -5 -9 -11 -3 -4 -7 -6 -13 -15 -16 -10 -12 -2 -14
right_child=1 3 6 9 10 11 14 17 26 18 27 23 29 24 25 -17 -18 -19 -20 -21 -22 -23 -24 -25 -26 -27 -28 -29 -30 -31
leaf_value=-0.070791481648172658 0.0010985873426878196 0.031618859789989615 -0.027761378434915392 0.052389899602642766 0.015923835404284364 -0.044914490136564997 -0.011093370538720199 0.04136385486081795 -0.054833195592675889 0.068568264849391977 0.023598762380856057 -0.036056510997670037 -0.019770173813615528 0.0082971207038671883 -0.005794089446719896 -0.061330303709421843 0.0593523496462975 0.046990458706699351 0.080069492039857082 0.036452623460658647 -0.023545154054013511 -0.040260050035252869 0.019808781416818438 -0.031772713097078457 0.01206921577987918 -0.002070569797656633 -0.049613462686538698 0.027552420080259994 0.004650694479294097 -0.016157580858894759
leaf_weight=84 297 270 252 135 333 196 441 270 140 81 270 224 280 324 351 112 162 189 27 189 252 196 243 224 251 243 140 216 297 280
leaf_count=84 297 270 252 135 333 196 441 270 140 81 270 224 280 324 351 112 162 189 27 189 252 196 243 224 251 243 140 216 297 280
internal_value=6.78268e-11 0.0252516 -0.0262794 0.0452605 0.0133861 -0.0450805 -0.0144917 0.038645 -0.0576429 0.0602559 0.0211292 -0.0379619 -0.0216062 0.00635173 -0.00717783 -0.0653851 0.0561876 0.0436807 0.0714436 0.0336092 -0.0256533 -0.0425873 0.0175628 -0.0339146 0.00994372 -0.00427083 -0.0522233 0.0253559 0.00287464 -0.0179639
internal_weight=6969 3554 3415 1323 2231 1316 2099 918 476 405 1062 840 1064 1169 1035 196 297 459 108 459 504 392 576 448 575 594 280 486 594 560
internal_count=6969 3554 3415 1323 2231 1316 2099 918 476 405 1062 840 1064 1169 1035 196 297 459 108 459 504 392 576 448 575 594 280 486 594 560
is_linear=0
shrinkage=0.05


Tree=7
num_leaves=31
num_cat=0
split_feature=3 3 3 3 3 3 3 3 3 3 3 3 3 3 3 3 3 3 3 3 3 3 3 3 3 3 3 3 3 3
split_gain=1669.62 314.006 264.314 52.6561 41.2959 39.8928 39.3522 8.98293 7.79492 6.82991 5.54899 5.38795 5.12816 5.11902 4.79701 1.66439 1.30344 1.10668 1.07837 1.04383 0.838052 0.828362 0.797774 0.768285 0.76412 0.753105 0.749774 0.563179 0.503453 0.475983
threshold=-0.32973449433016538 0.46870584881715588 -1.1276144765426006 0.99940061097948407 0.045985055438168512 -0.72091405680924325 -1.6527110213142084 1.3519659998696409 0.70790150142813124 -1.3909402924665486 0.23968350578225087 -0.55146869738304471 -0.93665773828888865 -2.0062121603000147 -0.15249217718917066 1.6061464779789263 1.1411748052773576 -1.2721051151857046 0.84300476257756718 -1.8222865081883159 -0.43558491211773476 0.35036583734590315 -0.83002260101449588 0.57040559275295977 -0.056151131270498464 -2.2420111748900928 -1.5213593667174301 0.1433369843543407 -0.24999498213266033 -0.62268841706584777
decision_type=2 2 2 2 2 2 2 2 2 2 2 2 2 2 2 2 2 2 2 2 2 2 2 2 2 2 2 2 2 2
left_child=2 4 6 8 14 12 13 16 23 26 27 29 -4 25 28 -9 -5 -11 -10 -15 -13 -12 -14 -3 -16 -1 -8 -6 -2 -7
right_child=1 3 5 7 10 11 9 15 18 17 21 20 22 19 24 -17 -18 -19 -20 -21 -22 -23 -24 -25 -26 -27 -28 -29 -30 -31
leaf_value=-0.072747224995068138 0.00012446545204964371 0.028279348255859482 -0.025892291377697677 0.047431874955877848 0.01356095945137361 -0.013549060469108915 -0.045194569549390246 0.061439647277196252 0.03737890596497697 -0.036374835244246888 0.02052610057923529 -0.0067707306647926211 -0.0205900705073561 -0.056736802362969942 0.0065099072488971829 0.072190570720919861 0.053774570131007539 -0.031659698933362963 0.042234357998326977 -0.050505185233695175 -0.0031744959442243899 0.02444273598768093 -0.01690246593449023 0.032377684030513214 0.010081669673422314 -0.063278575170607795 -0.040642560866414289 0.016838826795855723 0.0031932405519114202 -0.010249419417714825
leaf_weight=28 243 216 420 162 252 252 168 108 243 224 270 324 280 112 297 54 162 280 216 168 324 270 308 243 302 84 196 273 297 193
leaf_count=28 243 216 420 162 252 252 168 108 243 224 270 324 280 112 297 54 162 280 216 168 324 270 308 243 302 84 196 273 297 193
internal_value=1.69248e-11 0.0236208 -0.0253567 0.0421019 0.0118479 -0.0144982 -0.0434627 0.0554099 0.0350564 -0.0375245 0.0189258 -0.00788175 -0.0216726 -0.0566115 0.0052298 0.0650233 0.0506032 -0.0337553 0.0396638 -0.0529978 -0.00497261 0.0224844 -0.0186585 0.0304491 0.0083107 -0.0656457 -0.0427435 0.0152655 0.00181229 -0.012118
internal_weight=6969 3608 3361 1404 2204 2101 1260 486 918 868 1065 1093 1008 392 1139 162 324 504 459 280 648 540 588 459 599 112 364 525 540 445
internal_count=6969 3608 3361 1404 2204 2101 1260 486 918 868 1065 1093 1008 392 1139 162 324 504 459 280 648 540 588 459 599 112 364 525 540 445
is_linear=0
shrinkage=0.05


Tree=8
num_leaves=31
num_cat=0
split_feature=3 3 3 3 3 3 3 3 3 3 3 3 3 3 3 3 3 3 3 3 3 3 3 3 3 3 3 3 3 3
split_gain=1506.92 263.687 258.945 42.9886 39.3486 38.4772 36.383 7.22123 6.58316 5.88963 5.44039 5.03533 5.02832 5.00953 3.44506 1.45301 1.31598 0.932362 0.915644 0.908104 0.780017 0.687533 0.675296 0.661536 0.634658 0.624118 0.616642 0.597141 0.564581 0.563554
threshold=-0.27474616389189432 -1.0637436322051206 0.54612180867757909 -1.5620274780237784 0.12382809091897991 1.0926145842536965 -0.63467238482337429 -1.8679892299369603 0.80313547842794653 -1.2903909467330819 1.5234397376768334 -0.84792801644065718 0.33124821844925889 -0.074833967528269818 -0.45416301440473217 -2.1434361886776299 1.2844455410300577 0.9573386559380247 -1.4126262932494154 0.67591821902454374 -1.7114406350069731 -0.17053912016049613 -0.74367543958985838 -0.95020737482783524 0.44355717222156121 0.2277495982816278 -1.1770838894009312 0.022102653111950501 -0.36387622711340345 1.7348434546719027
decision_type=2 2 2 2 2 2 2 2 2 2 2 2 2 2 2 2 2 2 2 2 2 2 2 2 2 2 2 2 2 2
left_child=1 3 4 7 13 8 11 15 19 18 16 23 25 21 -8 -1 -7 -10 -5 -4 -9 -2 -13 -3 -14 -6 -11 -15 -16 -12
right_child=2 6 5 9 12 10 14 20 17 26 29 22 24 27 28 -17 -18 -19 -20 -21 -22 -23 -24 -25 -26 -27 -28 -29 -30 -31
leaf_value=-0.065831320200647622 0.0022828408285550036 -0.023725431660811105 0.029749523832964798 -0.039582859857806137 0.015530624847538425 0.04890138998075768 -0.008181280266425275 -0.049503960098539079 0.038633532251840762 -0.031069870798715524 0.063609376328962824 -0.016718860822064537 0.02242740198969841 0.0087535637211711963 -0.0040109157424282147 -0.056301711669989998 0.055585584331441812 0.043530520851965307 -0.03506196484501873 0.034205205324623324 -0.044450618362142924 0.0056133599857790305 -0.013326115395341601 -0.020102488805377294 0.026063613579780973 0.018934667821774269 -0.02735983928931611 0.01204294663188713 -0.0007774638992621612 0.072456488785920314
leaf_weight=56 324 252 243 224 302 162 491 140 243 224 54 308 270 272 270 140 135 162 224 216 168 297 280 252 216 243 224 280 270 27
leaf_count=56 324 252 243 224 302 162 491 140 243 224 54 308 270 272 270 140 135 162 224 216 168 297 280 252 216 243 224 280 270 27
internal_value=7.9424e-11 -0.0229949 0.0235087 -0.0398398 0.0132197 0.041767 -0.0118866 -0.0515219 0.035946 -0.0332686 0.0550723 -0.0182467 0.0203458 0.00695635 -0.00515021 -0.0590245 0.0519397 0.0405923 -0.0373224 0.0318463 -0.0467476 0.0038757 -0.0151033 -0.021914 0.0240435 0.0170484 -0.0292149 0.0104221 -0.00239419 0.0665584
internal_weight=6969 3523 3446 1400 2204 1242 2123 504 864 896 378 1092 1031 1173 1031 196 297 405 448 459 308 621 588 504 486 545 448 552 540 81
internal_count=6969 3523 3446 1400 2204 1242 2123 504 864 896 378 1092 1031 1173 1031 196 297 405 448 459 308 621 588 504 486 545 448 552 540 81
is_linear=0
shrinkage=0.05


Tree=9
num_leaves=31
num_cat=0
split_feature=3 3 3 3 3 3 3 3 3 3 3 3 3 3 3 3 3 3 3 3 3 3 3 3 3 3 3 3 3 3
split_gain=1360.05 255.804 215.389 41.4719 35.1241 33.9201 30.8342 7.36475 5.88375 5.08498 4.85308 4.57904 4.24332 4.22377 4.21073 1.4334 1.06811 0.892205 0.837215 0.752656 0.749904 0.702893 0.632521 0.630286 0.617155 0.561666 0.552729 0.491819 0.478803 0.450971
threshold=-0.32973449433016538 0.48109488986179128 -1.147013984577067 0.99940061097948407 0.057711161368218945 -0.73276920802409728 -1.6527110213142084 1.4003432299245155 0.70790150142813124 -1.3909402924665486 -0.56146121109824965 0.25300786816931764 -0.93665773828888865 -2.0062121603000147 -0.14334618727760437 1.1697044676839476 1.7348434546719027 0.83122514464042696 -1.8222865081883159 -1.2721051151857046 -0.44179251001080455 0.36098248403138616 -2.2420111748900928 -0.048084496900668551 -1.5213593667174301 -0.83952684200961214 0.5939338373311327 -1.0391493922521713 -0.239600366817285 0.1433369843543407
decision_type=2 2 2 2 2 2 2 2 2 2 2 2 2 2 2 2 2 2 2 2 2 2 2 2 2 2 2 2 2 2
left_child=2 4 6 8 14 12 13 15 26 24 -7 29 27 22 28 -5 -9 -10 -15 -11 -12 -13 -1 -16 -8 -14 -3 -4 -2 -6
right_child=1 3 5 7 11 10 9 16 17 19 20 21 25 18 23 -17 -18 -19 -20 -21 -22 -23 -24 -25 -26 -27 -28 -29 -30 -31
leaf_value=-0.06581829828875406 0.00025551147188943344 0.026091059557940246 -0.025196091005844731 0.043238657776010103 0.012402410542459361 -0.011319502707019514 -0.040793440561918991 0.057715016548280366 0.033460148189354826 -0.032827946863004137 -0.0063326739533631901 0.018856938696569868 -0.018761445345386627 -0.05116984732449055 0.006151762859337659 0.049648078301070653 0.06883366483229178 0.037876653131634123 -0.045588950422548118 -0.028844605812004639 -0.0029968842646462628 0.022464782303130187 -0.057140733230681653 0.0093930313886195528 -0.036663582130354276 -0.015578512324915304 0.029696297361737206 -0.021882768813520671 0.0031647548424424952 0.015367413341999054
leaf_weight=28 270 243 224 189 224 446 168 108 216 224 324 270 252 112 297 162 27 243 168 252 351 270 84 303 196 308 189 224 297 300
leaf_count=28 270 243 224 189 224 446 168 108 216 224 324 270 252 112 297 162 27 243 168 252 351 270 84 303 196 308 189 224 297 300
internal_value=2.57049e-11 0.0213188 -0.0228855 0.038265 0.0108594 -0.0132569 -0.0395246 0.050014 0.0318565 -0.034121 -0.00727225 0.0174297 -0.0199124 -0.0511038 0.00486897 0.0461969 0.0599387 0.0357983 -0.0478213 -0.0307191 -0.00459806 0.0206609 -0.0593101 0.0077886 -0.0385697 -0.0170108 0.0276684 -0.0235394 0.0017794 0.0140999
internal_weight=6969 3608 3361 1377 2231 2129 1232 486 891 840 1121 1064 1008 392 1167 351 135 459 280 476 675 540 112 600 364 560 432 448 567 524
internal_count=6969 3608 3361 1377 2231 2129 1232 486 891 840 1121 1064 1008 392 1167 351 135 459 280 476 675 540 112 600 364 560 432 448 567 524
is_linear=0
shrinkage=0.05


Tree=10
num_leaves=31
num_cat=0
split_feature=3 3 3 3 3 3 3 3 3 3 3 3 3 3 3 3 3 3 3 3 3 3 3 3 3 3 3 3 3 3
split_gain=1227.56 217.541 207.912 33.7643 32.8622 32.586 28.8578 5.89204 5.81699 4.49303 4.4143 4.35232 4.19372 4.01395 2.68933 1.19912 1.07043 0.874894 0.761065 0.645817 0.642403 0.617152 0.579332 0.568506 0.525946 0.515329 0.492589 0.480711 0.461071 0.444284
threshold=-0.2911406486095372 0.52962446711322031 -1.0735943877813587 -1.5620274780237784 0.10361306929581288 1.0926145842536965 -0.64605894861181978 -1.8679892299369603 0.80313547842794653 1.5234397376768334 -1.3035310499500523 0.31896053019189724 -0.86790429527366586 -0.090876792543141308 -0.47109035012399209 -2.1434361886776299 1.2844455410300577 0.65410683324399699 0.9573386559380247 -1.4301910387780428 -1.6877917943462069 -0.76310673818922825 0.21512867743650127 -0.18688462197285999 -1.1865342010261062 0.43192665296461541 -0.97390328909094859 0.0091768139638032913 -0.37489250634296328 -0.57519511133653689
decision_type=2 2 2 2 2 2 2 2 2 2 2 2 2 2 2 2 2 2 2 2 2 2 2 2 2 2 2 2 2 2
left_child=2 4 3 7 13 8 12 15 17 16 19 22 26 23 29 -1 -7 -3 -10 -5 -9 -14 -6 -2 -12 -13 -4 -15 -16 -8
right_child=1 5 6 10 11 9 14 20 18 -11 24 25 21 27 28 -17 -18 -19 -20 -21 -22 -23 -24 -25 -26 -27 -28 -29 -30 -31
leaf_value=-0.05946577957698277 0.0015135286173826451 0.026391813717015978 -0.022035161139709609 -0.036013325957619413 0.01355948265180487 0.044134150997356132 -0.0096690848011236931 -0.044277116372471767 0.034857095207697079 0.06015943597864222 -0.028495426369564876 0.019894223682306433 -0.01566308963221389 0.0074681632383257757 -0.003984599137170748 -0.050808715841599877 0.050162563986248444 0.030634682524351427 0.03928142741874413 -0.032083283311554363 -0.039691153935023718 -0.012497855761608521 0.016774421225114126 0.0045420634952257786 -0.025069076940417292 0.02317081031010107 -0.018812669742675054 0.010434941953373335 -0.0010478323220178092 -0.006537041337125832
leaf_weight=56 324 243 224 196 331 162 195 168 243 81 224 270 308 298 297 140 135 243 162 224 140 308 243 297 224 216 252 252 243 270
leaf_count=56 324 243 224 196 331 162 195 168 243 81 224 270 308 298 297 140 135 243 162 224 140 308 243 297 224 216 252 252 243 270
internal_value=7.87019e-11 0.0208917 -0.0210784 -0.0362116 0.0114905 0.0374199 -0.0111773 -0.0465052 0.0322012 0.0497211 -0.0302347 0.0178686 -0.0168042 0.0057169 -0.00506321 -0.0532822 0.0468743 0.0285132 0.0366268 -0.0339173 -0.0421926 -0.0140805 0.0149205 0.00296196 -0.0267823 0.0213505 -0.0203291 0.00882749 -0.00266305 -0.00785048
internal_weight=6969 3500 3469 1372 2231 1269 2097 504 891 378 868 1060 1092 1171 1005 196 297 486 405 420 308 616 574 621 448 486 476 550 540 465
internal_count=6969 3500 3469 1372 2231 1269 2097 504 891 378 868 1060 1092 1171 1005 196 297 486 405 420 308 616 574 621 448 486 476 550 540 465
is_linear=0
shrinkage=0.05


Tree=11
num_leaves=31
num_cat=0
split_feature=3 3 3 3 3 3 3 3 3 3 3 3 3 3 3 3 3 3 3 3 3 3 3 3 3 3 3 3 3 3
split_gain=1107.97 193.869 190.446 31.6536 28.916 28.34 26.8414 5.83071 4.84007 4.06375 3.93455 3.85503 3.69355 3.68449 2.25739 1.11198 0.784705 0.708928 0.695932 0.666954 0.575835 0.556447 0.525843 0.504902 0.490392 0.467067 0.459592 0.455144 0.441852 0.369995
threshold=-0.27474616389189432 -1.0637436322051206 0.54612180867757909 -1.5386324099454154 0.12382809091897991 1.0926145842536965 -0.62268841706584777 -1.8679892299369603 0.81621188234990083 1.4540509418713594 -0.84792801644065718 -1.2903909467330819 0.33124821844925889 -0.074833967528269818 -0.44179251001080455 -2.0522652159901309 0.68824755752184374 -1.6877917943462069 1.7348434546719027 1.259054449290574 0.9573386559380247 -0.74367543958985838 -1.4126262932494154 -0.17053912016049613 -0.96016170074998652 0.44355717222156121 -1.1578625573817798 0.2277495982816278 0.031459855148659559 -0.36387622711340345
decision_type=2 2 2 2 2 2 2 2 2 2 2 2 2 2 2 2 2 2 2 2 2 2 2 2 2 2 2 2 2 2
left_child=1 3 4 7 13 8 10 15 16 19 24 22 27 23 -8 -1 -4 -9 -11 -7 -10 -12 -5 -2 -3 -14 -13 -6 -15 -16
right_child=2 6 5 11 12 9 14 17 20 18 21 26 25 28 29 -17 -18 -19 -20 -21 -22 -23 -24 -25 -26 -27 -28 -29 -30 -31
leaf_value=-0.054966760462238674 0.0019580342123474651 -0.020533023375485626 0.02572315437374292 -0.03360801767937991 0.013320867416282365 0.041471214691797896 -0.0066787633923243508 -0.042063260788009288 0.033373866506196836 0.053114840793020937 -0.014335144959486923 -0.026461278493442233 0.019225816428661349 0.007640777201702198 -0.0033488536590840592 -0.047356525968228071 0.029766422275591783 -0.037469891494228726 0.062384013114152127 0.04644132452982444 0.037317356025731128 -0.011329611855280863 -0.03006175615425621 0.0048121316678295233 -0.017394292652606964 0.022345200974356244 -0.023233029854540923 0.016227806822507958 0.010480768913550983 -0.00065954035344677534
leaf_weight=84 324 224 270 196 302 135 490 168 216 81 308 252 270 300 243 112 216 168 27 135 162 308 224 297 280 216 196 243 252 270
leaf_count=84 324 224 270 196 302 135 490 168 216 81 308 252 270 300 243 112 216 168 27 135 162 308 224 297 280 216 196 243 252 270
internal_value=6.74268e-12 -0.0197175 0.020158 -0.0341612 0.0113343 0.0358163 -0.0101926 -0.0437645 0.0308206 0.0472351 -0.015513 -0.0282753 0.0174431 0.00596504 -0.00425169 -0.0506181 0.0275202 -0.0397666 0.0554321 0.0439563 0.0350639 -0.0128324 -0.0317167 0.00332304 -0.0187893 0.0206122 -0.0250489 0.014617 0.0089373 -0.00193343
internal_weight=6969 3523 3446 1400 2204 1242 2123 532 864 378 1120 868 1031 1173 1003 196 486 336 108 270 378 616 420 621 504 486 448 545 552 513
internal_count=6969 3523 3446 1400 2204 1242 2123 532 864 378 1120 868 1031 1173 1003 196 486 336 108 270 378 616 420 621 504 486 448 545 552 513
is_linear=0
shrinkage=0.05


Tree=12
num_leaves=31
num_cat=0
split_feature=0 0 0 1 0 1 1 0 1 0 5 1 0 13 0 13 13 0 17 1 13 17 17 1 13 5 5 13 17 13
split_gain=837.232 140.771 138.72 35.0706 21.8229 20.829 15.7835 7.8828 7.78704 4.65467 4.59594 4.59235 4.34736 3.74208 3.59171 2.66367 2.58175 2.47713 2.0877 2.00251 1.97339 1.86015 1.84424 1.77343 1.68393 1.62318 1.39982 1.20839 1.51877 1.14137
threshold=-0.2666465612728896 -1.1636562923115914 0.49075402066963553 -0.56146121109824965 0.96527166119938301 0.12382809091897991 -1.3560453488821003 -0.67262722388882401 0.51537459151767251 -0.65185741668696118 -0.52556493028217 -1.0468299377933461 -1.5757031368555194 0.55577110787904271 0.18945344208579304 -0.51945485287696636 0.092481828118889317 0.18211890265418415 11.500000000000002 -0.13589969160385915 -1.1005969626248342 9.5000000000000018 12.500000000000002 0.45311403544953915 -0.51006899072968082 0.86071863150795258 -0.096332799961039037 0.40787026944284871 5.5000000000000009 -0.17665439374722733
decision_type=2 2 2 2 2 2 2 2 2 2 2 2 2 2 2 2 2 2 2 2 2 2 2 2 2 2 2 2 2 2
left_child=1 6 5 7 8 10 12 11 26 -5 -2 -3 20 -6 24 18 -10 27 -8 -11 -1 25 -18 -16 -7 -15 -4 28 -12 -13
right_child=2 3 4 9 13 14 15 -9 16 19 17 29 -14 21 23 -17 22 -19 -20 -21 -22 -23 -24 -25 -26 -27 -28 -29 -30 -31
leaf_value=-0.042024995802321302 -0.002597688441202211 -0.022139475211980519 0.0078381833861823434 -0.0080780766132610964 0.03155747805858216 0.0033623571034695487 -0.018719625610906582 -0.0097548945076512492 0.020257777181000282 -0.0027353056569343732 0.0082220851695528323 -0.015706337815483501 -0.031779995961831169 0.036080951154941608 0.014883327236355007 -0.016319252033831506 0.03107707949727774 0.010274685110241452 -0.027822747206412302 0.0028078665572618859 -0.033702416950836776 0.032199600417363021 0.018779042213590762 0.021102508798807484 0.012920219502899542 0.044211568461175549 0.019725891444649094 0.0092113321779955497 0.0022639453415109821 -0.0080531808865809285
leaf_weight=276 175 373 27 296 171 52 77 445 78 418 141 498 299 84 222 82 400 270 346 267 96 57 33 237 405 228 299 120 443 54
leaf_count=276 175 373 27 296 171 52 77 445 78 418 141 498 299 84 222 82 400 270 346 267 96 57 33 237 405 228 299 120 443 54
internal_value=3.26507e-11 -0.0171203 0.017543 -0.0100554 0.0298352 0.00934629 -0.0312439 -0.0152231 0.0247794 -0.0028387 0.00486264 -0.0178537 -0.0362691 0.0376717 0.0149704 -0.0245669 0.0286314 0.00620305 -0.0261657 -0.000574682 -0.0398772 0.0405052 0.0301398 0.0180945 0.0118327 0.0420226 0.0187413 0.00464148 0.00370247 -0.0149577
internal_weight=6969 3527 3442 2351 1377 2065 1176 1370 837 981 1149 925 671 540 916 505 511 974 423 685 372 369 433 459 457 312 326 704 584 552
internal_count=6969 3527 3442 2351 1377 2065 1176 1370 837 981 1149 925 671 540 916 505 511 974 423 685 372 369 433 459 457 312 326 704 584 552
is_linear=0
shrinkage=0.05


Tree=13
num_leaves=31
num_cat=0
split_feature=0 4 4 0 0 1 4 1 4 4 4 0 0 1 1 0 1 13 4 0 8 1 13 4 1 17 5 4 5 4
split_gain=755.602 131.6 128.741 25.5515 21.9167 20.6668 17.0332 6.86753 5.75994 5.63125 5.30737 4.86261 4.27445 3.16023 2.8585 2.69746 2.48922 2.32666 2.25903 2.17936 1.57056 1.47518 1.4389 1.37248 1.3652 1.21739 1.09456 1.03544 0.973688 0.969461
threshold=-0.2666465612728896 -0.99989216392943192 0.44561534340837178 -1.3713393362482658 0.68325863876258996 -0.50281018966208679 -0.1869867362744804 0.24384369658629981 0.96880779663849559 -1.5108899903753841 -0.38425960118591335 -0.67262722388882401 -0.79869856169685649 0.26748477913736751 -0.68088434023245192 0.40323811180040048 -1.0578018449286357 0.49120214683622498 -1.3384045699109999 0.19892616451816295 1.0372612158125665 -1.1904376990565175 -1.0033505356530865 0.76888042070540652 -0.028094316376723123 9.5000000000000018 -0.68266913865907763 -0.47890812053566406 0.6424998218055008 -0.38425960118591335
decision_type=2 2 2 2 2 2 2 2 2 2 2 2 2 2 2 2 2 2 2 2 2 2 2 2 2 2 2 2 2 2
left_child=1 3 6 9 13 11 14 19 20 22 -7 16 18 -4 -2 -9 -3 -10 -5 -8 -6 -11 -1 -15 -16 28 -20 -13 -19 -18
right_child=2 5 4 12 8 10 7 15 17 21 -12 27 -14 23 24 -17 29 25 26 -21 -22 -23 -24 -25 -26 -27 -28 -29 -30 -31
leaf_value=-0.038634678275179427 -0.0085805390674723921 -0.019419925558613615 0.01438479410245708 -0.026394872673290926 0.024910427642121813 -0.0058197129405416666 0.0066295350153622373 0.013107477583927662 0.030542022942637023 -0.030936203303165957 0.0020832369217147202 -0.0099108029001771288 -0.014140292627466678 0.020488714098025756 0.0010111025654078317 0.02012649659457541 -0.013670717082843314 0.031756789213226687 -0.021565844539464231 0.011926927567387665 0.031230274957012045 -0.023297907565922843 -0.030418147086616488 0.026644212918149102 0.0061710135293249896 0.030767362163617064 -0.014036301611677597 -0.0048538298440537198 0.041109466574647847 -0.0071211165551526047
leaf_weight=379 61 200 158 274 153 418 501 357 104 202 432 257 175 244 367 222 432 31 315 317 275 92 62 144 197 39 57 167 272 65
leaf_count=379 61 200 158 274 153 418 501 357 104 202 432 257 175 244 367 222 432 31 315 317 275 92 62 144 197 39 57 167 272 65
internal_value=2.76708e-11 -0.0162642 0.0166659 -0.0271343 0.0282049 -0.00768288 0.00856233 0.0116318 0.0331146 -0.0339061 -0.00180315 -0.0121412 -0.0210719 0.0203458 0.00170136 0.0157987 -0.0147096 0.0370909 -0.0229497 0.00868244 0.0289711 -0.028546 -0.0374795 0.0227732 0.00281341 0.0390823 -0.0204121 -0.00791902 0.0401526 -0.0128141
internal_weight=6969 3527 3442 1556 1420 1971 2022 1397 874 735 850 1121 821 546 625 579 697 446 646 818 428 294 441 388 564 342 372 424 303 497
internal_count=6969 3527 3442 1556 1420 1971 2022 1397 874 735 850 1121 821 546 625 579 697 446 646 818 428 294 441 388 564 342 372 424 303 497
is_linear=0
shrinkage=0.05


Tree=14
num_leaves=31
num_cat=0
split_feature=3 3 3 3 3 3 3 3 3 3 3 3 3 3 3 3 3 3 3 3 3 3 3 3 3 3 3 3 3 3
split_gain=837.557 146.897 144.37 25.3798 22.9627 21.2522 19.2113 4.03973 3.90775 3.3994 3.36107 3.07983 2.91677 2.73546 1.52462 0.821425 0.756789 0.673089 0.553592 0.472378 0.448622 0.436388 0.431229 0.430018 0.364725 0.356305 0.330184 0.325236 0.307755 0.300416
threshold=-0.27474616389189432 -1.0523991797330174 0.55857307920360622 -1.5848527434977726 0.13468106488853451 1.0926145842536965 -0.61408360855663535 -1.9605105247421972 -1.3191537940211184 1.5234397376768334 0.81621188234990083 -0.066731999639333739 -0.82122840901315242 0.34004185135591153 -0.42087769611730802 1.2844455410300577 -1.7650739976693524 -2.2420111748900928 -1.1865342010261062 0.67591821902454374 -1.4467979861072264 -0.17053912016049613 -0.92615715848170377 0.93100144653700656 1.7348434546719027 0.039305208217118991 0.45746993882412434 0.23968350578225087 -0.73276920802409728 -0.53947027408425285
decision_type=2 2 2 2 2 2 2 2 2 2 2 2 2 2 2 2 2 2 2 2 2 2 2 2 2 2 2 2 2 2
left_child=1 3 4 7 11 10 12 17 20 15 19 21 22 27 29 -7 -9 -1 -10 -4 -5 -2 -3 -12 -11 -13 -15 -6 -14 -8
right_child=2 6 5 8 13 9 14 16 18 24 23 25 28 26 -16 -17 -18 -19 -20 -21 -22 -23 -24 -25 -26 -27 -28 -29 -30 -31
leaf_value=-0.05300629607268742 0.0016396414024442225 -0.017120390135262696 0.022373737629365037 -0.030148660041848008 0.011917401771014711 0.036357788300072712 -0.0069359330014170453 -0.038771011254617148 -0.023650200079594341 0.047941462640409119 0.028755402060412855 0.0068557918603931152 -0.011925553450626987 0.017011826838608142 -0.0013655358917714223 0.041638688136030132 -0.033957799660916235 -0.044339030262615001 -0.02041991158255509 0.025587333383138289 -0.026873120572417974 0.0042347093132887913 -0.014345408739256008 0.032128254935224219 0.055058782409738619 0.0094041463194621949 0.019634581674580223 0.014376537553935385 -0.009569468777384852 -0.004475978153235043
leaf_weight=28 324 280 216 196 301 162 192 140 252 54 189 301 252 270 432 135 196 112 280 243 224 324 280 189 27 252 216 243 308 351
leaf_count=28 324 280 216 196 301 162 192 140 252 54 189 301 252 270 432 135 196 112 280 243 224 324 280 189 27 252 216 243 308 351
internal_value=-2.20325e-12 -0.0171433 0.0175263 -0.0295098 0.00997384 0.0313943 -0.00871396 -0.0389366 -0.0247964 0.0412344 0.0269504 0.00527621 -0.0131813 0.0154514 -0.00358223 0.0387582 -0.0359633 -0.0460725 -0.02195 0.0240751 -0.0284017 0.00293718 -0.0157329 0.0304418 0.0503139 0.00801707 0.0181775 0.0130159 -0.0106297 -0.0053458
internal_weight=6969 3523 3446 1428 2231 1215 2095 476 952 378 837 1201 1120 1030 975 297 336 140 532 459 420 648 560 378 81 553 486 544 560 543
internal_count=6969 3523 3446 1428 2231 1215 2095 476 952 378 837 1201 1120 1030 975 297 336 140 532 459 420 648 560 378 81 553 486 544 560 543
is_linear=0
shrinkage=0.05


Tree=15
num_leaves=31
num_cat=0
split_feature=3 3 3 3 3 3 3 3 3 3 3 3 3 3 3 3 3 3 3 3 3 3 3 3 3 3 3 3 3 3
split_gain=755.963 136.864 126.28 22.9338 19.3554 19.1839 18.6296 4.32051 3.42861 2.81152 2.81043 2.77471 2.46875 2.43556 1.4604 0.888378 0.58569 0.506656 0.501697 0.411425 0.389184 0.360254 0.358283 0.329164 0.327577 0.313582 0.300297 0.293526 0.279384 0.26914
threshold=-0.25971929168648694 -1.0523991797330174 0.55857307920360622 -1.5386324099454154 0.13468106488853451 1.1233491526392123 -0.60681457918600656 -1.8679892299369603 0.83122514464042696 -0.82122840901315242 -1.2903909467330819 1.5234397376768334 0.34004185135591153 -0.056151131270498464 -0.4033297071733159 -2.1434361886776299 1.3118892584565074 -1.6877917943462069 0.68824755752184374 0.97413898204574079 -0.92615715848170377 -1.3909402924665486 -1.1578625573817798 1.7348434546719027 -0.16058186579365094 -0.73276920802409728 0.44355717222156121 0.23968350578225087 0.045985055438168512 -0.50281018966208679
decision_type=2 2 2 2 2 2 2 2 2 2 2 2 2 2 2 2 2 2 2 2 2 2 2 2 2 2 2 2 2 2
left_child=1 3 4 7 13 8 9 15 18 20 21 16 27 24 29 -1 -7 -9 -4 -10 -3 -5 -12 -13 -2 -11 -14 -6 -15 -8
right_child=2 6 5 10 12 11 14 17 19 25 22 23 26 28 -16 -17 -18 -19 -20 -21 -22 -23 -24 -25 -26 -27 -28 -29 -30 -31
leaf_value=-0.047479560385857315 0.001916106430871878 -0.016264370666550742 0.021435831861240873 -0.027502672513946891 0.011321531691622498 0.035345445242193012 -0.0059927626258256487 -0.034757656994320096 0.027962974997030366 -0.011329275801304788 -0.02181464900809621 0.045544389386971793 0.01602574612010163 0.006747055024105982 -0.00088634957744910007 -0.040028144121170048 0.040098978965370742 -0.030874481176336607 0.024648772020644125 0.031296293860600316 -0.013628138317061323 -0.024567410296627457 -0.019066359907654779 0.052305841997817716 0.0042150166765269311 -0.0089960110495753958 0.018511495582851364 0.013657710765614922 0.0090774834754743759 -0.0037966249461780181
leaf_weight=56 297 280 243 224 301 162 245 168 216 252 252 54 243 302 432 140 108 168 243 162 280 196 224 27 324 336 243 243 224 324
leaf_count=56 297 280 243 224 301 162 245 168 216 252 252 54 243 302 432 140 108 168 243 162 280 196 224 27 324 336 243 243 224 324
internal_value=-1.30302e-11 -0.0160363 0.0169109 -0.0280343 0.00970366 0.0298246 -0.00806365 -0.0362575 0.0258201 -0.0124107 -0.0231517 0.0396818 0.0146788 0.00523602 -0.00307816 -0.0421571 0.0372469 -0.0328161 0.0230423 0.0293915 -0.0149463 -0.0261329 -0.0205213 0.0477982 0.00311554 -0.00999598 0.0172686 0.0123651 0.00773948 -0.00474224
internal_weight=6969 3577 3392 1428 2177 1215 2149 532 864 1148 896 351 1030 1147 1001 196 270 336 486 378 560 420 476 81 621 588 486 544 526 569
internal_count=6969 3577 3392 1428 2177 1215 2149 532 864 1148 896 351 1030 1147 1001 196 270 336 486 378 560 420 476 81 621 588 486 544 526 569
is_linear=0
shrinkage=0.05


Tree=16
num_leaves=31
num_cat=0
split_feature=3 3 3 3 3 3 3 3 3 3 3 3 3 3 3 3 3 3 3 3 3 3 3 3 3 3 3 3 3 3
split_gain=682.321 130.404 106.605 21.4195 18.4789 16.2305 16.0844 3.63141 3.44483 2.7001 2.25776 2.24547 2.23611 2.2012 2.09509 0.612239 0.543284 0.541776 0.534919 0.431532 0.429579 0.356418 0.32628 0.320798 0.313648 0.307323 0.290005 0.272187 0.270594 0.253035
threshold=-0.33757228476754852 0.48109488986179128 -1.147013984577067 1.0383641414849831 0.057711161368218945 -0.73276920802409728 -1.6290247418324901 0.74495264971989716 1.4003432299245155 -2.0062121603000147 -0.57519511133653689 -0.14334618727760437 -1.3792361818838654 0.26170032314726471 -0.92615715848170377 1.7348434546719027 0.89497052046794756 -1.8222865081883159 1.2121715621563951 -2.2420111748900928 0.61103261274606313 -0.46374598064305439 -0.019743249234245624 -1.2367381943340308 0.36945605533383524 -1.0312342151399105 -1.4953628397413332 -0.239600366817285 0.15423968449258993 -0.82122840901315242
decision_type=2 2 2 2 2 2 2 2 2 2 2 2 2 2 2 2 2 2 2 2 2 2 2 2 2 2 2 2 2 2
left_child=2 4 6 7 11 14 9 20 18 19 -7 27 26 28 25 -10 -9 -11 -5 -1 -3 -12 -13 -14 -15 -4 -8 -2 -6 -16
right_child=1 3 5 8 13 10 12 16 15 17 21 22 23 24 29 -17 -18 -19 -20 -21 -22 -23 -24 -25 -26 -27 -28 -29 -30 -31
leaf_value=-0.047982005136353631 6.8445385174836768e-05 0.018552438269058863 -0.017676118814519474 0.031386407639509367 0.0089781022674980619 -0.0081568846687994599 -0.028341079290424079 0.024644347832158763 0.041272651818063527 -0.036314818050180164 -0.004780467983448145 0.004581876889009167 -0.022720675016679463 0.013563475407384061 -0.012946731328432048 0.04969054968268783 0.028139588410261446 -0.031955504873577428 0.035647961475231027 -0.040814516870748434 0.021544018753424841 -0.0024658603736358205 0.0069968830877998938 -0.020023577341011595 0.016039555240805747 -0.015130772212121106 -0.025510075407064695 0.0022090679355320814 0.011202277953309759 -0.010762811981378094
leaf_weight=28 297 270 252 162 252 419 168 270 108 112 297 378 252 270 280 27 189 196 135 84 216 378 222 196 243 224 196 297 299 252
leaf_count=28 297 270 252 162 252 419 168 270 108 112 297 378 252 270 280 27 189 196 135 84 216 378 222 196 243 224 196 297 299 252
internal_value=1.84911e-12 0.0149834 -0.0163361 0.0271105 0.00758786 -0.00949125 -0.0280146 0.0228942 0.0363337 -0.0359582 -0.00527388 0.00331799 -0.0239058 0.0123794 -0.0140684 0.0429562 0.0260836 -0.0335407 0.0333235 -0.0426064 0.019882 -0.00348429 0.00547543 -0.0215407 0.0147364 -0.0164783 -0.0268167 0.00113876 0.0101851 -0.0119122
internal_weight=6969 3635 3334 1377 2258 2102 1232 945 432 420 1094 1194 812 1064 1008 135 459 308 297 112 486 675 600 448 513 476 364 594 551 532
internal_count=6969 3635 3334 1377 2258 2102 1232 945 432 420 1094 1194 812 1064 1008 135 459 308 297 112 486 675 600 448 513 476 364 594 551 532
is_linear=0
shrinkage=0.05


Tree=17
num_leaves=31
num_cat=0
split_feature=3 3 3 3 3 3 3 3 3 3 3 3 3 3 3 3 3 3 3 3 3 3 3 3 3 3 3 3 3 3
split_gain=615.821 108.034 106.168 16.882 16.8578 16.0887 15.656 2.84923 2.53322 2.48077 2.44102 2.27498 2.11571 2.01025 1.67021 0.606684 0.509371 0.378089 0.367753 0.36113 0.345719 0.317045 0.316024 0.31577 0.305347 0.264224 0.259415 0.256055 0.254697 0.245759
threshold=-0.27474616389189432 -1.0863103913933416 0.55857307920360622 -1.6290247418324901 0.13468106488853451 -0.65501811638742835 1.0926145842536965 -1.3475973886077355 1.5234397376768334 0.81621188234990083 -1.9605105247421972 -0.066731999639333739 -0.87904634233412549 0.34004185135591153 -0.47109035012399209 1.2844455410300577 -2.2420111748900928 -1.2367381943340308 -1.4953628397413332 -1.7650739976693524 0.67591821902454374 -0.17053912016049613 -0.77964869083306321 0.93100144653700656 -0.36387622711340345 0.022102653111950501 1.7348434546719027 -0.58543945771068129 -0.99149741504165989 0.21512867743650127
decision_type=2 2 2 2 2 2 2 2 2 2 2 2 2 2 2 2 2 2 2 2 2 2 2 2 2 2 2 2 2 2
left_child=1 3 4 10 11 12 9 18 15 20 16 21 28 29 27 -8 -1 -9 -5 -12 -4 -2 -14 -11 -16 -13 -10 -7 -3 -6
right_child=2 5 6 7 13 14 8 17 26 23 19 25 22 -15 24 -17 -18 -19 -20 -21 -22 -23 -24 -25 -26 -27 -28 -29 -30 -31
leaf_value=-0.045582904240914754 0.0014104314598008376 -0.01584031452158732 0.019180847732005298 -0.026924025382669199 0.009991797638928844 -0.0070712025676454822 0.031166023255130394 -0.021252606299762822 0.04120353703145628 0.024661006577431213 -0.033260613190276282 0.0056569441316687338 -0.011415875298636302 0.015581964666154158 -0.0027664816234099828 0.035704448289341398 -0.038043048578713629 -0.018443431414954074 -0.023903947767047656 -0.029669305682182314 0.021930056626414077 0.0036223680700784851 -0.009141449306515002 0.027551283896284764 -0.00048978391212518488 0.0078571360667127298 0.04720602322507788 -0.0047428244618253684 -0.013523129560053349 0.012126306022959527
leaf_weight=28 324 224 216 168 247 196 162 196 54 189 140 245 280 486 324 135 112 308 252 140 243 324 336 189 270 308 27 297 252 297
leaf_count=28 324 224 216 168 247 196 162 196 54 189 140 245 280 486 324 135 112 308 252 140 243 324 336 189 270 308 27 297 252 297
internal_value=6.85889e-12 -0.0146999 0.0150283 -0.0258485 0.00855172 -0.0078234 0.0269208 -0.0220705 0.0353665 0.0231066 -0.0341603 0.00452671 -0.0121099 0.013245 -0.00351716 0.0332289 -0.039551 -0.0195359 -0.025112 -0.031465 0.0206363 0.0025164 -0.0101753 0.0261061 -0.00173162 0.00688237 0.0432044 -0.00566851 -0.0146136 0.0111571
internal_weight=6969 3523 3446 1344 2231 2179 1215 924 378 837 420 1201 1092 1030 1087 297 140 504 420 280 459 648 616 378 594 553 81 493 476 544
internal_count=6969 3523 3446 1344 2231 2179 1215 924 378 837 420 1201 1092 1030 1087 297 140 504 420 280 459 648 616 378 594 553 81 493 476 544
is_linear=0
shrinkage=0.05


Tree=18
num_leaves=31
num_cat=0
split_feature=3 3 3 3 3 3 3 3 3 3 3 3 3 3 3 3 3 3 3 3 3 3 3 3 3 3 3 3 3 3
split_gain=555.819 100.656 92.867 16.8891 14.2099 14.1467 13.7129 2.95285 2.52623 2.32332 2.06666 2.05517 1.81425 1.79873 1.0826 0.601941 0.459707 0.43139 0.368868 0.318917 0.302793 0.289493 0.284775 0.243704 0.237842 0.234122 0.228706 0.221798 0.206728 0.194959
threshold=-0.25971929168648694 -1.0523991797330174 0.55857307920360622 -1.5620274780237784 0.13468106488853451 1.1233491526392123 -0.60681457918600656 -1.9605105247421972 0.83122514464042696 -1.3035310499500523 1.5234397376768334 -0.82122840901315242 0.34004185135591153 -0.056151131270498464 -0.4033297071733159 -1.7337424036260669 -2.2420111748900928 1.3118892584565074 0.72593924107227448 -1.1770838894009312 0.97413898204574079 -1.4301910387780428 -0.93665773828888865 0.43192665296461541 -0.15249217718917066 1.7348434546719027 -0.73276920802409728 0.21512867743650127 0.045985055438168512 -0.50281018966208679
decision_type=2 2 2 2 2 2 2 2 2 2 2 2 2 2 2 2 2 2 2 2 2 2 2 2 2 2 2 2 2 2
left_child=1 3 4 7 13 8 11 16 18 21 17 22 27 24 29 -9 -1 -7 -4 -11 -10 -5 -3 -14 -2 -12 -13 -6 -15 -8
right_child=2 6 5 9 12 10 14 15 20 19 25 26 23 28 -16 -17 -18 -19 -20 -21 -22 -23 -24 -25 -26 -27 -28 -29 -30 -31
leaf_value=-0.043303758544581281 0.0017327169954936426 -0.014057293560888088 0.018652704493565996 -0.024173684729909412 0.0094922077468773611 0.030306192423090524 -0.005133157448501003 -0.031225068654332847 0.023976048889259499 -0.018992851171938201 0.039143361316786876 -0.0097170561522481949 0.013551056336749485 0.0057895944348925 -0.00074894486101615917 -0.02714643184931911 -0.036140896752476691 0.034385792359157848 0.021478328345313907 -0.016477355650729605 0.026835642359506941 -0.021542436742622937 -0.011790877916886435 0.015804314536077006 0.003691604012554443 0.044845723002045243 -0.0077244239615365156 0.011519990778631634 0.0077942300039077449 -0.0032640165706843507
leaf_weight=28 324 252 297 196 247 162 245 168 216 252 54 252 216 302 432 196 112 108 189 252 162 224 308 270 297 27 336 297 224 324
leaf_count=28 324 252 297 196 247 162 245 168 216 252 54 252 216 302 432 196 112 108 189 252 162 224 308 270 297 27 336 297 224 324
internal_value=-1.3224e-12 -0.0137505 0.0145005 -0.0240398 0.00831988 0.0255747 -0.00691337 -0.0314024 0.0221359 -0.0200239 0.0340394 -0.010643 0.0125827 0.00449187 -0.00263607 -0.0290289 -0.0375735 0.031938 0.0197516 -0.0177351 0.0252016 -0.0227704 -0.0128108 0.0148029 0.00266958 0.0410441 -0.00857841 0.0105993 0.00664328 -0.00406883
internal_weight=6969 3577 3392 1428 2177 1215 2149 504 864 924 351 1148 1030 1147 1001 364 140 270 486 504 378 420 560 486 621 81 588 544 526 569
internal_count=6969 3577 3392 1428 2177 1215 2149 504 864 924 351 1148 1030 1147 1001 364 140 270 486 504 378 420 560 486 621 81 588 544 526 569
is_linear=0
shrinkage=0.05


Tree=19
num_leaves=31
num_cat=0
split_feature=4 0 4 0 4 4 0 1 1 1 1 5 0 1 15 1 17 0 0 0 13 13 4 5 13 4 17 4 5 4
split_gain=406.007 77.3158 61.9367 16.01 13.3513 10.7445 6.81056 4.8849 3.68589 3.33062 2.78195 2.68546 1.86433 1.51662 1.51344 1.37391 1.3443 1.31835 1.21307 1.17322 0.868272 0.824039 0.759981 0.744053 0.692606 0.644736 0.605309 0.596925 0.523347 0.507732
threshold=-0.34480345790339179 0.44027298284827182 -1.2248992420151921 -0.67262722388882401 0.76888042070540652 0.23006718086235234 -1.4730589592950258 -0.47856367289024071 -0.84096773848014061 -0.59898417424136763 0.38996974660967537 0.75350370271869826 -0.17053912016049613 -1.2569025149124287 -2.0125514043407269 0.24384369658629981 7.5000000000000009 -0.28266271183939545 -1.3077655508147576 0.94294003359569734 0.59252029157047847 -0.6906618861542676 -0.8969627421768972 -1.1979171388906689 0.061031319749838685 0.36210383687972508 13.500000000000002 -0.83831085512791514 -0.20402918033453674 -0.47890812053566406
decision_type=2 2 2 2 2 2 2 2 2 2 2 2 2 2 2 2 2 2 2 2 2 2 2 2 2 2 2 2 2 2
left_child=2 5 6 8 10 7 14 -2 18 29 25 -6 -9 -8 23 28 20 -11 -4 24 -13 -14 -10 -1 -12 -3 -17 -20 -7 -5
right_child=1 4 3 9 11 15 13 12 22 17 19 16 21 -15 -16 26 -18 -19 27 -21 -22 -23 -24 -25 -26 -27 -28 -29 -30 -31
leaf_value=-0.028499218866980043 -0.0030017848725755608 0.0095238107927365315 -0.018178822040462343 -0.0078664210753063395 0.02085770737768999 0.0046719488712759424 -0.020904738301623788 0.0020214745005258101 -0.011602612417518461 -0.0032505571562385137 0.012608175680465399 0.025566754457743274 0.00065768188973324316 -0.015651916268546427 -0.021264887022736826 0.014183705071198916 0.024328531973282164 0.0012298231431271379 -0.014472996181426332 0.022940141404723072 0.031572545816500978 0.0064950476690935621 -0.0074906359018988887 -0.02188962185755372 0.01785073037068027 0.014489513313589254 0.0091040860411400592 -0.010912253752735163 0.0095972401851619742 -0.0030784853860047826
leaf_weight=377 261 168 156 319 268 70 298 469 161 357 84 92 66 255 114 269 239 304 312 91 174 720 372 48 252 107 75 189 235 67
leaf_count=377 261 168 156 319 268 70 298 469 161 357 84 92 66 255 114 269 239 304 312 91 174 720 372 48 252 107 75 189 235 67
internal_value=1.368e-11 0.0115414 -0.0126196 -0.00785456 0.0203699 0.00552659 -0.0223809 0.00322193 -0.0118222 -0.00334501 0.0153781 0.0249032 0.00451627 -0.0184826 -0.0263805 0.01091 0.0270501 -0.00118999 -0.0143286 0.017904 0.0294954 0.00600489 -0.00873272 -0.0277527 0.0165401 0.0114559 0.0130762 -0.0131297 0.00846685 -0.00703535
internal_weight=6969 3640 3329 2237 1475 2165 1092 1516 1190 1047 702 773 1255 553 539 649 505 661 657 427 266 786 533 425 336 275 344 501 305 386
internal_count=6969 3640 3329 2237 1475 2165 1092 1516 1190 1047 702 773 1255 553 539 649 505 661 657 427 266 786 533 425 336 275 344 501 305 386
is_linear=0
shrinkage=0.05


Tree=20
num_leaves=31
num_cat=0
split_feature=3 3 3 3 3 3 3 3 3 3 3 3 3 3 3 3 3 3 3 3 3 3 3 3 3 3 3 3 3 3
split_gain=459.426 87.9854 72.0027 14.653 12.5306 11.0747 10.866 2.4447 2.4025 1.74188 1.69101 1.52459 1.50571 1.44103 1.39434 0.425832 0.381194 0.378019 0.307918 0.307814 0.28842 0.267076 0.242173 0.23732 0.216292 0.212623 0.181915 0.172701 0.155825 0.155373
threshold=-0.33757228476754852 0.48109488986179128 -1.147013984577067 1.0383641414849831 0.057711161368218945 -1.6527110213142084 -0.73276920802409728 1.4003432299245155 0.74495264971989716 -2.0062121603000147 -1.3792361818838654 -0.11939126046805178 -0.55146869738304471 0.25300786816931764 -0.92615715848170377 1.6061464779789263 1.2121715621563951 0.89497052046794756 -1.8222865081883159 -2.2420111748900928 0.61957880348513561 -0.20539903604738585 -1.5213593667174301 0.36945605533383524 -1.2367381943340308 -1.0176547857216112 -0.42087769611730802 -0.82122840901315242 -0.019743249234245624 0.17282456363902907
decision_type=2 2 2 2 2 2 2 2 2 2 2 2 2 2 2 2 2 2 2 2 2 2 2 2 2 2 2 2 2 2
left_child=2 4 5 8 11 9 14 16 20 19 22 21 -8 29 25 -9 -5 -10 -11 -1 -3 -2 -7 -15 -12 -4 -14 -16 -13 -6
right_child=1 3 6 7 13 10 12 15 17 18 24 28 26 23 27 -17 -18 -19 -20 -21 -22 -23 -24 -25 -26 -27 -28 -29 -30 -31
leaf_value=-0.039752218659435005 0.00032526224719248728 0.015347159094481356 -0.014374726726008313 0.025713630590909795 0.0075768449537262517 -0.023597548556114949 -0.0064542039338869473 0.033170813579618201 0.020162513681032043 -0.029864932463637424 -0.018634649348400891 0.0039925265392470443 -0.0033960227122180478 0.011030308990065097 -0.010620230502848115 0.038902953984560791 0.029311098014866865 0.023078064178978955 -0.026480365606645746 -0.03369874755541484 0.017845728047310362 0.0023554220980818007 -0.021086257729413256 0.013137252585878098 -0.016420021265441058 -0.01222753010842265 -0.0016425414359948689 -0.0088159909250126005 0.0057436529597317855 0.0093259736222939364
leaf_weight=28 405 297 280 162 308 168 473 81 270 112 252 297 378 297 280 54 135 189 168 84 189 270 224 243 196 196 243 252 222 216
leaf_count=28 405 297 280 162 308 168 473 81 270 112 252 297 378 297 280 54 135 189 168 84 189 270 224 243 196 196 243 252 222 216
internal_value=-4.30176e-12 0.0122949 -0.0134049 0.0222562 0.00622011 -0.0230027 -0.00777949 0.0298847 0.0187689 -0.0299422 -0.0197642 0.00270399 -0.00432877 0.0101658 -0.0115246 0.0354637 0.0273488 0.021363 -0.0278342 -0.0352121 0.0163188 0.00113733 -0.0221625 0.0119784 -0.0176657 -0.0134906 -0.00270988 -0.00976559 0.00474156 0.00829786
internal_weight=6969 3635 3334 1377 2258 1232 2102 432 945 392 840 1194 1094 1064 1008 135 297 459 280 112 486 675 392 540 448 476 621 532 519 524
internal_count=6969 3635 3334 1377 2258 1232 2102 432 945 392 840 1194 1094 1064 1008 135 297 459 280 112 486 675 392 540 448 476 621 532 519 524
is_linear=0
shrinkage=0.05


Tree=21
num_leaves=31
num_cat=0
split_feature=3 3 3 3 3 3 3 3 3 3 3 3 3 3 3 3 3 3 3 3 3 3 3 3 3 3 3 3 3 3
split_gain=414.721 75.2292 69.369 12.3995 10.7778 10.6545 10.6534 2.2273 2.12428 1.74461 1.5315 1.45798 1.32413 1.15895 1.03404 0.343021 0.308896 0.287423 0.27946 0.277802 0.253027 0.242852 0.230793 0.213628 0.197417 0.192597 0.18874 0.161054 0.146897 0.135067
threshold=-0.25971929168648694 -1.0637436322051206 0.55857307920360622 -1.6290247418324901 1.1411748052773576 0.11404842498612223 -0.63467238482337429 -1.3327559056828375 0.84300476257756718 -2.0062121603000147 0.31896053019189724 1.5234397376768334 -0.83952684200961214 -0.090876792543141308 -0.42848997493749902 -1.8222865081883159 0.72593924107227448 -1.1962843267664203 -1.4661750796135649 -2.2420111748900928 1.3519659998696409 0.41937189381598466 0.97413898204574079 1.0000000180025095e-35 -0.97390328909094859 -0.55146869738304471 1.7348434546719027 0.19831274592577294 -0.77266124197564334 -0.35087342463200272
decision_type=2 2 2 2 2 2 2 2 2 2 2 2 2 2 2 2 2 2 2 2 2 2 2 2 2 2 2 2 2 2
left_child=1 3 5 9 8 13 12 18 16 19 27 20 24 -2 25 -11 -4 -9 -5 -1 -6 -12 -10 -15 -3 -8 -13 -7 -14 -16
right_child=2 6 4 7 11 10 14 17 22 15 21 26 28 23 29 -17 -18 -19 -20 -21 -22 -23 -24 -25 -26 -27 -28 -29 -30 -31
leaf_value=-0.037764606731278558 0.0019640555125610987 -0.012596739482666767 0.016114912089273986 -0.02168561689156507 0.026828646273524676 0.0078845074721967372 -0.0051718824821191407 -0.016876917628068772 0.020865565428027401 -0.028371685264366016 0.011405467962531887 0.034008790718184578 -0.0089558731061311399 0.0042024618918421091 -0.001875269284398571 -0.024902971712302189 0.018599931033397164 -0.014549322945198843 -0.019188030882339394 -0.032013810177644091 0.030251250333256194 0.013536827908421208 0.023336524512401965 0.0061291253351449197 -0.010600002076742906 -0.0032876110229073385 0.039128735109611797 0.0096086518117775438 -0.0072580529202881097 -0.00023203731998548412
leaf_weight=28 513 196 297 224 162 249 221 252 189 112 243 54 196 270 216 196 216 280 224 84 81 297 189 308 336 351 27 297 364 297
leaf_count=28 513 196 297 224 162 249 221 252 189 112 243 54 196 270 216 196 216 280 224 84 81 297 189 308 336 351 27 297 364 297
internal_value=9.28705e-12 -0.0118777 0.0125255 -0.0209198 0.0220967 0.00718373 -0.00606282 -0.0178393 0.0192569 -0.0281076 0.0106897 0.029906 -0.00954931 0.00369385 -0.00255383 -0.0261643 0.0171612 -0.0156519 -0.0204368 -0.0334515 0.0279695 0.0125777 0.022101 0.00522913 -0.0113356 -0.00401562 0.0357154 0.00882237 -0.00785229 -0.000923924
internal_weight=6969 3577 3392 1400 1215 2177 2177 980 891 420 1086 324 1092 1091 1085 308 513 532 448 112 243 540 378 578 532 572 81 546 560 513
internal_count=6969 3577 3392 1400 1215 2177 2177 980 891 420 1086 324 1092 1091 1085 308 513 532 448 112 243 540 378 578 532 572 81 546 560 513
is_linear=0
shrinkage=0.05


Tree=22
num_leaves=31
num_cat=0
split_feature=3 3 3 3 3 3 3 3 3 3 3 3 3 3 3 3 3 3 3 3 3 3 3 3 3 3 3 3 3 3
split_gain=374.286 67.8997 62.6055 10.4483 10.4196 9.7333 9.62343 1.72123 1.62553 1.57451 1.50704 1.4551 1.2367 1.2013 0.938099 0.402136 0.316959 0.268354 0.250716 0.243415 0.232281 0.22121 0.203164 0.170337 0.165955 0.165659 0.153767 0.143992 0.14208 0.126377
threshold=-0.25971929168648694 -1.0863103913933416 0.55857307920360622 -1.6290247418324901 -0.63467238482337429 1.0926145842536965 0.13468106488853451 -1.3475973886077355 1.5234397376768334 -2.0062121603000147 0.83122514464042696 -0.89191052684215322 -0.056151131270498464 0.35036583734590315 -0.46374598064305439 1.2844455410300577 -1.7650739976693524 -0.77266124197564334 -2.2420111748900928 0.67591821902454374 -1.2367381943340308 -1.4953628397413332 -0.36387622711340345 1.7348434546719027 0.23968350578225087 -0.17053912016049613 0.93100144653700656 0.045985055438168512 0.45746993882412434 -1.0176547857216112
decision_type=2 2 2 2 2 2 2 2 2 2 2 2 2 2 2 2 2 2 2 2 2 2 2 2 2 2 2 2 2 2
left_child=1 3 6 9 11 10 12 21 15 18 19 29 25 24 -6 -7 -11 -13 -1 -4 -9 -5 -16 -10 -8 -2 -12 -14 -15 -3
right_child=2 4 5 7 14 8 13 20 23 16 26 17 27 28 22 -17 -18 -19 -20 -21 -22 -23 -24 -25 -26 -27 -28 -29 -30 -31
leaf_value=-0.035876376288277764 0.0012321823400917413 -0.012569094591197514 0.014930302836000921 -0.020960439537607491 -0.0041269942804978326 0.024259282731347614 0.0079943316137770885 -0.016566666747842514 0.032308350779392106 -0.026320322673945202 0.019350545982151857 -0.008854682735788327 0.0047457513183552704 0.011407768097801954 -0.002099883788775242 0.027954245739512974 -0.023099046530468126 -0.0068951502462828553 -0.030413119104646502 0.017182224663319413 -0.014364811891762468 -0.018618142445172584 -0.00028942707666896309 0.037172297084773029 0.0097016625216713656 0.0028795389864498225 0.02144981171718981 0.0064187830829593763 0.01317020162112183 -0.010834455777491842
leaf_weight=28 270 168 216 168 464 162 301 196 54 168 162 336 302 243 297 135 140 364 84 270 308 252 324 27 270 351 189 224 216 280
leaf_count=28 270 168 216 168 464 162 301 196 54 168 162 336 302 243 297 135 140 364 84 270 308 252 324 27 270 351 189 224 216 280
internal_value=-7.87788e-12 -0.0112838 0.0118992 -0.0201633 -0.00593938 0.0209918 0.00682454 -0.0171911 0.0276511 -0.0267022 0.0179844 -0.00925981 0.00367431 0.0103326 -0.00242614 0.0259388 -0.0248561 -0.00783573 -0.0317789 0.0161814 -0.0152211 -0.0195551 -0.0011553 0.0339297 0.00880165 0.0021633 0.0204809 0.00545822 0.0122371 -0.0114849
internal_weight=6969 3577 3392 1344 2233 1215 2177 924 378 420 837 1148 1147 1030 1085 297 308 700 112 486 504 420 621 81 571 621 351 526 459 448
internal_count=6969 3577 3392 1344 2233 1215 2177 924 378 420 837 1148 1147 1030 1085 297 308 700 112 486 504 420 621 81 571 621 351 526 459 448
is_linear=0
shrinkage=0.05


Tree=23
num_leaves=31
num_cat=0
split_feature=3 3 3 3 3 3 3 3 3 3 3 3 3 3 3 3 3 3 3 3 3 3 3 3 3 3 3 3 3 3
split_gain=337.834 62.8917 54.7807 10.0984 9.42807 8.63953 8.14618 1.60166 1.53857 1.49428 1.46705 1.28513 1.24306 1.00575 0.70993 0.362927 0.324976 0.295335 0.226352 0.226062 0.188175 0.169585 0.168047 0.165199 0.163789 0.15373 0.148289 0.143276 0.122808 0.11285
threshold=-0.32094663276061974 0.52962446711322031 -1.147013984577067 0.057711161368218945 1.0926145842536965 -0.66566547850482261 -1.6527110213142084 0.77720586739296837 -0.89191052684215322 0.30740510990657105 1.5234397376768334 -2.0522652159901309 -1.3909402924665486 -0.11939126046805178 -0.50281018966208679 1.2844455410300577 -1.8222865081883159 0.89497052046794756 -1.0176547857216112 0.17282456363902907 -1.2517921222031985 -0.78914670289946087 -0.20539903604738585 0.41937189381598466 0.61957880348513561 1.7348434546719027 -1.5213593667174301 -2.2420111748900928 -0.39237946464645451 -0.019743249234245624
decision_type=2 2 2 2 2 2 2 2 2 2 2 2 2 2 2 2 2 2 2 2 2 2 2 2 2 2 2 2 2 2
left_child=2 3 6 13 7 8 11 24 18 19 15 27 26 22 -7 -6 -13 -9 -4 -5 -14 -10 -2 -11 -3 -12 -8 -1 -16 -15
right_child=1 4 5 9 10 14 12 17 21 23 25 16 20 29 28 -17 -18 -19 -20 -21 -22 -23 -24 -25 -26 -27 -28 -29 -30 -31
leaf_value=-0.034082559176853731 0.00036922967673907526 0.013555671507246281 -0.012303206766290325 0.0064940869167156821 0.023046318469224156 -0.0046214155079323353 -0.020240735280371847 0.017556122152341737 -0.0085855943044381485 0.010230193643106355 0.03069293366538154 -0.025964320099779538 -0.016206446402366199 0.0034353927514744727 -0.0024733032125026453 0.026556533365337937 -0.022702558382990817 0.020097117825054828 -0.010292732971055167 0.0083501706977090941 -0.014214717224240303 -0.0069194763843413625 0.0020284183999885702 0.012027190788169948 0.015518216350318964 0.035313683417108326 -0.018216351891050534 -0.029702066789780348 -0.00095802017860806797 0.0049256082255024099
leaf_weight=28 351 189 280 308 162 413 168 216 280 270 54 140 252 297 351 135 168 243 280 351 224 336 270 243 243 27 196 56 216 222
leaf_count=28 351 189 280 308 162 413 168 216 280 270 54 140 252 297 351 135 168 243 280 351 224 336 270 243 243 27 196 56 216 222
internal_value=-1.39961e-11 0.0107079 -0.0113179 0.00579884 0.0196518 -0.00651182 -0.0197286 0.0168447 -0.00940117 0.00905789 0.0262686 -0.0256803 -0.0169512 0.00244831 -0.0030446 0.0246419 -0.0241852 0.0189014 -0.011298 0.00748268 -0.0152692 -0.0076768 0.00109062 0.0110814 0.0146596 0.0322332 -0.0191507 -0.0311622 -0.00189605 0.00407283
internal_weight=6969 3581 3388 2312 1269 2156 1232 891 1176 1172 378 392 840 1140 980 297 308 459 560 659 476 616 621 513 432 81 364 84 567 519
internal_count=6969 3581 3388 2312 1269 2156 1232 891 1176 1172 378 392 840 1140 980 297 308 459 560 659 476 616 621 513 432 81 364 84 567 519
is_linear=0
shrinkage=0.05


Tree=24
num_leaves=31
num_cat=0
split_feature=3 3 3 3 3 3 3 3 3 3 3 3 3 3 3 3 3 3 3 3 3 3 3 3 3 3 3 3 3 3
split_gain=304.916 55.3299 50.9921 9.4173 7.96526 7.84221 7.55174 1.58204 1.56014 1.43174 1.12882 1.10521 1.06362 0.856683 0.574485 0.295408 0.265813 0.233001 0.204827 0.195867 0.174117 0.167888 0.158234 0.157084 0.152591 0.138741 0.135107 0.119501 0.101548 0.0774353
threshold=-0.25971929168648694 -1.0523991797330174 0.55857307920360622 -1.5848527434977726 1.1411748052773576 0.11404842498612223 -0.60681457918600656 -1.9605105247421972 0.84300476257756718 -1.3191537940211184 0.34004185135591153 -0.82122840901315242 1.5234397376768334 -0.090876792543141308 -0.4033297071733159 -1.7650739976693524 -2.2420111748900928 0.70790150142813124 -1.1962843267664203 1.3519659998696409 0.99940061097948407 -1.4467979861072264 0.21512867743650127 1.0000000180025095e-35 -0.93665773828888865 1.7348434546719027 0.45746993882412434 -0.73276920802409728 -0.50281018966208679 -0.20539903604738585
decision_type=2 2 2 2 2 2 2 2 2 2 2 2 2 2 2 2 2 2 2 2 2 2 2 2 2 2 2 2 2 2
left_child=1 3 5 7 8 13 11 16 17 21 22 24 19 29 28 -9 -1 -4 -11 -6 -10 -5 -7 -15 -3 -14 -12 -13 -8 -2
right_child=2 6 4 9 12 10 14 15 20 18 26 27 25 23 -16 -17 -18 -19 -20 -21 -22 -23 -24 -25 -26 -27 -28 -29 -30 -31
leaf_value=-0.032378430025918142 0.00077467055456351922 -0.010385293893456932 0.013697955307585222 -0.018193018999026749 0.023001847471351977 0.0069133339701804401 -0.0037530942935952733 -0.023448959578360833 0.01801288212063136 -0.01436958990192839 0.010213512372639445 -0.0071921956740201472 0.029158286915885082 0.0036057036963325962 -0.00056655639093521504 -0.020441784603255138 -0.026931722675051006 0.015832094185882144 -0.012382487959966257 0.026013149118717806 0.020181348358775365 -0.016189230632569111 0.008537373231466772 0.0052578257396817211 -0.008726270512568874 0.033548000013386765 0.011891226028954541 -0.0057518262144488595 -0.0024041152092301931 0.0020962313773066395
leaf_weight=28 162 252 270 196 162 303 245 140 216 224 270 252 54 270 432 196 112 243 308 81 162 224 297 308 308 27 216 336 324 351
leaf_count=28 162 252 270 196 162 303 245 140 216 224 270 252 54 270 432 196 112 243 308 81 162 224 297 308 308 27 216 336 324 351
internal_value=3.38508e-12 -0.0101846 0.01074 -0.0178132 0.0189461 0.00616018 -0.00511541 -0.0235554 0.0165048 -0.014942 0.00916804 -0.00788313 0.0256596 0.00316611 -0.00194125 -0.0216948 -0.0280211 0.0147089 -0.0132192 0.0240056 0.0189422 -0.0171243 0.00771723 0.00448607 -0.00947283 0.0306215 0.0109592 -0.00636913 -0.00298496 0.0016789
internal_weight=6969 3577 3392 1428 1215 2177 2149 476 891 952 1086 1148 324 1091 1001 336 140 513 532 243 378 420 600 578 560 81 486 588 569 513
internal_count=6969 3577 3392 1428 1215 2177 2149 476 891 952 1086 1148 324 1091 1001 336 140 513 532 243 378 420 600 578 560 81 486 588 569 513
is_linear=0
shrinkage=0.05


Tree=25
num_leaves=31
num_cat=0
split_feature=3 3 3 3 3 3 3 3 3 3 3 3 3 3 3 3 3 3 3 3 3 3 3 3 3 3 3 3 0 3
split_gain=275.251 51.2219 44.6393 8.22439 7.68627 7.03215 6.65111 1.31277 1.25222 1.21837 1.20575 1.14751 0.95888 0.815216 0.571424 0.25788 0.203571 0.191458 0.184993 0.182827 0.177508 0.173103 0.147488 0.136195 0.135269 0.132635 0.124745 0.112936 0.111224 0.0902417
threshold=-0.32094663276061974 0.52962446711322031 -1.147013984577067 0.057711161368218945 1.0926145842536965 -0.66566547850482261 -1.6877917943462069 0.80313547842794653 -0.89191052684215322 0.30740510990657105 1.4003432299245155 -1.4126262932494154 -2.0522652159901309 -0.11939126046805178 -0.51479557552623323 1.7348434546719027 -1.8222865081883159 0.63833463812904578 0.18211890265418415 -1.0176547857216112 -1.2517921222031985 0.93100144653700656 1.2121715621563951 -0.78914670289946087 0.41937189381598466 -0.20539903604738585 -1.5386324099454154 -2.2420111748900928 -0.28266271183939545 -0.019743249234245624
decision_type=2 2 2 2 2 2 2 2 2 2 2 2 2 2 2 2 2 2 2 2 2 2 2 2 2 2 2 2 2 2
left_child=2 3 6 13 7 8 12 17 19 18 22 26 27 25 -7 -12 -14 -3 -5 -4 -13 -9 -6 -10 -11 -2 -8 -1 -16 -15
right_child=1 4 5 9 10 14 11 21 23 24 15 20 16 29 28 -17 -18 -19 -20 -21 -22 -23 -24 -25 -26 -27 -28 -29 -30 -31
leaf_value=-0.030759508269173758 0.00034814461950478508 0.012340847485595281 -0.011098879966884852 0.0059299901561505764 0.0202292676601145 -0.0042471257600585881 -0.018568253481671924 0.016337852938859553 -0.0077430121840110847 0.0092331504187098262 0.026407335257088702 -0.014723564647138119 -0.023424000580395971 0.0031039216384755744 -0.0012088108092401936 0.031870597821694838 -0.020727631843515806 0.014338022751940621 0.0076056855454764982 -0.0092920121111507922 -0.01283517936244607 0.018409865030220577 0.022708244191275706 -0.0062499020082343905 0.010859231856256847 0.0018221859013472031 -0.016711516579499052 -0.026870376962636201 -0.002601272932495268 0.0044365299068525573
leaf_weight=28 351 216 280 335 108 386 168 216 280 270 108 280 140 297 352 27 140 270 324 280 224 189 135 336 243 270 196 56 242 222
leaf_count=28 351 216 280 335 108 386 168 216 280 270 108 280 140 297 352 27 140 270 324 280 224 189 135 336 243 270 196 56 242 222
internal_value=-2.62751e-12 0.00966537 -0.010216 0.00523508 0.017737 -0.00587749 -0.0178083 0.0152024 -0.00848423 0.00817622 0.0237113 -0.0154293 -0.0234814 0.00221137 -0.00274939 0.0275 -0.0220758 0.0134504 0.00675385 -0.0101954 -0.0138843 0.0173048 0.0216065 -0.00692859 0.0100034 0.000989032 -0.0175685 -0.0281668 -0.00177611 0.00367394
internal_weight=6969 3581 3388 2312 1269 2156 1232 891 1176 1172 378 868 364 1140 980 135 280 486 659 560 504 405 243 616 513 621 364 84 594 519
internal_count=6969 3581 3388 2312 1269 2156 1232 891 1176 1172 378 868 364 1140 980 135 280 486 659 560 504 405 243 616 513 621 364 84 594 519
is_linear=0
shrinkage=0.05


Tree=26
num_leaves=31
num_cat=0
split_feature=3 3 3 3 3 3 3 3 3 3 3 3 3 3 3 3 3 3 3 3 3 3 3 16 3 3 3 3 3 0
split_gain=248.465 48.276 38.2986 7.96628 6.96185 6.00672 5.64866 1.34186 1.3067 0.956676 0.917487 0.851044 0.809889 0.789559 0.749793 0.241975 0.235383 0.221182 0.210991 0.146189 0.130811 0.129761 0.125409 0.118927 0.113682 0.112903 0.106991 0.101925 0.101739 0.0962356
threshold=-0.34421800736712788 0.48109488986179128 -1.147013984577067 1.0383641414849831 0.045985055438168512 -1.6527110213142084 -0.73276920802409728 1.4003432299245155 0.77720586739296837 -2.0522652159901309 -1.3792361818838654 0.25300786816931764 -0.13589969160385915 -0.57519511133653689 -0.92615715848170377 1.6061464779789263 -1.8222865081883159 0.61957880348513561 1.2121715621563951 0.89497052046794756 0.38086344131566913 -1.5213593667174301 -0.239600366817285 1.8948030596200194 -1.0391493922521713 -1.2517921222031985 -0.46374598064305439 -2.2420111748900928 0.15423968449258993 -0.22194336236812809
decision_type=2 2 2 2 2 2 2 2 2 2 2 2 2 2 2 2 2 2 2 2 2 2 2 2 2 2 2 2 2 2
left_child=2 4 5 8 12 9 14 18 17 27 21 28 22 -8 24 -9 -11 -3 -5 -10 -13 -7 -2 -17 -4 -12 -15 -1 -6 -14
right_child=1 3 6 7 11 10 13 15 19 16 25 20 29 26 -16 23 -18 -19 -20 -21 -22 -23 -24 -25 -26 -27 -28 -29 -30 -31
leaf_value=-0.029221532813140324 -1.5645693027765424e-05 0.011270134276412554 -0.010733944959273297 0.018896402887724068 0.0053502031848100678 -0.017349888588346185 -0.0049445412208399516 0.02439659405269741 0.015053926798066608 -0.02225280042205538 -0.013780921794074988 0.0081756793951362743 0.0043123411323212407 -0.0028578266632344942 -0.0071828044887940245 0.026845751477010321 -0.019476834862005146 0.013304176647599343 0.021572831880163262 0.016958061262728679 0.0097641861342169633 -0.015511628706008196 0.0013755156403622544 0.031659028005032314 -0.0091858602291534832 -0.012193420329796416 -0.0015683900436538082 -0.025526857455926283 0.0067079533631091608 0.0028611965590529635
leaf_weight=28 324 297 224 162 280 168 419 81 216 140 224 324 163 297 532 33 168 243 135 189 216 224 324 21 252 224 351 56 272 382
leaf_count=28 324 297 224 162 280 168 419 81 216 140 224 324 163 297 532 33 168 243 135 189 216 224 324 21 252 224 351 56 272 382
internal_value=1.49809e-11 0.0089717 -0.0099348 0.0163669 0.00451514 -0.0169179 -0.00578869 0.0219917 0.0137956 -0.0220286 -0.0145329 0.00739982 0.00187467 -0.00325309 -0.00847271 0.026125 -0.0207386 0.0121855 0.020113 0.0159425 0.00881108 -0.0162995 0.000679935 0.0287176 -0.00991437 -0.0129872 -0.00215938 -0.0267584 0.00601924 0.00329521
internal_weight=6969 3662 3307 1377 2285 1232 2075 432 945 392 840 1092 1193 1067 1008 135 308 540 297 405 540 392 648 54 476 448 648 84 552 545
internal_count=6969 3662 3307 1377 2285 1232 2075 432 945 392 840 1092 1193 1067 1008 135 308 540 297 405 540 392 648 54 476 448 648 84 552 545
is_linear=0
shrinkage=0.05


Tree=27
num_leaves=31
num_cat=0
split_feature=4 4 0 0 4 0 1 4 1 1 0 1 1 1 4 13 4 0 0 4 16 17 0 15 17 1 13 13 0 13
split_gain=175.722 33.3896 26.9329 6.05933 5.7637 4.51994 4.34802 1.57652 1.3952 1.3828 1.37019 1.07947 1.00595 0.877142 0.733371 0.557055 0.459879 0.451327 0.443856 0.435987 0.419193 0.386554 0.370812 0.367838 0.365413 0.358985 0.336044 0.327369 0.319902 0.299421
threshold=-0.34480345790339179 0.39832424189294624 -0.99745165857211615 0.64910681538001802 -1.3384045699109999 -0.019743249234245624 -0.67262722388882401 0.96880779663849559 -0.47856367289024071 -1.5549616993711246 -0.38365452394797867 0.094184937910776548 -1.1814205737293728 0.26748477913736751 -0.94485497733351875 0.58820244837649049 -0.17916212093037082 0.44027298284827182 -1.4896627015327104 -0.90969414728270415 1.0166385748217397 12.500000000000002 0.27589586327912213 -0.99849486328480819 8.5000000000000018 0.26748477913736751 -1.2514969547416037 0.38981361455644009 -1.3389083521939027 -1.1780281211922208
decision_type=2 2 2 2 2 2 2 2 2 2 2 2 2 2 2 2 2 2 2 2 2 2 2 2 2 2 2 2 2 2
left_child=2 5 4 13 9 8 14 20 -2 26 23 -7 28 -3 -4 -9 -10 -13 -11 -14 -5 -22 -15 24 29 -18 -1 -12 -6 -8
right_child=1 3 6 7 12 11 10 15 16 18 27 17 19 22 -16 -17 25 -19 -20 -21 21 -23 -24 -25 -26 -27 -28 -29 -30 -31
leaf_value=-0.019581055390500576 -0.0022722097251265615 0.0066265949518419798 -0.0087649019649677223 0.0083672112340162346 -0.013952229263142069 0.0039178071973815639 -0.0058896560896522345 0.01545979400288384 0.00030098798142264124 -0.015958015724670056 -0.00024210750523907243 0.0060600822555909682 -0.0098254827439561692 0.0081814247697538298 -0.0056904024683086286 0.019129068639783847 0.0022973649941879968 0.0088513978290290628 -0.012570923600399582 -0.0066048332600431711 0.014501350032835106 0.0080968036018311991 0.011556489990077547 -0.00058501313509292557 -0.005068028616803986 0.0055844938756335191 -0.016671263335927115 0.0044593814408361186 -0.010680850077443904 -0.00081986181139338604
leaf_weight=214 237 200 313 34 141 470 39 159 241 172 382 391 245 111 510 296 429 230 221 184 409 25 305 88 320 103 185 41 159 115
leaf_count=214 237 200 313 34 141 470 39 159 241 172 382 391 245 111 510 296 429 230 221 184 409 25 305 88 320 103 185 41 159 115
internal_value=-9.36248e-14 0.00759284 -0.00830217 0.0131881 -0.0132055 0.00349428 -0.00417721 0.0157511 0.00108396 -0.0161584 -0.00193592 0.00572565 -0.00999733 0.00934771 -0.00685968 0.0178468 0.00211295 0.0070939 -0.0140533 -0.00844413 0.0137136 0.0141324 0.0106559 -0.00355379 -0.00410496 0.00293378 -0.0182319 0.000213592 -0.0122184 -0.00210377
internal_weight=6969 3640 3329 1539 1521 2101 1808 923 1010 792 985 1091 729 616 823 455 773 621 393 429 468 434 416 562 474 532 399 423 300 154
internal_count=6969 3640 3329 1539 1521 2101 1808 923 1010 792 985 1091 729 616 823 455 773 621 393 429 468 434 416 562 474 532 399 423 300 154
is_linear=0
shrinkage=0.05


Tree=28
num_leaves=31
num_cat=0
split_feature=3 3 3 3 3 3 3 3 3 3 3 3 3 3 3 3 3 3 3 3 0 0 3 0 11 1 0 3 0 3
split_gain=205.561 36.2799 35.5849 5.90013 5.84929 5.34294 5.25506 1.22579 0.940639 0.928455 0.785151 0.736859 0.697405 0.588961 0.545868 0.205994 0.17793 0.145576 0.138426 0.135893 0.134464 0.122302 0.11624 0.114968 0.108597 0.106191 0.10042 0.0982392 0.098059 0.0932174
threshold=-0.27474616389189432 -1.0863103913933416 0.52962446711322031 1.1411748052773576 -1.6290247418324901 -0.65501811638742835 0.094184937910776548 0.84300476257756718 -1.3327559056828375 -2.0062121603000147 1.5234397376768334 0.30740510990657105 -0.89191052684215322 -0.10286330889119545 -0.47109035012399209 0.67591821902454374 -1.7650739976693524 -2.2420111748900928 1.3519659998696409 -1.4661750796135649 -0.2666465612728896 -0.22194336236812809 0.99940061097948407 -0.65185741668696118 -0.15159413927100301 -0.55146869738304471 0.47878630499594066 -1.1962843267664203 -0.2497581708137879 0.19831274592577294
decision_type=2 2 2 2 2 2 2 2 2 2 2 2 2 2 2 2 2 2 2 2 2 2 2 2 2 2 2 2 2 2
left_child=1 4 6 7 9 12 13 15 19 17 18 29 -3 28 25 -4 -11 -1 -5 -6 -16 -15 -9 -14 -12 -7 -13 -10 -2 -8
right_child=2 5 3 10 8 14 11 22 27 16 24 26 23 21 20 -17 -18 -19 -20 -21 -22 -23 -24 -25 -26 -27 -28 -29 -30 -31
leaf_value=-0.026866768885936056 0.0019607534516243343 -0.0084931913513823284 0.010871430119430578 0.018895261532362598 -0.015244906967771905 -0.0025120040431519043 0.0054330895706766946 0.014787484784783037 -0.011859220118513184 -0.019525515687252797 0.024375055144067671 0.0091730265314748267 -0.0053585050746798521 0.0046446311775958397 -0.000359894364851908 0.012779649520161177 -0.017111996891243118 -0.022703784331679345 0.021426783189361479 -0.013503264050398554 -0.0018820294412047849 0.0030141340372872288 0.01655926608744963 -0.0067131010185387061 0.028620669841766356 -0.0039797950562089684 0.0077228037748860306 -0.010420118288935297 0.00059738688743768724 0.0067087075369501557
leaf_weight=28 229 448 270 162 224 243 305 216 252 168 61 324 375 164 342 297 140 84 81 224 252 385 162 269 20 250 189 224 311 270
leaf_count=28 229 448 270 162 224 243 305 216 252 168 61 324 375 164 342 297 140 84 81 224 252 385 162 269 20 250 189 224 311 270
internal_value=5.98797e-12 -0.00849291 0.00868268 0.0153376 -0.0149536 -0.004508 0.00480343 0.0133413 -0.0127297 -0.0198461 0.0211602 0.00726113 -0.00697822 0.00234799 -0.00202642 0.011871 -0.0184285 -0.0237445 0.0197391 -0.0143741 -0.00100565 0.0035012 0.0155468 -0.00592432 0.0254234 -0.00325632 0.00863873 -0.011182 0.00117556 0.00603208
internal_weight=6969 3523 3446 1269 1344 2179 2177 945 924 420 324 1088 1092 1089 1087 567 308 112 243 448 594 549 378 644 81 493 513 476 540 575
internal_count=6969 3523 3446 1269 1344 2179 2177 945 924 420 324 1088 1092 1089 1087 567 308 112 243 448 594 549 378 644 81 493 513 476 540 575
is_linear=0
shrinkage=0.05


Tree=29
num_leaves=31
num_cat=0
split_feature=3 3 3 3 3 3 3 3 3 3 3 3 3 3 3 3 3 3 3 0 3 3 0 3 0 4 16 0 4 3
split_gain=185.638 36.1618 28.6571 6.4652 4.83883 4.58762 4.21535 1.26574 0.907385 0.768152 0.688276 0.637932 0.579576 0.563559 0.471073 0.260839 0.161335 0.14315 0.128596 0.127486 0.119662 0.11693 0.112494 0.112062 0.103625 0.100246 0.100161 0.0995518 0.0986383 0.0860415
threshold=-0.34421800736712788 0.45746993882412434 -1.147013984577067 0.99940061097948407 0.022102653111950501 -1.6877917943462069 -0.73276920802409728 1.3519659998696409 0.72593924107227448 -1.4126262932494154 -2.0522652159901309 0.21512867743650127 -0.59925363072532822 -0.96016170074998652 -0.17053912016049613 1.6061464779789263 1.1697044676839476 -1.8679892299369603 0.5939338373311327 -0.28266271183939545 0.86197653733494173 -1.2517921222031985 0.16520400675950106 -0.82122840901315242 0.44027298284827182 -1.0136844609419329 1.8948030596200194 -0.2666465612728896 -0.32139697728012157 -0.47109035012399209
decision_type=2 2 2 2 2 2 2 2 2 2 2 2 2 2 2 2 2 2 2 2 2 2 2 2 2 2 2 2 2 2
left_child=2 4 5 8 14 10 13 16 18 -7 -1 22 -8 25 27 -9 -5 -12 -3 29 -10 -11 -6 -15 -13 -4 -17 -2 -16 -14
right_child=1 3 6 7 11 9 12 15 20 21 17 24 19 23 28 26 -18 -19 -20 -21 -22 -23 -24 -25 -26 -27 -28 -29 -30 -31
leaf_value=-0.023308987028542019 0.0010775094475956608 0.0094517710295690845 -0.007955777516236176 0.01589793018090031 0.0054538112924953476 -0.014402273096717322 -0.0044299601935423342 0.02083513749142488 0.012503132475501716 -0.012069147607045515 -0.019533211245600667 0.0077500569794712402 -0.0021519512038131634 -0.0069375456812290045 0.0035375766844178238 0.023373364092725696 0.018161059331010889 -0.017225504560129983 0.011055154615530263 -0.0028839945100292926 0.014180608007012221 -0.010536487809648472 0.0039938075933605433 -0.0055659119394563493 0.0063180464094406688 -0.0095574542088209154 0.027790585231213347 -0.00028102007656496844 0.0020434195502143137 -0.00077664429658008368
leaf_weight=84 261 297 185 189 339 364 364 108 243 280 112 377 231 364 150 33 135 168 216 248 189 224 216 252 190 207 21 279 419 224
leaf_count=84 261 297 185 189 339 364 364 108 243 280 112 377 231 364 150 33 135 168 216 248 189 224 216 252 190 207 21 279 419 224
internal_value=7.32918e-12 0.00775489 -0.00858736 0.0139588 0.0037756 -0.0146279 -0.00500091 0.0186452 0.0115487 -0.012652 -0.0193394 0.00609065 -0.0028105 -0.00731953 0.00143341 0.0222538 0.0168409 -0.0181486 0.0101269 -0.00197198 0.013237 -0.011388 0.00488559 -0.00637642 0.00727019 -0.00880156 0.0250912 0.000375603 0.00243731 -0.00147488
internal_weight=6969 3662 3307 1431 2231 1232 2075 486 945 868 364 1122 1067 1008 1109 162 324 280 513 703 432 504 555 616 567 392 54 540 569 455
internal_count=6969 3662 3307 1431 2231 1232 2075 486 945 868 364 1122 1067 1008 1109 162 324 280 513 703 432 504 555 616 567 392 54 540 569 455
is_linear=0
shrinkage=0.05


Tree=30
num_leaves=31
num_cat=0
split_feature=3 3 3 3 3 3 3 3 3 3 3 3 3 3 3 3 3 3 1 3 0 0 0 16 0 3 3 0 0 3
split_gain=167.556 31.4422 27.237 5.44108 4.38579 4.24008 4.19463 1.10302 0.737797 0.657625 0.646116 0.642097 0.559084 0.506177 0.383883 0.208264 0.166597 0.116451 0.108695 0.106075 0.1048 0.104768 0.0984069 0.0979625 0.0931884 0.0899165 0.0864782 0.0837055 0.0793578 0.0748692
threshold=-0.239600366817285 -1.0391493922521713 0.58158823329398424 -1.5386324099454154 0.13468106488853451 -0.60681457918600656 1.1411748052773576 -1.9189047149147158 0.86197653733494173 -1.2903909467330819 1.5234397376768334 0.36945605533383524 -0.82122840901315242 -0.056151131270498464 -0.39237946464645451 -2.1434361886776299 -1.7337424036260669 1.2844455410300577 -0.48880863824838472 0.72593924107227448 -0.2497581708137879 -0.66356166655956927 -0.25893140943706427 1.9123931958423788 0.47878630499594066 0.25300786816931764 -1.147013984577067 -0.86868864435398108 -1.1333808252619779 0.99940061097948407
decision_type=2 2 2 2 2 2 2 2 2 2 2 2 2 2 2 2 2 2 2 2 2 2 2 2 2 2 2 2 2 2
left_child=1 3 4 7 13 12 8 15 19 28 17 25 27 20 18 -1 -9 -8 -7 -4 -2 -14 -15 -12 -13 -6 -11 -3 -5 -10
right_child=2 5 6 9 11 14 10 16 29 26 23 24 21 22 -16 -17 -18 -19 -20 -21 -22 -23 -24 -25 -26 -27 -28 -29 -30 -31
leaf_value=-0.022989318599658356 0.002379667843919471 -0.0063046632591506535 0.010400612152530332 -0.011812250179295637 0.0054276740774739443 -0.0014789408665839077 0.016588349171258784 -0.016954788970095773 0.013471577624006879 -0.010169100604419197 0.021939856112003327 0.0090735002759505402 -0.0040917231201973254 0.004888399932829161 -0.00026523069988123254 -0.019254847030554498 -0.014756086252496713 0.018791098892688752 -0.0028311147797144593 0.011877975772315093 0.00098111790898474283 -0.0054310207206893849 0.0032860390774876579 0.025907723676590694 0.0076322548339764276 0.0066285956600800116 -0.0088510393846913098 -0.0075592421270164623 -0.013312040251635371 0.01493640635392548
leaf_weight=56 217 261 243 294 328 283 108 140 189 280 60 264 318 126 459 112 224 135 313 243 350 270 400 21 195 297 224 271 126 162
leaf_count=56 217 261 243 294 328 283 108 140 189 280 60 264 318 126 459 112 224 135 313 243 350 270 400 21 195 297 224 271 126 162
internal_value=2.8807e-12 -0.00743352 0.00808601 -0.0131202 0.00478769 -0.00362668 0.0142707 -0.0171485 0.0124009 -0.010801 0.0191012 0.0070412 -0.0057693 0.00255273 -0.00135206 -0.0204997 -0.0156017 0.0178121 -0.00218906 0.0111393 0.00151637 -0.00470671 0.00366987 0.0229686 0.00846121 0.00599835 -0.0095833 -0.00694374 -0.0122622 0.0141477
internal_weight=6969 3631 3338 1456 2177 2175 1161 532 837 924 324 1084 1120 1093 1055 168 364 243 596 486 567 588 526 81 459 625 504 532 420 351
internal_count=6969 3631 3338 1456 2177 2175 1161 532 837 924 324 1084 1120 1093 1055 168 364 243 596 486 567 588 526 81 459 625 504 532 420 351
is_linear=0
shrinkage=0.05


Tree=31
num_leaves=31
num_cat=0
split_feature=0 4 4 0 0 4 1 1 4 1 4 5 4 1 1 0 0 1 16 1 4 13 0 4 13 13 0 16 13 1
split_gain=116.108 21.8936 17.7722 3.79356 3.79024 2.99668 2.59771 1.04151 0.940441 0.935169 0.694939 0.671611 0.656591 0.603613 0.545829 0.490063 0.379272 0.362817 0.348527 0.322938 0.310373 0.292564 0.289149 0.236353 0.230067 0.221463 0.22096 0.208593 0.197352 0.196168
threshold=-0.32973449433016538 0.39832424189294624 -0.99989216392943192 0.64910681538001802 -1.3713393362482658 -0.1869867362744804 -0.50281018966208679 1.0736949357126357 -1.6140531358256256 1.0000000180025095e-35 -0.58543945771068129 -0.86190201517849718 -0.25018496004707613 -0.68088434023245192 0.26748477913736751 0.40323811180040048 0.98414174040914115 -1.1904376990565175 1.7024976149456723 -1.5757031368555194 -1.4860883310107822 -0.82556053035624799 -0.0071947336303676184 0.76888042070540652 -0.49956657085849121 -1.2514969547416037 -0.50281018966208679 1.0174788144454256 0.087189537926784355 0.094184937910776548
decision_type=2 2 2 2 2 2 2 2 2 2 2 2 2 2 2 2 2 2 2 2 2 2 2 2 2 2 2 2 2 2
left_child=2 5 4 14 8 13 10 16 25 21 17 20 28 -2 -3 24 27 -4 -9 -10 -6 -7 -15 -16 -11 -1 -19 -5 -8 -24
right_child=1 3 6 7 11 9 12 18 19 15 -12 -13 -14 22 23 -17 -18 26 -20 -21 -22 -23 29 -25 -26 -27 -28 -29 -30 -31
leaf_value=-0.016200146286964718 -0.0033786460334037354 0.0054714407033523444 -0.0082764729728725377 0.0069186425558291388 -0.011504791414336069 -0.0024678194358582714 -0.0025575958127778929 0.012893333343149972 -0.013616657944121322 0.0016533427944523283 -0.0030973464049953107 -0.0063635105269281905 0.001048294419888407 4.6346685259089815e-05 0.0078725653465628442 0.0070745040927311202 0.012911176100205325 -0.0056673484543338648 0.01610588815063238 -0.010486784969240165 -0.0086760462025995376 0.0028781047084269645 0.0013200385017909993 0.01043755245969585 0.0048330263771198647 -0.01370312564584039 -0.002793081691178687 0.010776916006105253 0.00025433111507948994 0.0044412770820125734
leaf_weight=198 96 193 123 40 128 27 398 137 122 64 355 289 251 402 281 266 244 508 220 254 400 491 173 132 512 161 77 282 74 71
leaf_count=198 96 193 123 40 128 27 398 137 122 64 355 289 251 402 281 266 244 508 220 254 400 491 173 132 512 161 77 282 74 71
internal_value=4.93185e-12 0.00618794 -0.0067311 0.0107402 -0.0106448 0.00287661 -0.00333014 0.0127582 -0.0132499 0.00427107 -0.00490277 -0.00830121 -0.00101795 0.000320726 0.00766656 0.00529946 0.0114243 -0.00580803 0.0148731 -0.0115023 -0.0093618 0.00259946 0.000870478 0.00869237 0.00447973 -0.0150803 -0.00528903 0.0102976 -0.00211674 0.00222827
internal_weight=6969 3631 3338 1529 1552 2102 1786 923 735 1360 1063 817 723 742 606 842 566 708 357 376 528 518 646 413 576 359 585 322 472 244
internal_count=6969 3631 3338 1529 1552 2102 1786 923 735 1360 1063 817 723 742 606 842 566 708 357 376 528 518 646 413 576 359 585 322 472 244
is_linear=0
shrinkage=0.05


Tree=32
num_leaves=31
num_cat=0
split_feature=3 3 3 3 3 3 3 3 3 3 3 3 3 3 3 4 4 3 4 3 3 1 4 4 3 4 3 16 4 4
split_gain=138.785 26.1293 22.634 4.58197 3.7921 3.48412 3.44547 0.845528 0.659817 0.568714 0.565089 0.50309 0.501825 0.465558 0.318074 0.139623 0.130017 0.120636 0.118279 0.117846 0.11462 0.114302 0.114117 0.106967 0.102112 0.100902 0.0932773 0.0856819 0.0846463 0.0798747
threshold=-0.239600366817285 -1.0391493922521713 0.5939338373311327 -1.6290247418324901 0.15423968449258993 -0.60681457918600656 1.1411748052773576 -1.3327559056828375 -2.0062121603000147 0.86197653733494173 1.5234397376768334 -0.019743249234245624 0.38086344131566913 -0.79815459422875634 -0.38365452394797867 -0.46389537138495124 -0.27504961593026239 -1.8222865081883159 0.51195998529618081 -2.2420111748900928 -1.1962843267664203 -0.50281018966208679 -1.0136844609419329 0.34312069869790568 1.2844455410300577 -0.23972944051588027 -1.4953628397413332 1.9123931958423788 0.66362275394533332 -0.35210788116705466
decision_type=2 2 2 2 2 2 2 2 2 2 2 2 2 2 2 2 2 2 2 2 2 2 2 2 2 2 2 2 2 2
left_child=1 3 4 8 11 13 9 26 19 28 24 16 18 22 15 -7 -2 -10 -6 -1 -9 -15 -3 -14 -8 -13 -5 -12 -4 -16
right_child=2 5 6 7 12 14 10 20 17 -11 27 25 23 21 29 -17 -18 -19 -20 -21 -22 -23 -24 -25 -26 -27 -28 -29 -30 -31
leaf_value=-0.02245018444955349 0.0024610625186873296 -0.0053439821008239583 0.010820961187043822 -0.012731285570632845 0.0059576399364894006 -0.0012014239174574742 0.01510524259949172 -0.0097226792902109175 -0.016468557608979091 0.01287102134648891 0.020111419036984445 0.0050099399665163623 0.0087333849745797592 -0.0036610587673852543 0.00057325248152193746 -0.0026985160299246112 0.0010179329705326467 -0.014411496165759711 0.0041726948094108832 -0.018704611896758989 -0.0083120297374469892 -0.0052303377833021322 -0.006769148011304689 0.0071799389949506708 0.017167925006813474 0.003270715347936032 -0.01124102145433426 0.023822255645479476 0.0094580392273409045 -0.00079570885324880636
leaf_weight=28 245 232 249 168 481 309 108 252 112 351 60 108 187 361 191 314 430 196 115 84 336 171 356 272 135 366 280 21 210 241
leaf_count=28 245 232 249 168 481 309 108 252 112 351 60 108 187 361 191 314 430 196 115 84 336 171 356 272 135 366 280 21 210 241
internal_value=3.06647e-12 -0.00676528 0.00735911 -0.0119493 0.00440581 -0.00329494 0.0130991 -0.0101634 -0.0163546 0.011356 0.0174568 0.00241847 0.00657021 -0.00523719 -0.00123303 -0.00195598 0.00154174 -0.0151595 0.00561323 -0.019641 -0.00891659 -0.00416547 -0.00620684 0.00781282 0.0162512 0.00366699 -0.0117999 0.0210735 0.0101974 -0.00019045
internal_weight=6969 3631 3338 1456 2204 2175 1134 1036 420 810 324 1149 1055 1120 1055 623 675 308 596 112 588 532 588 459 243 474 448 81 459 432
internal_count=6969 3631 3338 1456 2204 2175 1134 1036 420 810 324 1149 1055 1120 1055 623 675 308 596 112 588 532 588 459 243 474 448 81 459 432
is_linear=0
shrinkage=0.05


Tree=33
num_leaves=31
num_cat=0
split_feature=3 3 3 3 3 3 3 3 3 3 3 3 3 3 3 3 1 3 0 0 0 0 1 3 3 0 0 4 0 3
split_gain=125.273 24.5078 19.42 4.4624 3.50638 3.29905 2.48784 0.76944 0.745087 0.598153 0.529198 0.418919 0.379151 0.336234 0.289772 0.156444 0.146559 0.136485 0.135787 0.132002 0.119056 0.116081 0.111177 0.110425 0.106944 0.103442 0.103342 0.102419 0.0863818 0.0794995
threshold=-0.34421800736712788 0.45746993882412434 -1.1003719393489446 1.0383641414849831 -1.6290247418324901 0.045985055438168512 -0.69576897515575975 1.4003432299245155 0.74495264971989716 -1.9605105247421972 -1.3475973886077355 -0.13589969160385915 -0.89191052684215322 0.26170032314726471 -0.55146869738304471 1.7348434546719027 -0.50281018966208679 -2.2420111748900928 0.50280220329218639 -0.2497581708137879 -0.22194336236812809 0.039305208217118991 -0.57519511133653689 1.259054449290574 0.89497052046794756 -0.44179251001080455 0.46703340353840994 -0.96895412702687489 -1.1903343736999938 -1.7650739976693524
decision_type=2 2 2 2 2 2 2 2 2 2 2 2 2 2 2 2 2 2 2 2 2 2 2 2 2 2 2 2 2 2
left_child=2 5 4 8 9 11 12 23 18 17 -6 19 27 21 25 -9 -16 -1 -3 -2 -13 -7 -14 -5 -10 -8 -15 -4 -12 -11
right_child=1 3 6 7 10 13 14 15 24 29 28 20 22 26 16 -17 -18 -19 -20 -21 -22 -23 -24 -25 -26 -27 -28 -29 -30 -31
leaf_value=-0.021327675666127886 0.0011778396054972866 0.0092367248415946967 -0.0059608086384033447 0.013572277735780786 -0.011293796153650398 0.0051067369469605835 -0.0026192346057288497 0.018002571745051276 0.010484249020616215 -0.015045110631201951 -0.0081039134677834985 0.0034540682008341417 -0.0042827206727228959 0.0066840935929699356 -0.00048061116995980142 0.02225780255264706 -0.0020879578992996054 -0.017424766785864319 0.007646615981798748 -0.00025010195028867774 0.0018400136981749451 0.00368821653886319 -0.0058453556929122319 0.015576467207736439 0.012034998416269899 -0.0043350479329255093 0.0050789880729909687 -0.007427987031669284 -0.0094597910457062274 -0.013360098435410431
leaf_weight=28 314 250 233 189 420 272 255 108 270 140 211 163 367 311 234 27 360 112 290 334 382 307 165 108 189 134 148 243 265 140
leaf_count=28 314 250 233 189 420 272 255 108 270 140 211 163 367 311 234 27 360 112 290 334 382 307 165 108 189 134 148 243 265 140
internal_value=-1.63016e-12 0.00637048 -0.00705433 0.0114778 -0.0117672 0.00309456 -0.00393925 0.0157237 0.0096417 -0.0155369 -0.0100002 0.00130109 -0.00568463 0.00515584 -0.00214947 0.0188536 -0.00145476 -0.0182053 0.00838278 0.000441833 0.00232275 0.0043546 -0.00476737 0.0143011 0.0111228 -0.00321029 0.00616654 -0.00670981 -0.00885876 -0.0142026
internal_weight=6969 3662 3307 1431 1316 2231 1991 432 999 420 896 1193 1008 1038 983 135 594 140 540 648 545 579 532 297 459 389 459 476 476 280
internal_count=6969 3662 3307 1431 1316 2231 1991 432 999 420 896 1193 1008 1038 983 135 594 140 540 648 545 579 532 297 459 389 459 476 476 280
is_linear=0
shrinkage=0.05


